{"learner":{"attributes":{"scikit_learn":"{\"_estimator_type\": \"classifier\"}"},"feature_names":["x1","y1","x2","y2","x3","y3","x4","y4","x5","y5","x6","y6","x7","y7","x8","y8","x9","y9","x10","y10","x11","y11","x12","y12","x13","y13","x14","y14","x15","y15","x16","y16","x17","y17","x18","y18","x19","y19","x20","y20","x21","y21"],"feature_types":["float","float","float","float","float","float","float","float","float","float","float","float","float","float","float","float","float","float","float","float","float","float","float","float","float","float","float","float","float","float","float","float","float","float","float","float","float","float","float","float","float","float"],"gradient_booster":{"model":{"gbtree_model_param":{"num_parallel_tree":"1","num_trees":"1800"},"iteration_indptr":[0,18,36,54,72,90,108,126,144,162,180,198,216,234,252,270,288,306,324,342,360,378,396,414,432,450,468,486,504,522,540,558,576,594,612,630,648,666,684,702,720,738,756,774,792,810,828,846,864,882,900,918,936,954,972,990,1008,1026,1044,1062,1080,1098,1116,1134,1152,1170,1188,1206,1224,1242,1260,1278,1296,1314,1332,1350,1368,1386,1404,1422,1440,1458,1476,1494,1512,1530,1548,1566,1584,1602,1620,1638,1656,1674,1692,1710,1728,1746,1764,1782,1800],"tree_info":[0,1,2,3,4,5,6,7,8,9,10,11,12,13,14,15,16,17,0,1,2,3,4,5,6,7,8,9,10,11,12,13,14,15,16,17,0,1,2,3,4,5,6,7,8,9,10,11,12,13,14,15,16,17,0,1,2,3,4,5,6,7,8,9,10,11,12,13,14,15,16,17,0,1,2,3,4,5,6,7,8,9,10,11,12,13,14,15,16,17,0,1,2,3,4,5,6,7,8,9,10,11,12,13,14,15,16,17,0,1,2,3,4,5,6,7,8,9,10,11,12,13,14,15,16,17,0,1,2,3,4,5,6,7,8,9,10,11,12,13,14,15,16,17,0,1,2,3,4,5,6,7,8,9,10,11,12,13,14,15,16,17,0,1,2,3,4,5,6,7,8,9,10,11,12,13,14,15,16,17,0,1,2,3,4,5,6,7,8,9,10,11,12,13,14,15,16,17,0,1,2,3,4,5,6,7,8,9,10,11,12,13,14,15,16,17,0,1,2,3,4,5,6,7,8,9,10,11,12,13,14,15,16,17,0,1,2,3,4,5,6,7,8,9,10,11,12,13,14,15,16,17,0,1,2,3,4,5,6,7,8,9,10,11,12,13,14,15,16,17,0,1,2,3,4,5,6,7,8,9,10,11,12,13,14,15,16,17,0,1,2,3,4,5,6,7,8,9,10,11,12,13,14,15,16,17,0,1,2,3,4,5,6,7,8,9,10,11,12,13,14,15,16,17,0,1,2,3,4,5,6,7,8,9,10,11,12,13,14,15,16,17,0,1,2,3,4,5,6,7,8,9,10,11,12,13,14,15,16,17,0,1,2,3,4,5,6,7,8,9,10,11,12,13,14,15,16,17,0,1,2,3,4,5,6,7,8,9,10,11,12,13,14,15,16,17,0,1,2,3,4,5,6,7,8,9,10,11,12,13,14,15,16,17,0,1,2,3,4,5,6,7,8,9,10,11,12,13,14,15,16,17,0,1,2,3,4,5,6,7,8,9,10,11,12,13,14,15,16,17,0,1,2,3,4,5,6,7,8,9,10,11,12,13,14,15,16,17,0,1,2,3,4,5,6,7,8,9,10,11,12,13,14,15,16,17,0,1,2,3,4,5,6,7,8,9,10,11,12,13,14,15,16,17,0,1,2,3,4,5,6,7,8,9,10,11,12,13,14,15,16,17,0,1,2,3,4,5,6,7,8,9,10,11,12,13,14,15,16,17,0,1,2,3,4,5,6,7,8,9,10,11,12,13,14,15,16,17,0,1,2,3,4,5,6,7,8,9,10,11,12,13,14,15,16,17,0,1,2,3,4,5,6,7,8,9,10,11,12,13,14,15,16,17,0,1,2,3,4,5,6,7,8,9,10,11,12,13,14,15,16,17,0,1,2,3,4,5,6,7,8,9,10,11,12,13,14,15,16,17,0,1,2,3,4,5,6,7,8,9,10,11,12,13,14,15,16,17,0,1,2,3,4,5,6,7,8,9,10,11,12,13,14,15,16,17,0,1,2,3,4,5,6,7,8,9,10,11,12,13,14,15,16,17,0,1,2,3,4,5,6,7,8,9,10,11,12,13,14,15,16,17,0,1,2,3,4,5,6,7,8,9,10,11,12,13,14,15,16,17,0,1,2,3,4,5,6,7,8,9,10,11,12,13,14,15,16,17,0,1,2,3,4,5,6,7,8,9,10,11,12,13,14,15,16,17,0,1,2,3,4,5,6,7,8,9,10,11,12,13,14,15,16,17,0,1,2,3,4,5,6,7,8,9,10,11,12,13,14,15,16,17,0,1,2,3,4,5,6,7,8,9,10,11,12,13,14,15,16,17,0,1,2,3,4,5,6,7,8,9,10,11,12,13,14,15,16,17,0,1,2,3,4,5,6,7,8,9,10,11,12,13,14,15,16,17,0,1,2,3,4,5,6,7,8,9,10,11,12,13,14,15,16,17,0,1,2,3,4,5,6,7,8,9,10,11,12,13,14,15,16,17,0,1,2,3,4,5,6,7,8,9,10,11,12,13,14,15,16,17,0,1,2,3,4,5,6,7,8,9,10,11,12,13,14,15,16,17,0,1,2,3,4,5,6,7,8,9,10,11,12,13,14,15,16,17,0,1,2,3,4,5,6,7,8,9,10,11,12,13,14,15,16,17,0,1,2,3,4,5,6,7,8,9,10,11,12,13,14,15,16,17,0,1,2,3,4,5,6,7,8,9,10,11,12,13,14,15,16,17,0,1,2,3,4,5,6,7,8,9,10,11,12,13,14,15,16,17,0,1,2,3,4,5,6,7,8,9,10,11,12,13,14,15,16,17,0,1,2,3,4,5,6,7,8,9,10,11,12,13,14,15,16,17,0,1,2,3,4,5,6,7,8,9,10,11,12,13,14,15,16,17,0,1,2,3,4,5,6,7,8,9,10,11,12,13,14,15,16,17,0,1,2,3,4,5,6,7,8,9,10,11,12,13,14,15,16,17,0,1,2,3,4,5,6,7,8,9,10,11,12,13,14,15,16,17,0,1,2,3,4,5,6,7,8,9,10,11,12,13,14,15,16,17,0,1,2,3,4,5,6,7,8,9,10,11,12,13,14,15,16,17,0,1,2,3,4,5,6,7,8,9,10,11,12,13,14,15,16,17,0,1,2,3,4,5,6,7,8,9,10,11,12,13,14,15,16,17,0,1,2,3,4,5,6,7,8,9,10,11,12,13,14,15,16,17,0,1,2,3,4,5,6,7,8,9,10,11,12,13,14,15,16,17,0,1,2,3,4,5,6,7,8,9,10,11,12,13,14,15,16,17,0,1,2,3,4,5,6,7,8,9,10,11,12,13,14,15,16,17,0,1,2,3,4,5,6,7,8,9,10,11,12,13,14,15,16,17,0,1,2,3,4,5,6,7,8,9,10,11,12,13,14,15,16,17,0,1,2,3,4,5,6,7,8,9,10,11,12,13,14,15,16,17,0,1,2,3,4,5,6,7,8,9,10,11,12,13,14,15,16,17,0,1,2,3,4,5,6,7,8,9,10,11,12,13,14,15,16,17,0,1,2,3,4,5,6,7,8,9,10,11,12,13,14,15,16,17,0,1,2,3,4,5,6,7,8,9,10,11,12,13,14,15,16,17,0,1,2,3,4,5,6,7,8,9,10,11,12,13,14,15,16,17,0,1,2,3,4,5,6,7,8,9,10,11,12,13,14,15,16,17,0,1,2,3,4,5,6,7,8,9,10,11,12,13,14,15,16,17,0,1,2,3,4,5,6,7,8,9,10,11,12,13,14,15,16,17,0,1,2,3,4,5,6,7,8,9,10,11,12,13,14,15,16,17,0,1,2,3,4,5,6,7,8,9,10,11,12,13,14,15,16,17,0,1,2,3,4,5,6,7,8,9,10,11,12,13,14,15,16,17,0,1,2,3,4,5,6,7,8,9,10,11,12,13,14,15,16,17,0,1,2,3,4,5,6,7,8,9,10,11,12,13,14,15,16,17,0,1,2,3,4,5,6,7,8,9,10,11,12,13,14,15,16,17,0,1,2,3,4,5,6,7,8,9,10,11,12,13,14,15,16,17,0,1,2,3,4,5,6,7,8,9,10,11,12,13,14,15,16,17,0,1,2,3,4,5,6,7,8,9,10,11,12,13,14,15,16,17,0,1,2,3,4,5,6,7,8,9,10,11,12,13,14,15,16,17,0,1,2,3,4,5,6,7,8,9,10,11,12,13,14,15,16,17,0,1,2,3,4,5,6,7,8,9,10,11,12,13,14,15,16,17,0,1,2,3,4,5,6,7,8,9,10,11,12,13,14,15,16,17,0,1,2,3,4,5,6,7,8,9,10,11,12,13,14,15,16,17,0,1,2,3,4,5,6,7,8,9,10,11,12,13,14,15,16,17,0,1,2,3,4,5,6,7,8,9,10,11,12,13,14,15,16,17,0,1,2,3,4,5,6,7,8,9,10,11,12,13,14,15,16,17,0,1,2,3,4,5,6,7,8,9,10,11,12,13,14,15,16,17,0,1,2,3,4,5,6,7,8,9,10,11,12,13,14,15,16,17],"trees":[{"base_weights":[2.962711E-2,5.8487077E0,-4.1342524E-1,4.095306E-1,8.548801E0,1.3884746E0,-4.9320856E-1,1.7487624E0,-2.8769252E-1,8.847534E0,2.4324323E-1,7.5054364E0,-3.2906765E-1,-5.044702E-1,8.874223E-1,3.4660575E-1,-9.172662E-2,2.2243152E0,5.421687E-1,2.9819277E-1,-9.4736844E-2,-8.294931E-2,2.0741043E0,-1.18714824E-1,5.543478E-1,-4.906996E-3,-1.2918785E-1,9.969059E-1,-1.2124353E-1],"categories":[],"categories_nodes":[],"categories_segments":[],"categories_sizes":[],"default_left":[0,0,0,0,0,0,0,0,0,0,0,0,0,0,0,0,0,0,0,0,0,0,0,0,0,0,0,0,0],"id":0,"left_children":[1,3,5,7,9,11,13,-1,15,17,19,21,23,25,27,-1,-1,-1,-1,-1,-1,-1,-1,-1,-1,-1,-1,-1,-1],"loss_changes":[5.562039E3,2.2381519E3,2.8889746E2,2.3932889E2,2.5080273E2,8.9828046E2,3.0308472E1,0E0,6.834016E0,1.3378906E1,3.1506553E0,1.18890015E2,2.612394E1,1.1336792E1,6.958896E1,0E0,0E0,0E0,0E0,0E0,0E0,0E0,0E0,0E0,0E0,0E0,0E0,0E0,0E0],"parents":[2147483647,0,0,1,1,2,2,3,3,4,4,5,5,6,6,8,8,9,9,10,10,11,11,12,12,13,13,14,14],"right_children":[2,4,6,8,10,12,14,-1,16,18,20,22,24,26,28,-1,-1,-1,-1,-1,-1,-1,-1,-1,-1,-1,-1,-1,-1],"split_conditions":[-1.5178721E-3,6.073317E-1,6.859431E-2,7.6356405E-1,8.5091037E-1,8.143057E-1,9.0501416E-1,1.7487624E0,-7.9388595E-1,8.7440574E-1,1.6696548E-1,5.989892E-1,7.2508985E-1,5.002875E-1,8.797534E-1,3.4660575E-1,-9.172662E-2,2.2243152E0,5.421687E-1,2.9819277E-1,-9.4736844E-2,-8.294931E-2,2.0741043E0,-1.18714824E-1,5.543478E-1,-4.906996E-3,-1.2918785E-1,9.969059E-1,-1.2124353E-1],"split_indices":[12,41,12,15,23,15,41,0,40,17,2,41,41,17,31,0,0,0,0,0,0,0,0,0,0,0,0,0,0],"split_type":[0,0,0,0,0,0,0,0,0,0,0,0,0,0,0,0,0,0,0,0,0,0,0,0,0,0,0,0,0],"sum_hessian":[2.1554321E3,1.516358E2,2.0037963E3,5.0685184E1,1.00950615E2,8.426543E1,1.9195308E3,3.9876542E0,4.669753E1,9.738271E1,3.5679011E0,1.7734568E1,6.653086E1,1.9046295E3,1.4901234E1,1.3641975E0,4.5333332E1,9.633333E1,1.0493827E0,1.0493827E0,2.5185184E0,1.6790123E0,1.6055555E1,6.369753E1,2.8333333E0,4.7117283E1,1.8575123E3,3.9876542E0,1.091358E1],"tree_param":{"num_deleted":"0","num_feature":"42","num_nodes":"29","size_leaf_vector":"1"}},{"base_weights":[-4.8743084E-2,-4.8781985E-1,3.3741508E0,-5.205324E-1,7.022499E-1,7.1042457E0,3.788663E-1,-5.2266216E-1,1.9565216E-1,-2.3289412E-1,3.305543E0,-3.1176248E-1,8.308329E0,4.361849E0,-2.172127E-1,-1.3158906E-1,-9.288858E-2,-1.0688836E-1,4.201807E-1,-1.1325504E-1,2.1946217E-1,1.4510622E0,-7.408279E-2,2.9819277E-1,-1.2362638E-1,2.1692939E0,8.544944E-1,1.7580066E0,-1.8000003E-2,1.9254611E-1,-1.0375712E-1],"categories":[],"categories_nodes":[],"categories_segments":[],"categories_sizes":[],"default_left":[0,0,0,0,0,0,0,0,0,0,0,0,0,0,0,0,0,0,0,0,0,0,0,0,0,0,0,0,0,0,0],"id":1,"left_children":[1,3,5,7,9,11,13,15,17,19,21,23,25,27,29,-1,-1,-1,-1,-1,-1,-1,-1,-1,-1,-1,-1,-1,-1,-1,-1],"loss_changes":[3.242576E3,7.480542E1,2.7379297E3,2.941681E0,1.2633959E2,9.776133E2,3.264582E2,8.406067E-1,6.5001445E0,9.904638E0,1.2499809E2,5.048321E0,1.3985303E2,2.1236887E2,2.379937E1,0E0,0E0,0E0,0E0,0E0,0E0,0E0,0E0,0E0,0E0,0E0,0E0,0E0,0E0,0E0,0E0],"parents":[2147483647,0,0,1,1,2,2,3,3,4,4,5,5,6,6,7,7,8,8,9,9,10,10,11,11,12,12,13,13,14,14],"right_children":[2,4,6,8,10,12,14,16,18,20,22,24,26,28,30,-1,-1,-1,-1,-1,-1,-1,-1,-1,-1,-1,-1,-1,-1,-1,-1],"split_conditions":[6.674995E-1,6.218803E-1,1.7457844E-1,9.2779046E-1,-2.3410738E-1,-1.5058616E-1,7.6089907E-1,5.855917E-1,5.4448053E-2,-2.653638E-1,1.6971357E-1,1.4118071E-1,8.363336E-1,2.6222897E-1,1.8211928E-1,-1.3158906E-1,-9.288858E-2,-1.0688836E-1,4.201807E-1,-1.1325504E-1,2.1946217E-1,1.4510622E0,-7.408279E-2,2.9819277E-1,-1.2362638E-1,2.1692939E0,8.544944E-1,1.7580066E0,-1.8000003E-2,1.9254611E-1,-1.0375712E-1],"split_indices":[27,27,10,29,40,32,15,27,24,40,10,3,23,2,10,0,0,0,0,0,0,0,0,0,0,0,0,0,0,0,0],"split_type":[0,0,0,0,0,0,0,0,0,0,0,0,0,0,0,0,0,0,0,0,0,0,0,0,0,0,0,0,0,0,0],"sum_hessian":[2.1554321E3,1.9111357E3,2.442963E2,1.8605555E3,5.0580246E1,1.0819135E2,1.3610493E2,1.8553086E3,5.2469134E0,3.7882713E1,1.2697531E1,1.5216049E1,9.29753E1,1.6895061E1,1.1920987E2,1.8086111E3,4.669753E1,4.1975307E0,1.0493827E0,3.211111E1,5.7716045E0,7.1358023E0,5.5617285E0,1.0493827E0,1.4166666E1,8.5734566E1,7.240741E0,1.0179012E1,6.716049E0,1.941358E1,9.9796295E1],"tree_param":{"num_deleted":"0","num_feature":"42","num_nodes":"31","size_leaf_vector":"1"}},{"base_weights":[-1.7858718E-1,-4.5821247E-1,6.610412E0,-5.068902E-1,1.4624056E0,8.660507E0,1.4424726E-1,-5.0885814E-1,4.201807E-1,7.4594593E0,-4.1657698E-1,5.4216865E-2,2.199022E0,-3.5195532E-1,9.435484E-1,1.2701613E-1,-1.2831172E-1,-6.7771085E-2,2.0506017E0,-1.2896731E-1,4.201807E-1,-1.24869116E-1,1.4306358E-1],"categories":[],"categories_nodes":[],"categories_segments":[],"categories_sizes":[],"default_left":[0,0,0,0,0,0,0,0,0,0,0,0,0,0,0,0,0,0,0,0,0,0,0],"id":2,"left_children":[1,3,5,7,9,11,13,15,-1,17,19,-1,-1,21,-1,-1,-1,-1,-1,-1,-1,-1,-1],"loss_changes":[4.096747E3,1.94461E2,1.1304417E3,9.558533E0,5.831497E2,7.227783E1,4.017621E1,9.278503E0,0E0,7.305859E1,9.226427E0,0E0,0E0,2.9974878E0,0E0,0E0,0E0,0E0,0E0,0E0,0E0,0E0,0E0],"parents":[2147483647,0,0,1,1,2,2,3,3,4,4,5,5,6,6,7,7,9,9,10,10,13,13],"right_children":[2,4,6,8,10,12,14,16,-1,18,20,-1,-1,22,-1,-1,-1,-1,-1,-1,-1,-1,-1],"split_conditions":[8.281873E-1,7.615754E-1,-1.8890513E-1,1.0161319E0,-4.0480545E-1,5.855917E-1,1.097646E0,-1.3877788E-16,4.201807E-1,9.071897E-1,5.249873E-1,5.4216865E-2,2.199022E0,2.812537E-1,9.435484E-1,1.2701613E-1,-1.2831172E-1,-6.7771085E-2,2.0506017E0,-1.2896731E-1,4.201807E-1,-1.24869116E-1,1.4306358E-1],"split_indices":[7,7,26,11,34,27,13,18,0,21,4,0,0,2,0,0,0,0,0,0,0,0,0],"split_type":[0,0,0,0,0,0,0,0,0,0,0,0,0,0,0,0,0,0,0,0,0,0,0],"sum_hessian":[2.1554321E3,2.0710618E3,8.437037E1,2.0205863E3,5.0475307E1,6.3802467E1,2.0567902E1,2.019537E3,1.0493827E0,1.1333333E1,3.9141975E1,1.0493827E0,6.2753086E1,1.888889E1,1.6790123E0,8.1851845E0,2.0113518E3,1.0493827E0,1.0283951E1,3.809259E1,1.0493827E0,1.6685184E1,2.2037036E0],"tree_param":{"num_deleted":"0","num_feature":"42","num_nodes":"23","size_leaf_vector":"1"}},{"base_weights":[7.692746E-2,1.9793397E0,-4.8172468E-1,-5.17049E-1,5.4426665E0,-5.4024573E-2,-5.192817E-1,-1.3100772E-1,1.4754099E-1,8.363473E0,7.6444354E-4,-4.382423E-1,7.7958834E-1,-3.248591E-1,-5.2568203E-1,-1.09223306E-1,2.1723692E0,6.6231084E-1,-9.166588E-2,-1.1990021E-1,1.8015331E-1,-1.1011424E-2,8.679159E-1,-1.0488224E-1,5.0931233E-1,-1.31751E-1,-9.659686E-2],"categories":[],"categories_nodes":[],"categories_segments":[],"categories_sizes":[],"default_left":[0,0,0,0,0,0,0,0,0,0,0,0,0,0,0,0,0,0,0,0,0,0,0,0,0,0,0],"id":3,"left_children":[1,3,5,7,9,11,13,-1,-1,15,17,19,21,23,25,-1,-1,-1,-1,-1,-1,-1,-1,-1,-1,-1,-1],"loss_changes":[2.2927808E3,4.2366455E3,2.6760925E1,2.516182E0,3.261751E3,4.3817894E1,1.7368774E0,0E0,0E0,3.869082E2,7.169115E1,4.8295918E0,9.590676E1,1.2365615E1,6.9366455E-2,0E0,0E0,0E0,0E0,0E0,0E0,0E0,0E0,0E0,0E0,0E0,0E0],"parents":[2147483647,0,0,1,1,2,2,3,3,4,4,5,5,6,6,9,9,10,10,11,11,12,12,13,13,14,14],"right_children":[2,4,6,8,10,12,14,-1,-1,16,18,20,22,24,26,-1,-1,-1,-1,-1,-1,-1,-1,-1,-1,-1,-1],"split_conditions":[-5.567369E-1,7.915079E-1,-5.1117486E-1,7.623013E-1,1.846593E-1,2.609638E-1,-4.9642777E-1,-1.3100772E-1,1.4754099E-1,6.375605E-2,2.73646E-1,1.0087107E0,9.86683E-1,1.1122814E0,1.0578389E0,-1.09223306E-1,2.1723692E0,6.6231084E-1,-9.166588E-2,-1.1990021E-1,1.8015331E-1,-1.1011424E-2,8.679159E-1,-1.0488224E-1,5.0931233E-1,-1.31751E-1,-9.659686E-2],"split_indices":[40,33,40,33,8,12,40,0,0,16,8,23,17,17,33,0,0,0,0,0,0,0,0,0,0,0,0],"split_type":[0,0,0,0,0,0,0,0,0,0,0,0,0,0,0,0,0,0,0,0,0,0,0,0,0,0,0],"sum_hessian":[2.1554321E3,4.886975E2,1.6667345E3,2.8448764E2,2.0420987E2,1.3474074E2,1.5319938E3,2.832284E2,1.2592592E0,1.3253703E2,7.167284E1,9.255555E1,4.2185184E1,5.0475307E1,1.4815184E3,4.7222223E0,1.2781481E2,7.9753084E0,6.369753E1,8.99321E1,2.6234567E0,3.3055553E1,9.129629E0,4.9320988E1,1.154321E0,1.4648333E3,1.6685184E1],"tree_param":{"num_deleted":"0","num_feature":"42","num_nodes":"27","size_leaf_vector":"1"}},{"base_weights":[3.6582884E-3,-4.9317682E-1,2.8421144E0,-5.071056E-1,7.905405E-1,-4.346794E-3,5.4084153E0,-5.189898E-1,3.3302482E-2,-3.0597892E-1,3.9080327E0,5.536443E0,-2.4208684E-1,5.7469493E-1,7.4987435E0,2.3486426E-2,-1.3044207E-1,8.894177E-1,-1.2862729E-1,1.7307691E-1,-1.22836225E-1,2.2499997E-2,1.3369565E0,1.5899302E0,1.7620482E-1,-9.77233E-2,6.001153E-1,1.659621E0,-6.535517E-2,3.1220096E-1,2.090456E0],"categories":[],"categories_nodes":[],"categories_segments":[],"categories_sizes":[],"default_left":[0,0,0,0,0,0,0,0,0,0,0,0,0,0,0,0,0,0,0,0,0,0,0,0,0,0,0,0,0,0,0],"id":4,"left_children":[1,3,5,7,9,11,13,15,17,19,21,23,25,27,29,-1,-1,-1,-1,-1,-1,-1,-1,-1,-1,-1,-1,-1,-1,-1,-1],"loss_changes":[3.0424983E3,3.323065E1,2.3476392E3,1.1686432E1,6.99012E1,2.0337012E2,1.7033398E3,3.0768127E0,7.9129555E1,3.2632408E0,2.866732E1,2.0783722E1,5.9143333E1,2.6590897E2,6.2554004E2,0E0,0E0,0E0,0E0,0E0,0E0,0E0,0E0,0E0,0E0,0E0,0E0,0E0,0E0,0E0,0E0],"parents":[2147483647,0,0,1,1,2,2,3,3,4,4,5,5,6,6,7,7,8,8,9,9,10,10,11,11,12,12,13,13,14,14],"right_children":[2,4,6,8,10,12,14,16,18,20,22,24,26,28,30,-1,-1,-1,-1,-1,-1,-1,-1,-1,-1,-1,-1,-1,-1,-1,-1],"split_conditions":[9.071897E-1,6.732756E-1,8.034358E-1,9.870517E-1,6.448337E-1,7.659791E-2,5.693004E-1,1.1514291E-1,5.270115E-2,8.009658E-1,3.898814E-1,6.4118063E-1,9.9645495E-1,-7.1020484E-2,1.502587E-1,2.3486426E-2,-1.3044207E-1,8.894177E-1,-1.2862729E-1,1.7307691E-1,-1.22836225E-1,2.2499997E-2,1.3369565E0,1.5899302E0,1.7620482E-1,-9.77233E-2,6.001153E-1,1.659621E0,-6.535517E-2,3.1220096E-1,2.090456E0],"split_indices":[21,27,23,13,23,16,8,33,12,11,6,39,19,12,10,0,0,0,0,0,0,0,0,0,0,0,0,0,0,0,0],"split_type":[0,0,0,0,0,0,0,0,0,0,0,0,0,0,0,0,0,0,0,0,0,0,0,0,0,0,0,0,0,0,0],"sum_hessian":[2.1554321E3,1.8350555E3,3.2037653E2,1.8159568E3,1.9098764E1,1.5237036E2,1.6800616E2,1.7769197E3,3.9037037E1,1.4796296E1,4.3024693E0,5.3518515E0,1.4701851E2,5.110494E1,1.1690123E2,7.87037E0,1.7690493E3,4.5123453E0,3.452469E1,1.8888888E0,1.2907407E1,1.4691358E0,2.8333333E0,4.3024693E0,1.0493827E0,1.3998766E2,7.030864E0,5.3518515E0,4.5753086E1,1.4481482E1,1.02419754E2],"tree_param":{"num_deleted":"0","num_feature":"42","num_nodes":"31","size_leaf_vector":"1"}},{"base_weights":[-1.257221E-1,-4.8234302E-1,8.531453E0,5.308113E0,-5.0108594E-1,8.632358E0,5.4216865E-2,-7.0916906E-2,1.6269231E0,-5.145765E-1,2.5072274E0,4.201807E-1,2.1749444E0,4.183417E-1,-1.3021807E-1,1.2507256E0,9.2713565E-2],"categories":[],"categories_nodes":[],"categories_segments":[],"categories_sizes":[],"default_left":[0,0,0,0,0,0,0,0,0,0,0,0,0,0,0,0,0],"id":5,"left_children":[1,3,5,7,9,11,-1,-1,-1,13,15,-1,-1,-1,-1,-1,-1],"loss_changes":[6.6617324E3,2.2754092E2,6.975098E1,4.726848E1,8.5148315E1,2.489795E1,0E0,0E0,0E0,2.9218811E1,4.823625E1,0E0,0E0,0E0,0E0,0E0,0E0],"parents":[2147483647,0,0,1,1,2,2,3,3,4,4,5,5,9,9,10,10],"right_children":[2,4,6,8,10,12,-1,-1,-1,14,16,-1,-1,-1,-1,-1,-1],"split_conditions":[2.8016028E-1,4.8918564E-2,3.9827043E-1,8.9710647E-1,1.9334021E-1,-1.2779307E-1,5.4216865E-2,-7.0916906E-2,1.6269231E0,-5.1418513E-1,2.1053241E-1,4.201807E-1,2.1749444E0,4.183417E-1,-1.3021807E-1,1.2507256E0,9.2713565E-2],"split_indices":[38,10,12,17,32,26,0,0,0,22,12,0,0,0,0,0,0],"split_type":[0,0,0,0,0,0,0,0,0,0,0,0,0,0,0,0,0],"sum_hessian":[2.1554321E3,2.0710618E3,8.437037E1,5.7716045E0,2.06529E3,8.3320984E1,1.0493827E0,1.154321E0,4.617284E0,2.056895E3,8.3950615E0,1.0493827E0,8.227161E1,5.1419754E0,2.051753E3,3.2530863E0,5.1419754E0],"tree_param":{"num_deleted":"0","num_feature":"42","num_nodes":"17","size_leaf_vector":"1"}},{"base_weights":[6.1624408E-2,-3.732273E-1,4.4419694E0,2.4373813E0,-4.742612E-1,8.660565E0,-2.2070229E-2,-1.295347E-1,2.137905E0,2.915591E-1,-5.146789E-1,-1.1920531E-1,2.2269084E0,-4.5431313E-1,3.8506038E0,-1.3083434E-1,1.9342105E0,-1.3111313E-1,-7.572442E-2,5.4216865E-2,-8.294931E-2,-1.2208049E-1,2.9819277E-1,1.7876712E0,-6.0244475E-2],"categories":[],"categories_nodes":[],"categories_segments":[],"categories_sizes":[],"default_left":[0,0,0,0,0,0,0,0,0,0,0,0,0,0,0,0,0,0,0,0,0,0,0,0,0],"id":6,"left_children":[1,3,5,7,9,11,13,-1,-1,15,17,19,-1,21,23,-1,-1,-1,-1,-1,-1,-1,-1,-1,-1],"loss_changes":[4.109231E3,5.5847235E2,3.6690562E3,1.2380386E3,5.881607E1,2.1834326E2,1.6186858E2,0E0,0E0,5.8439655E2,3.5683289E0,3.3833626E-1,0E0,5.452688E0,1.3283128E2,0E0,0E0,0E0,0E0,0E0,0E0,0E0,0E0,0E0,0E0],"parents":[2147483647,0,0,1,1,2,2,3,3,4,4,5,5,6,6,9,9,10,10,11,11,13,13,14,14],"right_children":[2,4,6,8,10,12,14,-1,-1,16,18,20,-1,22,24,-1,-1,-1,-1,-1,-1,-1,-1,-1,-1],"split_conditions":[9.5407957E-1,6.382118E-1,8.5959834E-1,6.813328E-1,7.2640634E-1,2.589545E-1,1.0780723E0,-1.295347E-1,2.137905E0,8.1411064E-1,9.7890955E-1,2.1329325E-1,2.2269084E0,1.2490406E-1,1.1265429E0,-1.3083434E-1,1.9342105E0,-1.3111313E-1,-7.572442E-2,5.4216865E-2,-8.294931E-2,-1.2208049E-1,2.9819277E-1,1.7876712E0,-6.0244475E-2],"split_indices":[33,15,17,23,15,8,23,0,0,33,23,2,0,24,17,0,0,0,0,0,0,0,0,0,0],"split_type":[0,0,0,0,0,0,0,0,0,0,0,0,0,0,0,0,0,0,0,0,0,0,0,0,0],"sum_hessian":[2.1554321E3,1.9616111E3,1.9382098E2,6.726543E1,1.8943456E3,9.9166664E1,9.465432E1,4.5962963E1,2.130247E1,9.465432E1,1.7996913E3,2.728395E0,9.643827E1,8.594444E1,8.709876E0,8.615432E1,8.5E0,1.7188888E3,8.080247E1,1.0493827E0,1.6790123E0,8.489506E1,1.0493827E0,4.4074073E0,4.3024693E0],"tree_param":{"num_deleted":"0","num_feature":"42","num_nodes":"25","size_leaf_vector":"1"}},{"base_weights":[-6.0800035E-2,2.7615998E0,-4.5104644E-1,1.2621287E-1,7.433862E0,2.3899426E-1,-5.057673E-1,1.3630546E0,-5.1572084E-1,-4.2570114E-1,8.777099E0,5.089655E0,-3.8898233E-1,-5.134355E-1,-1.05386436E-1,1.5666254E0,5.0844033E-3,2.9373365E-2,-1.3115351E-1,-1.226904E-1,5.4216865E-2,2.2123606E0,4.201807E-1,1.9081317E0,-7.010051E-2,6.423664E-1,-1.21002086E-1,-9.601957E-2,-1.3101165E-1,-9.86563E-2,1.8507817E-1],"categories":[],"categories_nodes":[],"categories_segments":[],"categories_sizes":[],"default_left":[0,0,0,0,0,0,0,0,0,0,0,0,0,0,0,0,0,0,0,0,0,0,0,0,0,0,0,0,0,0,0],"id":7,"left_children":[1,3,5,7,9,11,13,15,17,19,21,23,25,27,29,-1,-1,-1,-1,-1,-1,-1,-1,-1,-1,-1,-1,-1,-1,-1,-1],"loss_changes":[2.3764075E3,3.2261892E3,7.1688324E1,1.3455559E2,1.0013965E3,4.282459E2,5.33844E0,3.8092828E2,6.9070816E-1,7.2293663E-1,2.6583008E1,2.2214328E2,3.633624E1,2.16391E0,8.673778E0,0E0,0E0,0E0,0E0,0E0,0E0,0E0,0E0,0E0,0E0,0E0,0E0,0E0,0E0,0E0,0E0],"parents":[2147483647,0,0,1,1,2,2,3,3,4,4,5,5,6,6,7,7,8,8,9,9,10,10,11,11,12,12,13,13,14,14],"right_children":[2,4,6,8,10,12,14,16,18,20,22,24,26,28,30,-1,-1,-1,-1,-1,-1,-1,-1,-1,-1,-1,-1,-1,-1,-1,-1],"split_conditions":[4.7600722E-1,2.3548731E-1,6.5037113E-1,4.097627E-1,-4.9910858E-1,3.8058984E-1,1.1081306E0,6.5031147E-1,4.9341387E-1,1.5618038E-1,7.41273E-1,-1.7983213E-1,-2.4319962E-1,6.4739907E-1,2.2506833E-2,1.5666254E0,5.0844033E-3,2.9373365E-2,-1.3115351E-1,-1.226904E-1,5.4216865E-2,2.2123606E0,4.201807E-1,1.9081317E0,-7.010051E-2,6.423664E-1,-1.21002086E-1,-9.601957E-2,-1.3101165E-1,-9.86563E-2,1.8507817E-1],"split_indices":[25,10,23,41,40,39,15,8,11,8,9,26,26,25,24,0,0,0,0,0,0,0,0,0,0,0,0,0,0,0,0],"split_type":[0,0,0,0,0,0,0,0,0,0,0,0,0,0,0,0,0,0,0,0,0,0,0,0,0,0,0,0,0,0,0],"sum_hessian":[2.1554321E3,2.6108643E2,1.8943456E3,1.6758641E2,9.35E1,1.3893826E2,1.7554073E3,5.687654E1,1.1070988E2,1.3746913E1,7.975308E1,1.5111111E1,1.23827156E2,1.722142E3,3.326543E1,1.14382715E1,4.543827E1,1.3641975E0,1.0934567E2,1.2697531E1,1.0493827E0,7.8703705E1,1.0493827E0,9.969135E0,5.1419754E0,3.0432098E0,1.2078395E2,1.3337654E2,1.5887654E3,2.5185184E1,8.080247E0],"tree_param":{"num_deleted":"0","num_feature":"42","num_nodes":"31","size_leaf_vector":"1"}},{"base_weights":[8.249221E-2,-5.002025E-1,1.4858391E0,-5.256605E-1,2.3851779E-1,-2.1452956E-1,4.7637386E0,-1.3192146E-1,-1.5789475E-1,-4.1167194E-1,5.7346025E0,-4.5950705E-1,7.922273E-1,7.0129585E0,-4.9093983E-1,-1.16691016E-1,2.9819277E-1,-1.294504E-1,4.5234987E-1,1.6763456E0,2.7722064E-1,-1.2283015E-1,2.004633E-1,4.8285326E-1,-1.16475515E-1,1.7903003E-1,2.0767784E0,7.8865975E-2,-1.3027692E-1],"categories":[],"categories_nodes":[],"categories_segments":[],"categories_sizes":[],"default_left":[0,0,0,0,0,0,0,0,0,0,0,0,0,0,0,0,0,0,0,0,0,0,0,0,0,0,0,0,0],"id":8,"left_children":[1,3,5,7,9,11,13,-1,15,17,19,21,23,25,27,-1,-1,-1,-1,-1,-1,-1,-1,-1,-1,-1,-1,-1,-1],"loss_changes":[1.7641068E3,2.8795593E1,3.52879E3,1.0145874E0,1.8630768E2,1.0338498E2,2.5590308E3,0E0,4.519945E0,1.2007087E1,1.7318008E1,1.3900871E1,1.1859386E2,1.2284878E3,1.7638445E0,0E0,0E0,0E0,0E0,0E0,0E0,0E0,0E0,0E0,0E0,0E0,0E0,0E0,0E0],"parents":[2147483647,0,0,1,1,2,2,3,3,4,4,5,5,6,6,8,8,9,9,10,10,11,11,12,12,13,13,14,14],"right_children":[2,4,6,8,10,12,14,-1,16,18,20,22,24,26,28,-1,-1,-1,-1,-1,-1,-1,-1,-1,-1,-1,-1,-1,-1],"split_conditions":[8.855688E-1,8.686414E-1,-3.8483518E-1,8.6446786E-1,5.428945E-1,-4.1447347E-1,3.632351E-1,-1.3192146E-1,4.188995E-1,-2.6338756E-1,3.9022407E-1,6.046558E-1,2.987411E-1,-1.506191E-1,3.79415E-1,-1.16691016E-1,2.9819277E-1,-1.294504E-1,4.5234987E-1,1.6763456E0,2.7722064E-1,-1.2283015E-1,2.004633E-1,4.8285326E-1,-1.16475515E-1,1.7903003E-1,2.0767784E0,7.8865975E-2,-1.3027692E-1],"split_indices":[33,33,36,33,8,36,16,0,8,34,4,8,14,26,16,0,0,0,0,0,0,0,0,0,0,0,0,0,0],"split_type":[0,0,0,0,0,0,0,0,0,0,0,0,0,0,0,0,0,0,0,0,0,0,0,0,0,0,0,0,0],"sum_hessian":[2.1554321E3,1.5234938E3,6.3193823E2,1.4730184E3,5.0475307E1,4.1670987E2,2.152284E2,1.4645184E3,8.5E0,4.5962963E1,4.5123453E0,3.355926E2,8.111728E1,1.5048148E2,6.474691E1,7.450617E0,1.0493827E0,4.4598763E1,1.3641975E0,3.3580246E0,1.154321E0,3.279321E2,7.660494E0,4.2290123E1,3.882716E1,2.5919752E1,1.2456172E2,1.9938271E0,6.2753086E1],"tree_param":{"num_deleted":"0","num_feature":"42","num_nodes":"29","size_leaf_vector":"1"}},{"base_weights":[5.5132043E-3,-3.363447E-1,2.5696461E0,3.3204207E-1,-4.7695172E-1,4.6419363E0,8.4932655E-2,-2.889026E-1,2.5553284E0,-1.9243422E-1,-5.033329E-1,6.4989195E0,-1.8609025E-1,1.3319353E0,-3.6148962E-1,-1.2520353E-1,8.029114E-2,-4.8042707E-2,1.1314117E0,-9.3918055E-2,3.0920792E-1,-1.2696521E-1,-5.2105267E-2,5.2636796E-1,1.9342984E0,-1.2136267E-1,4.2527473E-1,1.2473475E0,6.352154E-2,2.9347825E-1,-1.06874175E-1],"categories":[],"categories_nodes":[],"categories_segments":[],"categories_sizes":[],"default_left":[0,0,0,0,0,0,0,0,0,0,0,0,0,0,0,0,0,0,0,0,0,0,0,0,0,0,0,0,0,0,0],"id":9,"left_children":[1,3,5,7,9,11,13,15,17,19,21,23,25,27,29,-1,-1,-1,-1,-1,-1,-1,-1,-1,-1,-1,-1,-1,-1,-1,-1],"loss_changes":[1.891126E3,1.7906178E2,1.3064147E3,4.5831836E2,1.1711365E1,1.2417224E3,6.529804E1,3.3772106E1,3.9314417E2,3.584968E1,1.8157959E0,5.275039E2,2.3089005E1,1.2057494E2,9.270899E0,0E0,0E0,0E0,0E0,0E0,0E0,0E0,0E0,0E0,0E0,0E0,0E0,0E0,0E0,0E0,0E0],"parents":[2147483647,0,0,1,1,2,2,3,3,4,4,5,5,6,6,7,7,8,8,9,9,10,10,11,11,12,12,13,13,14,14],"right_children":[2,4,6,8,10,12,14,16,18,20,22,24,26,28,30,-1,-1,-1,-1,-1,-1,-1,-1,-1,-1,-1,-1,-1,-1,-1,-1],"split_conditions":[3.4235838E-1,3.043321E-1,4.471499E-1,2.9247576E-1,4.0509087E-1,-3.2614257E-2,5.2603614E-1,1.1237289E0,-2.4675125E-1,8.307972E-1,1.2475432E0,-3.4585604E-1,8.782472E-1,4.370778E-1,2.4539009E-2,-1.2520353E-1,8.029114E-2,-4.8042707E-2,1.1314117E0,-9.3918055E-2,3.0920792E-1,-1.2696521E-1,-5.2105267E-2,5.2636796E-1,1.9342984E0,-1.2136267E-1,4.2527473E-1,1.2473475E0,6.352154E-2,2.9347825E-1,-1.06874175E-1],"split_indices":[12,35,33,14,37,24,33,17,32,13,25,40,23,7,3,0,0,0,0,0,0,0,0,0,0,0,0,0,0,0,0],"split_type":[0,0,0,0,0,0,0,0,0,0,0,0,0,0,0,0,0,0,0,0,0,0,0,0,0,0,0,0,0,0,0],"sum_hessian":[2.1554321E3,1.9026357E3,2.527963E2,3.3045062E2,1.5721852E3,1.373642E2,1.154321E2,2.5898764E2,7.146296E1,1.3411111E2,1.438074E3,9.895679E1,3.8407406E1,2.9907406E1,8.552469E1,1.9235185E2,6.66358E1,3.0222221E1,4.1240738E1,1.1952469E2,1.4586419E1,1.4156172E3,2.2456789E1,2.235185E1,7.6604935E1,3.3790123E1,4.617284E0,5.9814816E0,2.3925926E1,2.8333333E0,8.269135E1],"tree_param":{"num_deleted":"0","num_feature":"42","num_nodes":"31","size_leaf_vector":"1"}},{"base_weights":[2.6381006E-2,2.9528952E0,-2.917206E-1,6.1208806E0,7.8478175E-1,2.1157172E0,-4.4763E-1,-2.60535E-1,7.570294E0,2.952168E0,5.9625633E-2,-1.3410598E-1,4.955723E0,-4.7212452E-1,1.5667408E0,2.9032257E-1,-1.2362638E-1,2.1279385E0,1.7105263E-1,6.7188635E-2,1.4111958E0,2.688679E-1,-8.080764E-2,-9.1198616E-2,8.6383927E-1,1.0106677E-2,2.0591123E0,-1.6892029E-2,-1.2757911E-1,1.559246E0,-1.2424357E-1],"categories":[],"categories_nodes":[],"categories_segments":[],"categories_sizes":[],"default_left":[0,0,0,0,0,0,0,0,0,0,0,0,0,0,0,0,0,0,0,0,0,0,0,0,0,0,0,0,0,0,0],"id":10,"left_children":[1,3,5,7,9,11,13,15,17,19,21,23,25,27,29,-1,-1,-1,-1,-1,-1,-1,-1,-1,-1,-1,-1,-1,-1,-1,-1],"loss_changes":[2.0083464E3,1.4479375E3,7.313351E2,7.9547144E2,1.9898276E2,7.580188E2,9.095459E1,6.178235E0,4.476245E2,2.2786707E2,3.7672226E1,5.68317E1,8.4497437E2,2.7888123E1,2.1704053E2,0E0,0E0,0E0,0E0,0E0,0E0,0E0,0E0,0E0,0E0,0E0,0E0,0E0,0E0,0E0,0E0],"parents":[2147483647,0,0,1,1,2,2,3,3,4,4,5,5,6,6,7,7,8,8,9,9,10,10,11,11,12,12,13,13,14,14],"right_children":[2,4,6,8,10,12,14,16,18,20,22,24,26,28,30,-1,-1,-1,-1,-1,-1,-1,-1,-1,-1,-1,-1,-1,-1,-1,-1],"split_conditions":[-3.053265E-1,4.9174938E-1,4.392534E-1,2.779911E-2,-4.6379438E-1,3.521797E-1,1.2475432E0,-3.7348375E-1,-2.7860257E-1,8.075038E-2,5.2415746E-1,1.1303849E0,2.203652E-1,4.715856E-1,5.390124E-1,2.9032257E-1,-1.2362638E-1,2.1279385E0,1.7105263E-1,6.7188635E-2,1.4111958E0,2.688679E-1,-8.080764E-2,-9.1198616E-2,8.6383927E-1,1.0106677E-2,2.0591123E0,-1.6892029E-2,-1.2757911E-1,1.559246E0,-1.2424357E-1],"split_indices":[24,11,11,16,24,16,25,22,40,12,11,25,5,11,11,0,0,0,0,0,0,0,0,0,0,0,0,0,0,0,0],"split_type":[0,0,0,0,0,0,0,0,0,0,0,0,0,0,0,0,0,0,0,0,0,0,0,0,0,0,0,0,0,0,0],"sum_hessian":[2.1554321E3,2.1050616E2,1.9449259E3,8.479012E1,1.2571605E2,1.1753086E2,1.827395E3,1.5845678E1,6.894444E1,3.0746912E1,9.496913E1,6.611111E1,5.141975E1,1.8061975E3,2.119753E1,1.6790123E0,1.4166666E1,6.0444443E1,8.5E0,1.5950617E1,1.4796296E1,2.55E1,6.946913E1,6.296296E1,3.148148E0,2.0987654E1,3.0432098E1,1.5604321E2,1.6501543E3,5.876543E0,1.5320988E1],"tree_param":{"num_deleted":"0","num_feature":"42","num_nodes":"31","size_leaf_vector":"1"}},{"base_weights":[1.154168E-2,-3.1234536E-1,3.811892E0,1.1726077E0,-5.0580955E-1,8.209573E0,-9.369261E-2,4.5084457E0,-3.6160246E-1,-5.157958E-1,4.1049015E-2,2.216185E0,-1.5587969E-1,2.9834938E0,-4.263335E-1,-1.2833022E-1,2.1202319E0,2.5869894E-1,-1.2967487E-1,-1.3135166E-1,-8.7998256E-2,9.759934E-1,-1.11099586E-1,-1.09223306E-1,1.7620482E-1,1.6473215E0,-2.383475E-2,-1.1843902E-1,3.4660575E-1],"categories":[],"categories_nodes":[],"categories_segments":[],"categories_sizes":[],"default_left":[0,0,0,0,0,0,0,0,0,0,0,0,0,0,0,0,0,0,0,0,0,0,0,0,0,0,0,0,0],"id":11,"left_children":[1,3,5,7,9,11,13,15,17,19,21,-1,23,25,27,-1,-1,-1,-1,-1,-1,-1,-1,-1,-1,-1,-1,-1,-1],"loss_changes":[2.6555088E3,5.71718E2,2.9107463E3,1.17593E3,9.6302185E0,4.3821973E2,9.413504E1,1.4478151E3,3.521752E1,2.535553E0,6.2645702E1,0E0,1.9457656E0,1.0026878E2,7.770219E0,0E0,0E0,0E0,0E0,0E0,0E0,0E0,0E0,0E0,0E0,0E0,0E0,0E0,0E0],"parents":[2147483647,0,0,1,1,2,2,3,3,4,4,5,5,6,6,7,7,8,8,9,9,10,10,12,12,13,13,14,14],"right_children":[2,4,6,8,10,12,14,16,18,20,22,-1,24,26,28,-1,-1,-1,-1,-1,-1,-1,-1,-1,-1,-1,-1,-1,-1],"split_conditions":[1.1540326E0,4.9697766E-1,-5.1910704E-1,-5.339823E-1,1.1337746E0,8.983715E-1,-4.3795675E-1,1.2365011E-1,-4.6610868E-1,1.0840269E0,6.7174613E-1,2.216185E0,2.508933E-1,7.85425E-1,8.5007113E-1,-1.2833022E-1,2.1202319E0,2.5869894E-1,-1.2967487E-1,-1.3135166E-1,-8.7998256E-2,9.759934E-1,-1.11099586E-1,-1.09223306E-1,1.7620482E-1,1.6473215E0,-2.383475E-2,-1.1843902E-1,3.4660575E-1],"split_indices":[17,25,40,38,17,23,40,12,40,17,23,0,3,23,41,0,0,0,0,0,0,0,0,0,0,0,0,0,0],"split_type":[0,0,0,0,0,0,0,0,0,0,0,0,0,0,0,0,0,0,0,0,0,0,0,0,0,0,0,0,0],"sum_hessian":[2.1554321E3,1.9870061E3,1.6842592E2,2.284506E2,1.7585555E3,7.8703705E1,8.972222E1,7.1358025E1,1.5709259E2,1.727074E3,3.148148E1,7.29321E1,5.7716045E0,7.9753084E0,8.174691E1,3.1901234E1,3.9456787E1,1.5320988E1,1.417716E2,1.6292716E3,9.780247E1,2.728395E0,2.8753086E1,4.7222223E0,1.0493827E0,3.148148E0,4.8271604E0,8.038271E1,1.3641975E0],"tree_param":{"num_deleted":"0","num_feature":"42","num_nodes":"29","size_leaf_vector":"1"}},{"base_weights":[2.081626E-2,-5.1438314E-1,1.2394936E0,-5.243037E-1,6.603549E-2,8.156442E-2,5.2383795E0,-1.3208905E-1,-2.800566E-1,-3.4054056E-1,7.9780877E-1,-4.7358394E-1,1.2745931E0,-6.820532E-2,6.875526E0,-1.2665959E-1,2.8213164E-1,-1.1567968E-1,2.9819277E-1,1.5219378E-1,-1.2609394E-1,1.1585083E-2,7.3550725E-1,-1.2790456E-1,4.5078397E-1,7.031249E-2,1.9367071E0],"categories":[],"categories_nodes":[],"categories_segments":[],"categories_sizes":[],"default_left":[0,0,0,0,0,0,0,0,0,0,0,0,0,0,0,0,0,0,0,0,0,0,0,0,0,0,0],"id":12,"left_children":[1,3,5,7,9,11,13,-1,15,17,-1,19,21,23,25,-1,-1,-1,-1,-1,-1,-1,-1,-1,-1,-1,-1],"loss_changes":[1.4071389E3,8.666565E0,3.0479373E3,1.3110046E0,3.422512E1,3.3939047E2,1.2845791E3,0E0,8.929E0,5.0445414E0,0E0,1.1965607E1,3.3309872E2,3.066131E1,6.4689795E2,0E0,0E0,0E0,0E0,0E0,0E0,0E0,0E0,0E0,0E0,0E0,0E0],"parents":[2147483647,0,0,1,1,2,2,3,3,4,4,5,5,6,6,8,8,9,9,11,11,12,12,13,13,14,14],"right_children":[2,4,6,8,10,12,14,-1,16,18,-1,20,22,24,26,-1,-1,-1,-1,-1,-1,-1,-1,-1,-1,-1,-1],"split_conditions":[8.778703E-1,8.686414E-1,6.319865E-1,8.5477525E-1,6.880486E-1,3.952457E-1,9.593841E-1,-1.3208905E-1,4.2402747E-1,5.2237827E-1,7.9780877E-1,1.242372E-1,4.9238443E-1,9.3691516E-1,4.924548E-1,-1.2665959E-1,2.8213164E-1,-1.1567968E-1,2.9819277E-1,1.5219378E-1,-1.2609394E-1,1.1585083E-2,7.3550725E-1,-1.2790456E-1,4.5078397E-1,7.031249E-2,1.9367071E0],"split_indices":[33,33,9,33,9,4,17,0,8,4,0,16,11,17,19,0,0,0,0,0,0,0,0,0,0,0,0],"split_type":[0,0,0,0,0,0,0,0,0,0,0,0,0,0,0,0,0,0,0,0,0,0,0,0,0,0,0],"sum_hessian":[2.1554321E3,1.4980988E3,6.573333E2,1.4730184E3,2.5080246E1,5.105247E2,1.4680864E2,1.4478333E3,2.5185184E1,2.2981482E1,2.0987654E0,3.4881482E2,1.6170987E2,3.4839504E1,1.1196913E2,2.2246914E1,2.9382715E0,2.1932098E1,1.0493827E0,9.129629E0,3.3968518E2,9.370988E1,6.8E1,2.8753086E1,6.0864196E0,1.3222221E1,9.874691E1],"tree_param":{"num_deleted":"0","num_feature":"42","num_nodes":"27","size_leaf_vector":"1"}},{"base_weights":[5.18861E-2,2.7510228E0,-3.074893E-1,-4.7581553E-1,8.108449E0,-4.286957E-1,7.166972E-1,-1.3151017E-1,2.2231076E0,8.2568794E-2,8.685175E0,-4.253587E-2,-5.1190436E-1,4.9179606E0,-3.892303E-1,-6.7771085E-2,9.081325E-1,-1.11516036E-1,4.201807E-1,2.1986763E0,1.4754099E-1,-1.2873885E-1,4.711568E-1,-1.3125415E-1,-9.845498E-2,1.8500581E0,5.705924E-1,-1.1094397E-1,5.066225E-1],"categories":[],"categories_nodes":[],"categories_segments":[],"categories_sizes":[],"default_left":[0,0,0,0,0,0,0,0,0,0,0,0,0,0,0,0,0,0,0,0,0,0,0,0,0,0,0,0,0],"id":13,"left_children":[1,3,5,7,9,11,13,-1,15,17,19,21,23,25,27,-1,-1,-1,-1,-1,-1,-1,-1,-1,-1,-1,-1,-1,-1],"loss_changes":[2.0925923E3,4.385932E3,2.3665979E2,2.274173E1,4.4058252E2,5.4701904E1,9.3977704E2,0E0,1.187803E1,7.002546E0,7.366797E1,2.7684186E2,1.962616E0,2.5877313E2,2.2076359E1,0E0,0E0,0E0,0E0,0E0,0E0,0E0,0E0,0E0,0E0,0E0,0E0,0E0,0E0],"parents":[2147483647,0,0,1,1,2,2,3,3,4,4,5,5,6,6,8,8,9,9,10,10,11,11,12,12,13,13,14,14],"right_children":[2,4,6,8,10,12,14,-1,16,18,20,22,24,26,28,-1,-1,-1,-1,-1,-1,-1,-1,-1,-1,-1,-1,-1,-1],"split_conditions":[4.7204405E-1,8.031623E-1,7.6824504E-1,7.3654187E-1,4.1651717E-1,1.0415445E-1,-3.7719113E-1,-1.3151017E-1,8.355987E-2,3.4470326E-1,-3.6453515E-1,7.623013E-1,3.3980098E-1,5.045564E-1,3.115214E-1,-6.7771085E-2,9.081325E-1,-1.11516036E-1,4.201807E-1,2.1986763E0,1.4754099E-1,-1.2873885E-1,4.711568E-1,-1.3125415E-1,-9.845498E-2,1.8500581E0,5.705924E-1,-1.1094397E-1,5.066225E-1],"split_indices":[19,33,41,33,9,16,34,0,3,4,34,33,2,19,2,0,0,0,0,0,0,0,0,0,0,0,0,0,0],"split_type":[0,0,0,0,0,0,0,0,0,0,0,0,0,0,0,0,0,0,0,0,0,0,0,0,0,0,0,0,0],"sum_hessian":[2.1554321E3,2.5248148E2,1.9029506E3,1.5814197E2,9.43395E1,1.7020988E3,2.0085185E2,1.5604321E2,2.0987654E0,6.4012346E0,8.793827E1,3.0201233E2,1.4000864E3,4.1135803E1,1.5971605E2,1.0493827E0,1.0493827E0,5.3518515E0,1.0493827E0,8.667901E1,1.2592592E0,2.4314197E2,5.887037E1,1.2570555E3,1.4303085E2,2.0253086E1,2.0882715E1,1.5698766E2,2.728395E0],"tree_param":{"num_deleted":"0","num_feature":"42","num_nodes":"29","size_leaf_vector":"1"}},{"base_weights":[1.1077952E-2,4.861998E0,-3.3594343E-1,-2.2257784E-1,8.778823E0,1.304411E0,-4.4646275E-1,2.8311257E0,-4.058162E-1,3.9326647E-1,2.2157228E0,-3.04635E-1,8.366198E0,8.1658415E-2,-4.9551734E-1,4.5128938E-2,9.8741007E-1,-1.173523E-1,2.3306772E-1,2.9520735E-1,-1.10278614E-1,5.421687E-1,2.139465E0,-8.572121E-2,1.7656146E0,-4.782538E-2,-1.2727983E-1],"categories":[],"categories_nodes":[],"categories_segments":[],"categories_sizes":[],"default_left":[0,0,0,0,0,0,0,0,0,0,0,0,0,0,0,0,0,0,0,0,0,0,0,0,0,0,0],"id":14,"left_children":[1,3,5,7,9,11,13,15,17,-1,-1,19,21,23,25,-1,-1,-1,-1,-1,-1,-1,-1,-1,-1,-1,-1],"loss_changes":[3.6317131E3,2.870385E3,3.655936E2,3.67636E1,3.535791E1,1.4495443E3,4.8927948E1,1.0340771E1,5.621457E0,0E0,0E0,2.174302E1,9.5529785E0,4.80283E2,7.048065E0,0E0,0E0,0E0,0E0,0E0,0E0,0E0,0E0,0E0,0E0,0E0,0E0],"parents":[2147483647,0,0,1,1,2,2,3,3,4,4,5,5,6,6,7,7,8,8,11,11,12,12,13,13,14,14],"right_children":[2,4,6,8,10,12,14,16,18,-1,-1,20,22,24,26,-1,-1,-1,-1,-1,-1,-1,-1,-1,-1,-1,-1],"split_conditions":[-4.620115E-1,-4.9383482E-1,-3.8908258E-1,2.744257E-1,-1.2362755E-1,-4.254665E-1,-3.3404282E-1,-1.375147E-1,1.0037827E0,3.9326647E-1,2.2157228E0,3.5992488E-1,6.775479E-1,-3.7990585E-1,1.8718778E-1,4.5128938E-2,9.8741007E-1,-1.173523E-1,2.3306772E-1,2.9520735E-1,-1.10278614E-1,5.421687E-1,2.139465E0,-8.572121E-2,1.7656146E0,-4.782538E-2,-1.2727983E-1],"split_indices":[32,40,32,5,20,40,32,24,15,0,0,7,31,40,4,0,0,0,0,0,0,0,0,0,0,0,0],"split_type":[0,0,0,0,0,0,0,0,0,0,0,0,0,0,0,0,0,0,0,0,0,0,0,0,0,0,0],"sum_hessian":[2.1554321E3,1.4303085E2,2.0124011E3,6.2648148E1,8.038271E1,1.2634567E2,1.8860555E3,2.728395E0,5.991975E1,1.154321E0,7.922839E1,1.0367901E2,2.2666666E1,1.6024074E2,1.7258148E3,1.154321E0,1.574074E0,5.7820988E1,2.0987654E0,8.080247E0,9.559876E1,1.0493827E0,2.1617283E1,1.519506E2,8.290123E0,7.450617E1,1.6513086E3],"tree_param":{"num_deleted":"0","num_feature":"42","num_nodes":"27","size_leaf_vector":"1"}},{"base_weights":[8.38834E-2,2.123188E0,-3.5190922E-1,-4.3655825E-1,6.0932374E0,-5.008336E-1,2.3506944E-1,-5.1795846E-1,1.0955316E0,-1.2942342E-1,2.2213697E0,-5.1108634E-1,6.603549E-2,5.298465E0,-3.0137688E-1,-1.3174644E-1,4.216354E-2,-1.1826544E-1,1.2150767E0,-1.3019536E-1,-6.993212E-2,7.5E-1,-1.05151355E-1,2.1373749E0,-1.2246311E-1,2.798302E-1,-1.2493559E-1],"categories":[],"categories_nodes":[],"categories_segments":[],"categories_sizes":[],"default_left":[0,0,0,0,0,0,0,0,0,0,0,0,0,0,0,0,0,0,0,0,0,0,0,0,0,0,0],"id":15,"left_children":[1,3,5,7,9,11,13,15,17,-1,-1,19,21,23,25,-1,-1,-1,-1,-1,-1,-1,-1,-1,-1,-1,-1],"loss_changes":[1.9171984E3,3.8625847E3,1.5550775E2,2.9483799E1,2.754354E3,8.276245E0,9.8056647E2,1.4577332E0,7.327339E1,0E0,0E0,2.979126E0,3.8498856E1,6.5491974E2,9.266668E1,0E0,0E0,0E0,0E0,0E0,0E0,0E0,0E0,0E0,0E0,0E0,0E0],"parents":[2147483647,0,0,1,1,2,2,3,3,4,4,5,5,6,6,7,7,8,8,11,11,12,12,13,13,14,14],"right_children":[2,4,6,8,10,12,14,16,18,-1,-1,20,22,24,26,-1,-1,-1,-1,-1,-1,-1,-1,-1,-1,-1,-1],"split_conditions":[3.1894672E-1,5.3156716E-1,6.1988765E-1,3.9587387E-1,6.862122E-1,-2.782243E-1,3.2644716E-1,3.6307162E-1,5.9496063E-1,-1.2942342E-1,2.2213697E0,5.956327E-1,-2.2238037E-1,3.9326645E-2,5.3731155E-1,-1.3174644E-1,4.216354E-2,-1.1826544E-1,1.2150767E0,-1.3019536E-1,-6.993212E-2,7.5E-1,-1.05151355E-1,2.1373749E0,-1.2246311E-1,2.798302E-1,-1.2493559E-1],"split_indices":[33,8,8,8,23,36,41,8,23,0,0,8,24,22,11,0,0,0,0,0,0,0,0,0,0,0,0],"split_type":[0,0,0,0,0,0,0,0,0,0,0,0,0,0,0,0,0,0,0,0,0,0,0,0,0,0,0],"sum_hessian":[2.1554321E3,3.7882715E2,1.7766049E3,2.308642E2,1.4796295E2,1.4171913E3,3.5941357E2,2.1984567E2,1.1018518E1,4.4179012E1,1.0378395E2,1.3921111E3,2.5080246E1,3.3580246E1,3.258333E2,2.1722221E2,2.6234567E0,8.3950615E0,2.6234567E0,1.3349197E3,5.7191357E1,2.8333333E0,2.2246914E1,2.119753E1,1.2382715E1,3.9351852E1,2.8648148E2],"tree_param":{"num_deleted":"0","num_feature":"42","num_nodes":"27","size_leaf_vector":"1"}},{"base_weights":[-3.1121382E-2,2.9164557E0,-2.6869163E-1,1.3122994E-2,6.8049173E0,1.0725003E0,-4.5118502E-1,-2.3041604E-1,4.0068493E0,8.046257E0,-3.9130437E-1,-1.9343156E-1,3.290597E0,3.5999984E-2,-4.926697E-1,-1.2076375E-1,3.0040872E-1,-6.7771085E-2,1.2747875E0,2.104382E0,5.232558E-1,-1.1915025E-1,5.4216865E-2,-1.16168484E-1,3.487991E-1,1.299007E0,8.4414445E-2,-8.476028E-2,2.2323759E-1,-1.277115E-1,-3.9104722E-2],"categories":[],"categories_nodes":[],"categories_segments":[],"categories_sizes":[],"default_left":[0,0,0,0,0,0,0,0,0,0,0,0,0,0,0,0,0,0,0,0,0,0,0,0,0,0,0,0,0,0,0],"id":16,"left_children":[1,3,5,7,9,11,13,15,17,19,21,23,25,27,29,-1,-1,-1,-1,-1,-1,-1,-1,-1,-1,-1,-1,-1,-1,-1,-1],"loss_changes":[1.5108394E3,1.8166835E3,4.8914612E2,9.1509766E1,6.1764746E2,6.729175E2,3.5549927E1,3.2681664E1,2.6649971E1,1.1216016E2,6.778269E-1,6.67361E1,4.8803955E2,4.4940468E1,9.822388E0,0E0,0E0,0E0,0E0,0E0,0E0,0E0,0E0,0E0,0E0,0E0,0E0,0E0,0E0,0E0,0E0],"parents":[2147483647,0,0,1,1,2,2,3,3,4,4,5,5,6,6,7,7,8,8,9,9,10,10,11,11,12,12,13,13,14,14],"right_children":[2,4,6,8,10,12,14,16,18,20,22,24,26,28,30,-1,-1,-1,-1,-1,-1,-1,-1,-1,-1,-1,-1,-1,-1,-1,-1],"split_conditions":[2.531985E-1,9.937404E-1,-2.5951388E-1,3.461849E-1,5.539534E-1,-4.8827056E-2,-2.3942874E-1,3.0088302E-1,9.524642E-1,2.7578637E-1,2.526781E-1,3.434113E-1,4.3346548E-1,-3.057291E-2,9.924634E-1,-1.2076375E-1,3.0040872E-1,-6.7771085E-2,1.2747875E0,2.104382E0,5.232558E-1,-1.1915025E-1,5.4216865E-2,-1.16168484E-1,3.487991E-1,1.299007E0,8.4414445E-2,-8.476028E-2,2.2323759E-1,-1.277115E-1,-3.9104722E-2],"split_indices":[35,25,26,2,33,20,26,10,25,16,3,2,33,20,23,0,0,0,0,0,0,0,0,0,0,0,0,0,0,0,0],"split_type":[0,0,0,0,0,0,0,0,0,0,0,0,0,0,0,0,0,0,0,0,0,0,0,0,0,0,0,0,0,0,0],"sum_hessian":[2.1554321E3,1.5992592E2,1.9955061E3,9.21358E1,6.779012E1,2.3841974E2,1.7570864E3,8.772839E1,4.4074073E0,5.771605E1,1.0074074E1,1.5237036E2,8.604938E1,1.3788889E2,1.6191975E3,7.51358E1,1.2592592E1,1.0493827E0,3.3580246E0,5.393827E1,3.7777777E0,9.024691E0,1.0493827E0,1.3075308E2,2.1617283E1,5.1839504E1,3.4209877E1,9.633333E1,4.1555553E1,1.5356666E3,8.353086E1],"tree_param":{"num_deleted":"0","num_feature":"42","num_nodes":"31","size_leaf_vector":"1"}},{"base_weights":[-2.0455617E-2,4.2958794E0,-3.8830084E-1,6.48427E0,4.678086E-1,5.376997E0,-4.503727E-1,1.6303278E0,7.1956105E0,-4.7707245E-1,3.4070654E0,7.013793E0,2.080402E-1,9.24022E-1,-4.8134562E-1,1.3429451E0,-1.1980691E-1,1.9709824E0,4.9179706E-1,-1.2952206E-1,1.13309346E-1,1.5369718E0,-4.927008E-2,1.9925069E0,3.3157894E-1,-1.0636364E-1,4.201807E-1,1.1209091E0,1.1078217E-1,6.516815E-2,-1.24707125E-1],"categories":[],"categories_nodes":[],"categories_segments":[],"categories_sizes":[],"default_left":[0,0,0,0,0,0,0,0,0,0,0,0,0,0,0,0,0,0,0,0,0,0,0,0,0,0,0,0,0,0,0],"id":17,"left_children":[1,3,5,7,9,11,13,15,17,19,21,23,25,27,29,-1,-1,-1,-1,-1,-1,-1,-1,-1,-1,-1,-1,-1,-1,-1,-1],"loss_changes":[3.4255283E3,1.4163008E3,7.1385486E2,3.602129E2,1.7576915E2,1.7835315E2,8.421011E1,1.21453545E2,3.215581E2,2.0788546E0,1.5310606E2,7.7050415E1,6.4451456E0,7.283551E1,2.5102875E1,0E0,0E0,0E0,0E0,0E0,0E0,0E0,0E0,0E0,0E0,0E0,0E0,0E0,0E0,0E0,0E0],"parents":[2147483647,0,0,1,1,2,2,3,3,4,4,5,5,6,6,7,7,8,8,9,9,10,10,11,11,12,12,13,13,14,14],"right_children":[2,4,6,8,10,12,14,16,18,20,22,24,26,28,30,-1,-1,-1,-1,-1,-1,-1,-1,-1,-1,-1,-1,-1,-1,-1,-1],"split_conditions":[-6.0231584E-1,1.8392949E-1,-3.09387E-1,-4.3046817E-1,-7.269579E-2,3.583395E-1,-2.8562707E-1,-2.1784018E-1,3.4036773E-1,-8.469772E-2,4.812548E-1,-3.1117555E-1,-5.7246704E-2,2.396612E-1,-5.727272E-1,1.3429451E0,-1.1980691E-1,1.9709824E0,4.9179706E-1,-1.2952206E-1,1.13309346E-1,1.5369718E0,-4.927008E-2,1.9925069E0,3.3157894E-1,-1.0636364E-1,4.201807E-1,1.1209091E0,1.1078217E-1,6.516815E-2,-1.24707125E-1],"split_indices":[36,16,26,22,20,12,26,16,4,20,11,40,20,12,36,0,0,0,0,0,0,0,0,0,0,0,0,0,0,0,0],"split_type":[0,0,0,0,0,0,0,0,0,0,0,0,0,0,0,0,0,0,0,0,0,0,0,0,0,0,0,0,0,0,0],"sum_hessian":[2.1554321E3,1.6842592E2,1.9870061E3,1.0672222E2,6.17037E1,2.0253086E1,1.966753E3,1.4061728E1,9.266049E1,4.732716E1,1.4376543E1,1.5111111E1,5.1419754E0,4.2709877E1,1.9240432E3,4.5123453E0,9.549382E0,8.14321E1,1.12283945E1,4.5753086E1,1.574074E0,7.765432E0,6.6111107E0,1.2592592E1,2.5185184E0,4.0925922E0,1.0493827E0,4.0925922E0,3.8617283E1,4.3969135E1,1.880074E3],"tree_param":{"num_deleted":"0","num_feature":"42","num_nodes":"31","size_leaf_vector":"1"}},{"base_weights":[7.681573E-3,1.0985769E0,-4.7719362E-1,1.2993464E0,-3.7086806E-1,-4.9083623E-1,6.164511E-1,-3.5105205E-1,1.3721532E0,-4.886923E-1,2.8584573E-1,5.7142988E-2,-5.0567555E-1,1.5810413E0,-1.1605882E-1,2.1857823E-1,-1.2553386E-1,-1.0284339E-1,3.45855E-1,-4.6079457E-2,-1.2894714E-1,9.2816836E-1,-1.1161036E-1,1.2873767E-1,-1.2678811E-1,-1.0093312E-1,5.6848276E-1],"categories":[],"categories_nodes":[],"categories_segments":[],"categories_sizes":[],"default_left":[0,0,0,0,0,0,0,0,0,0,0,0,0,0,0,0,0,0,0,0,0,0,0,0,0,0,0],"id":18,"left_children":[1,3,5,7,9,11,13,15,17,19,-1,21,23,25,-1,-1,-1,-1,-1,-1,-1,-1,-1,-1,-1,-1,-1],"loss_changes":[1.062745E3,1.828725E2,2.1055695E1,6.586554E1,1.395652E1,1.1204742E1,1.9060505E1,4.8426886E0,1.1045593E1,4.8532104E-1,0E0,7.001828E1,2.2783203E0,1.4005192E1,0E0,0E0,0E0,0E0,0E0,0E0,0E0,0E0,0E0,0E0,0E0,0E0,0E0],"parents":[2147483647,0,0,1,1,2,2,3,3,4,4,5,5,6,6,7,7,8,8,9,9,11,11,12,12,13,13],"right_children":[2,4,6,8,10,12,14,16,18,20,-1,22,24,26,-1,-1,-1,-1,-1,-1,-1,-1,-1,-1,-1,-1,-1],"split_conditions":[7.5008474E-2,-4.3795675E-1,9.0501416E-1,-5.841267E-1,8.7693226E-1,5.002875E-1,8.797534E-1,7.777302E-1,-3.9567968E-1,1.4498243E-1,2.8584573E-1,6.670305E-1,2.5455918E-2,2.7660662E-1,-1.1605882E-1,2.1857823E-1,-1.2553386E-1,-1.0284339E-1,3.45855E-1,-4.6079457E-2,-1.2894714E-1,9.2816836E-1,-1.1161036E-1,1.2873767E-1,-1.2678811E-1,-1.0093312E-1,5.6848276E-1],"split_indices":[12,40,41,36,41,17,31,17,34,2,0,21,2,6,0,0,0,0,0,0,0,0,0,0,0,0,0],"split_type":[0,0,0,0,0,0,0,0,0,0,0,0,0,0,0,0,0,0,0,0,0,0,0,0,0,0,0],"sum_hessian":[2.0071758E3,6.17232E2,1.3899437E3,5.43139E2,7.409302E1,1.373363E3,1.6580761E1,2.2786575E1,5.203524E2,6.9372406E1,4.720614E0,3.6135086E1,1.3372279E3,8.516329E0,8.064432E0,1.9756967E0,2.0810879E1,3.0435987E0,5.173088E2,6.308692E0,6.3063713E1,3.6036463E0,3.253144E1,1.4298484E0,1.3357981E3,2.3117297E0,6.204599E0],"tree_param":{"num_deleted":"0","num_feature":"42","num_nodes":"27","size_leaf_vector":"1"}},{"base_weights":[-4.339914E-2,-5.0869024E-1,1.0064728E0,-5.130748E-1,6.325535E-2,-4.706741E-1,1.2436551E0,-7.5497024E-2,-5.145531E-1,-1.16790175E-1,5.091553E-1,-1.3182177E-1,1.5655391E-1,-2.5359082E-1,1.3775766E0,1.8436697E-1,-1.021548E-1,-1.2937176E-1,-7.87854E-2,-7.566902E-2,3.2285392E-1,2.7468753E-1,-9.894512E-2,3.5840172E-1,5.0845657E-2],"categories":[],"categories_nodes":[],"categories_segments":[],"categories_sizes":[],"default_left":[0,0,0,0,0,0,0,0,0,0,0,0,0,0,0,0,0,0,0,0,0,0,0,0,0],"id":19,"left_children":[1,3,5,7,9,11,13,15,17,-1,-1,-1,19,21,23,-1,-1,-1,-1,-1,-1,-1,-1,-1,-1],"loss_changes":[9.475733E2,3.4029236E0,2.0929047E2,8.2403564E-1,1.2585845E1,3.0348625E0,1.03324524E2,1.8350755E0,6.145935E-1,0E0,0E0,0E0,4.379931E0,8.704906E0,3.0731812E1,0E0,0E0,0E0,0E0,0E0,0E0,0E0,0E0,0E0,0E0],"parents":[2147483647,0,0,1,1,2,2,3,3,4,4,5,5,6,6,7,7,8,8,12,12,13,13,14,14],"right_children":[2,4,6,8,10,12,14,16,18,-1,-1,-1,20,22,24,-1,-1,-1,-1,-1,-1,-1,-1,-1,-1],"split_conditions":[6.218803E-1,8.962679E-1,5.9815437E-1,4.7007966E-1,-8.935379E-2,5.286874E-1,-3.651003E-3,3.1437013E-1,5.953429E-1,-1.16790175E-1,5.091553E-1,-1.3182177E-1,6.645239E-1,5.827539E-1,1.882511E-1,1.8436697E-1,-1.021548E-1,-1.2937176E-1,-7.87854E-2,-7.566902E-2,3.2285392E-1,2.7468753E-1,-9.894512E-2,3.5840172E-1,5.0845657E-2],"split_indices":[27,29,8,15,32,8,24,31,27,0,0,0,35,25,10,0,0,0,0,0,0,0,0,0,0],"split_type":[0,0,0,0,0,0,0,0,0,0,0,0,0,0,0,0,0,0,0,0,0,0,0,0,0],"sum_hessian":[1.9377285E3,1.343029E3,5.9469946E2,1.3329138E3,1.0115277E1,8.2142166E1,5.125573E2,4.6633587E0,1.3282505E3,8.573969E0,1.5413085E0,7.548803E1,6.6541386E0,4.200842E1,4.705489E2,1.0026485E0,3.66071E0,1.3074198E3,2.0830675E1,5.259241E0,1.3948975E0,3.3566406E0,3.865178E1,4.4890698E2,2.1641912E1],"tree_param":{"num_deleted":"0","num_feature":"42","num_nodes":"25","size_leaf_vector":"1"}},{"base_weights":[-1.566343E-1,-4.8994207E-1,1.1520418E0,-5.0588053E-1,3.3766653E-2,1.3247211E0,-3.561883E-1,-5.079669E-1,2.7110606E-1,3.7050087E0,-1.2687545E-1,-1.1288853E-1,1.3587381E0,-4.5503035E-1,3.3748522E-1,-1.275138E-1,8.443098E-2,1.5400628E0,-8.878721E-2,3.418126E-1,2.9661056E-2,-1.26833E-1,1.8146093E-1],"categories":[],"categories_nodes":[],"categories_segments":[],"categories_sizes":[],"default_left":[0,0,0,0,0,0,0,0,0,0,0,0,0,0,0,0,0,0,0,0,0,0,0],"id":20,"left_children":[1,3,5,7,9,11,13,15,-1,17,-1,-1,19,21,-1,-1,-1,-1,-1,-1,-1,-1,-1],"loss_changes":[8.011457E2,1.2233246E1,9.758099E1,5.2635193E0,8.9636856E1,2.0841675E1,7.2067113E0,2.6786194E0,0E0,5.995575E1,0E0,0E0,3.3079224E0,2.6966352E0,0E0,0E0,0E0,0E0,0E0,0E0,0E0,0E0,0E0],"parents":[2147483647,0,0,1,1,2,2,3,3,4,4,5,5,6,6,7,7,9,9,12,12,13,13],"right_children":[2,4,6,8,10,12,14,16,-1,18,-1,-1,20,22,-1,-1,-1,-1,-1,-1,-1,-1,-1],"split_conditions":[7.615754E-1,7.1747875E-1,-1.7567307E-1,1.0161319E0,-2.0862772E-1,5.598579E-1,9.9045324E-1,1.0504062E0,2.7110606E-1,7.518178E-1,-1.2687545E-1,-1.1288853E-1,5.2609855E-1,5.0279254E-1,3.3748522E-1,-1.275138E-1,8.443098E-2,1.5400628E0,-8.878721E-2,3.418126E-1,2.9661056E-2,-1.26833E-1,1.8146093E-1],"split_indices":[7,7,26,11,26,27,7,21,0,17,0,0,8,4,0,0,0,0,0,0,0,0,0],"split_type":[0,0,0,0,0,0,0,0,0,0,0,0,0,0,0,0,0,0,0,0,0,0,0],"sum_hessian":[1.8343877E3,1.4625223E3,3.718654E2,1.4193599E3,4.3162518E1,3.3377292E2,3.8092457E1,1.4181799E3,1.1799476E0,4.794948E0,3.8367573E1,6.04123E0,3.277317E2,3.6699615E1,1.3928412E0,1.4150824E3,3.0974424E0,2.6657076E0,2.1292408E0,3.2539557E2,2.3361435E0,3.568929E1,1.0103252E0],"tree_param":{"num_deleted":"0","num_feature":"42","num_nodes":"23","size_leaf_vector":"1"}},{"base_weights":[3.9502103E-2,7.5207716E-1,-4.7924313E-1,-1.2848653E-1,1.1735444E0,-1.3801557E-1,-5.159465E-1,1.3290616E0,-3.7960052E-1,8.2348305E-1,-3.2699263E-1,-1.2944329E-1,-3.2574788E-1,-4.2150278E-2,3.450636E-1,-1.1894611E-1,1.6256423E-1,-2.1886677E-2,5.405009E-1,-1.0011929E-1,1.9376531E-1,1.368845E-1,-1.18897706E-1],"categories":[],"categories_nodes":[],"categories_segments":[],"categories_sizes":[],"default_left":[0,0,0,0,0,0,0,0,0,0,0,0,0,0,0,0,0,0,0,0,0,0,0],"id":21,"left_children":[1,3,5,-1,7,9,11,13,15,17,19,-1,21,-1,-1,-1,-1,-1,-1,-1,-1,-1,-1],"loss_changes":[7.6075916E2,4.6324008E2,1.4846039E1,0E0,1.5769592E2,2.1535278E1,2.0483398E-1,4.560388E1,6.2537594E0,2.3979094E1,8.289691E0,0E0,1.9514353E0,0E0,0E0,0E0,0E0,0E0,0E0,0E0,0E0,0E0,0E0],"parents":[2147483647,0,0,1,1,2,2,4,4,5,5,6,6,7,7,8,8,9,9,10,10,12,12],"right_children":[2,4,6,-1,8,10,12,14,16,18,20,-1,22,-1,-1,-1,-1,-1,-1,-1,-1,-1,-1],"split_conditions":[-5.421807E-1,7.76193E-1,-4.9642777E-1,-1.2848653E-1,2.8742006E-1,4.1847384E-1,1.0578389E0,-2.2985643E-1,1.0108217E0,1.0152402E0,1.1302102E0,-1.2944329E-1,2.8682536E-1,-4.2150278E-2,3.450636E-1,-1.1894611E-1,1.6256423E-1,-2.1886677E-2,5.405009E-1,-1.0011929E-1,1.9376531E-1,1.368845E-1,-1.18897706E-1],"split_indices":[40,33,40,0,8,9,33,26,17,25,17,0,4,0,0,0,0,0,0,0,0,0,0],"split_type":[0,0,0,0,0,0,0,0,0,0,0,0,0,0,0,0,0,0,0,0,0,0,0],"sum_hessian":[2.056106E3,8.6603125E2,1.1900747E3,2.1624495E2,6.4978625E2,1.1603833E2,1.0740364E3,5.907759E2,5.9010433E1,1.8508934E1,9.7529396E1,1.0621135E3,1.1922867E1,1.9450506E1,5.713253E2,5.446195E1,4.5484858E0,1.1569228E1,6.9397054E0,9.202951E1,5.4998837E0,1.3574662E0,1.0565401E1],"tree_param":{"num_deleted":"0","num_feature":"42","num_nodes":"23","size_leaf_vector":"1"}},{"base_weights":[2.305793E-3,-4.8986843E-1,9.7463804E-1,-5.015091E-1,5.247825E-1,-4.3438914E-1,1.1742053E0,-5.0525004E-1,7.865608E-1,-2.662816E-1,1.6435951E0,8.461501E-1,-4.922758E-1,-4.7255304E-1,1.3179866E0,5.6271568E-2,-1.2725791E-1,5.079027E-1,-9.0574086E-2,1.8228401E-1,-1.1550799E-1,3.581763E-2,4.8999798E-1,-8.349845E-2,4.5588633E-1,1.7638645E-1,-1.291297E-1,5.7348732E-2,-1.2823336E-1,3.4986472E-1,-1.367499E-1],"categories":[],"categories_nodes":[],"categories_segments":[],"categories_sizes":[],"default_left":[0,0,0,0,0,0,0,0,0,0,0,0,0,0,0,0,0,0,0,0,0,0,0,0,0,0,0,0,0,0,0],"id":22,"left_children":[1,3,5,7,9,11,13,15,17,19,21,23,25,27,29,-1,-1,-1,-1,-1,-1,-1,-1,-1,-1,-1,-1,-1,-1,-1,-1],"loss_changes":[9.4736755E2,1.578714E1,1.8758716E2,6.6613464E0,1.4064373E1,6.5888844E0,1.3866705E2,3.696167E0,6.6802335E0,2.2620163E0,2.812605E0,5.1873155E0,2.696207E0,1.4655561E0,8.22793E1,0E0,0E0,0E0,0E0,0E0,0E0,0E0,0E0,0E0,0E0,0E0,0E0,0E0,0E0,0E0,0E0],"parents":[2147483647,0,0,1,1,2,2,3,3,4,4,5,5,6,6,7,7,8,8,9,9,10,10,11,11,12,12,13,13,14,14],"right_children":[2,4,6,8,10,12,14,16,18,20,22,24,26,28,30,-1,-1,-1,-1,-1,-1,-1,-1,-1,-1,-1,-1,-1,-1,-1,-1],"split_conditions":[8.866091E-1,6.732756E-1,7.415461E-1,6.744887E-1,6.2949955E-1,9.3555546E-1,3.376941E-1,8.919008E-2,5.869758E-1,7.2748715E-1,7.9481095E-1,7.121462E-1,3.2271883E-1,6.958523E-2,9.713637E-1,5.6271568E-2,-1.2725791E-1,5.079027E-1,-9.0574086E-2,1.8228401E-1,-1.1550799E-1,3.581763E-2,4.8999798E-1,-8.349845E-2,4.5588633E-1,1.7638645E-1,-1.291297E-1,5.7348732E-2,-1.2823336E-1,3.4986472E-1,-1.367499E-1],"split_indices":[21,27,23,5,23,13,8,39,19,27,11,23,4,2,25,0,0,0,0,0,0,0,0,0,0,0,0,0,0,0,0],"split_type":[0,0,0,0,0,0,0,0,0,0,0,0,0,0,0,0,0,0,0,0,0,0,0,0,0,0,0,0,0,0,0],"sum_hessian":[1.9776366E3,1.313345E3,6.6429156E2,1.2989485E3,1.43965025E1,8.22681E1,5.8202344E2,1.2957928E3,3.1556573E0,8.879903E0,5.516599E0,2.9691317E0,7.9298965E1,4.6553192E1,5.354703E2,6.3735275E0,1.2894193E3,1.1456774E0,2.0099797E0,1.0114932E0,7.8684096E0,1.2137809E0,4.302819E0,1.6432688E0,1.3258629E0,1.0156075E0,7.8283356E1,2.277727E0,4.4275467E1,5.1329645E2,2.2173836E1],"tree_param":{"num_deleted":"0","num_feature":"42","num_nodes":"31","size_leaf_vector":"1"}},{"base_weights":[-1.1250761E-1,-4.7684067E-1,1.3233316E0,1.4438708E0,-5.118509E-1,-2.3421507E-1,1.3399947E0,2.0436497E0,-1.1358351E-1,8.1561886E-2,-5.1518184E-1,5.5555172E-2,-1.0234974E-1,4.64856E-3,1.3454865E0,-8.280779E-2,5.602167E-1,5.3126866E-1,-1.14578396E-1,-1.2913434E-1,1.1554405E-1,4.745969E-1,3.31275E-1],"categories":[],"categories_nodes":[],"categories_segments":[],"categories_sizes":[],"default_left":[0,0,0,0,0,0,0,0,0,0,0,0,0,0,0,0,0,0,0,0,0,0,0],"id":23,"left_children":[1,3,5,7,9,11,13,15,-1,17,19,-1,-1,-1,21,-1,-1,-1,-1,-1,-1,-1,-1],"loss_changes":[9.864464E2,1.0186258E2,1.0219299E1,3.1875542E1,2.962738E0,4.8206976E-1,2.7164307E0,1.0501854E1,0E0,1.1025865E1,2.1855774E0,0E0,0E0,0E0,1.7247925E0,0E0,0E0,0E0,0E0,0E0,0E0,0E0,0E0],"parents":[2147483647,0,0,1,1,2,2,3,3,4,4,5,5,6,6,7,7,9,9,10,10,14,14],"right_children":[2,4,6,8,10,12,14,16,-1,18,20,-1,-1,-1,22,-1,-1,-1,-1,-1,-1,-1,-1],"split_conditions":[1.9334021E-1,1.5045434E-2,-1.5915705E-1,1.1087398E-1,-3.6666122E-1,3.4209207E-1,7.930006E-1,-2.2329366E-1,-1.1358351E-1,2.1275683E-1,4.783089E-2,5.5555172E-2,-1.0234974E-1,4.64856E-3,2.8016028E-1,-8.280779E-2,5.602167E-1,5.3126866E-1,-1.14578396E-1,-1.2913434E-1,1.1554405E-1,4.745969E-1,3.31275E-1],"split_indices":[32,4,26,10,20,37,17,12,0,3,38,0,0,0,38,0,0,0,0,0,0,0,0],"split_type":[0,0,0,0,0,0,0,0,0,0,0,0,0,0,0,0,0,0,0,0,0,0,0],"sum_hessian":[1.8834785E3,1.502818E3,3.8066052E2,2.6182213E1,1.4766359E3,3.891093E0,3.767694E2,1.9837502E1,6.344711E0,8.111246E0,1.4685245E3,1.0047505E0,2.8863425E0,1.577573E0,3.7519183E2,1.4689496E0,1.8368553E1,1.0814728E0,7.0297737E0,1.4669615E3,1.5630702E0,1.0066287E1,3.6512555E2],"tree_param":{"num_deleted":"0","num_feature":"42","num_nodes":"23","size_leaf_vector":"1"}},{"base_weights":[2.765272E-2,-4.2177635E-1,9.9128705E-1,5.3963625E-1,-4.9372235E-1,1.3470145E0,-3.504641E-1,-1.2712869E-1,1.3943453E0,-1.6492163E-1,-5.093731E-1,-1.14798866E-1,1.3741834E0,-5.093784E-1,1.2064962E0,1.0560706E-1,3.5274327E-1,-1.2743051E-1,3.380452E-1,-1.2947662E-1,-9.626466E-2,4.5551935E-1,3.3978966E-1,-1.2932038E-1,5.29107E-2,4.7993043E-1,-5.728216E-2],"categories":[],"categories_nodes":[],"categories_segments":[],"categories_sizes":[],"default_left":[0,0,0,0,0,0,0,0,0,0,0,0,0,0,0,0,0,0,0,0,0,0,0,0,0,0,0],"id":24,"left_children":[1,3,5,7,9,11,13,-1,15,17,19,-1,21,23,25,-1,-1,-1,-1,-1,-1,-1,-1,-1,-1,-1,-1],"loss_changes":[8.853498E2,9.669859E1,3.1080273E2,8.8093796E1,6.5934143E0,2.5861084E1,3.4523235E1,0E0,2.7658844E-1,3.2303886E1,1.1140747E0,0E0,9.3377686E-1,8.221054E-1,1.3740007E1,0E0,0E0,0E0,0E0,0E0,0E0,0E0,0E0,0E0,0E0,0E0,0E0],"parents":[2147483647,0,0,1,1,2,2,3,3,4,4,5,5,6,6,8,8,9,9,10,10,12,12,13,13,14,14],"right_children":[2,4,6,8,10,12,14,-1,16,18,20,-1,22,24,26,-1,-1,-1,-1,-1,-1,-1,-1,-1,-1,-1,-1],"split_conditions":[9.32613E-1,6.6195095E-1,8.9710647E-1,7.3654187E-1,7.2640634E-1,1.2970138E-1,9.071897E-1,-1.2712869E-1,-5.089747E-1,8.1411064E-1,9.6230507E-1,-1.14798866E-1,-3.5381424E-1,-8.5812256E-2,1.1265429E0,1.0560706E-1,3.5274327E-1,-1.2743051E-1,3.380452E-1,-1.2947662E-1,-9.626466E-2,4.5551935E-1,3.3978966E-1,-1.2932038E-1,5.29107E-2,4.7993043E-1,-5.728216E-2],"split_indices":[33,15,17,33,15,8,21,0,36,33,23,0,32,32,17,0,0,0,0,0,0,0,0,0,0,0,0],"split_type":[0,0,0,0,0,0,0,0,0,0,0,0,0,0,0,0,0,0,0,0,0,0,0,0,0,0,0],"sum_hessian":[2.0423198E3,1.3931373E3,6.491825E2,9.654241E1,1.2965948E3,5.1313525E2,1.3604727E2,4.3545956E1,5.2996456E1,5.943739E1,1.2371575E3,7.368532E0,5.0576672E2,1.240579E2,1.198938E1,1.3355733E0,5.1660885E1,4.89714E1,1.0465989E1,1.154727E3,8.2430374E1,1.2511965E1,4.9325473E2,1.2299234E2,1.0655566E0,7.7846994E0,4.2046804E0],"tree_param":{"num_deleted":"0","num_feature":"42","num_nodes":"27","size_leaf_vector":"1"}},{"base_weights":[-5.1611878E-2,9.14443E-1,-4.597979E-1,1.2709563E0,-4.7724703E-1,-2.9709896E-2,-5.0304097E-1,-1.1123813E-1,1.4280974E0,5.5917656E-1,-1.2905055E-1,1.716417E0,-3.82454E-1,-5.092812E-1,-1.4768279E-1,2.0306E-1,-6.583505E-2,-1.1891599E-1,3.6313748E-1,3.1930098E-1,-8.537619E-2,-8.444439E-2,4.824914E-1,6.7809594E-1,-1.0973484E-1,-1.2851642E-1,-8.304068E-2,-1.0988969E-1,2.1840659E-1],"categories":[],"categories_nodes":[],"categories_segments":[],"categories_sizes":[],"default_left":[0,0,0,0,0,0,0,0,0,0,0,0,0,0,0,0,0,0,0,0,0,0,0,0,0,0,0,0,0],"id":25,"left_children":[1,3,5,7,9,11,13,15,17,19,-1,21,23,25,27,-1,-1,-1,-1,-1,-1,-1,-1,-1,-1,-1,-1,-1,-1],"loss_changes":[7.595568E2,2.844817E2,2.516687E1,9.9145935E1,5.028803E0,7.7501305E1,2.652832E0,6.879094E0,1.9744202E1,3.4970717E0,0E0,9.929798E0,1.9477951E1,8.534241E-1,7.132505E0,0E0,0E0,0E0,0E0,0E0,0E0,0E0,0E0,0E0,0E0,0E0,0E0,0E0,0E0],"parents":[2147483647,0,0,1,1,2,2,3,3,4,4,5,5,6,6,7,7,8,8,9,9,11,11,12,12,13,13,14,14],"right_children":[2,4,6,8,10,12,14,16,18,20,-1,22,24,26,28,-1,-1,-1,-1,-1,-1,-1,-1,-1,-1,-1,-1,-1,-1],"split_conditions":[5.11543E-1,4.5308194E-1,6.03799E-1,1.7735934E-1,5.1024204E-1,3.1992698E-1,1.1081306E0,2.4539009E-2,6.6010505E-1,6.202422E-1,-1.2905055E-1,1.3184378E-1,2.5252295E-1,3.0684742E-1,3.4837566E-2,2.0306E-1,-6.583505E-2,-1.1891599E-1,3.6313748E-1,3.1930098E-1,-8.537619E-2,-8.444439E-2,4.824914E-1,6.7809594E-1,-1.0973484E-1,-1.2851642E-1,-8.304068E-2,-1.0988969E-1,2.1840659E-1],"split_indices":[25,41,25,10,11,41,15,3,17,41,0,10,5,3,24,0,0,0,0,0,0,0,0,0,0,0,0,0,0],"split_type":[0,0,0,0,0,0,0,0,0,0,0,0,0,0,0,0,0,0,0,0,0,0,0,0,0,0,0,0,0],"sum_hessian":[1.924129E3,5.71149E2,1.3529801E3,4.5474295E2,1.1640606E2,1.23761116E2,1.229219E3,4.6451656E1,4.082913E2,3.733006E0,1.1267306E2,2.015004E1,1.0361108E2,1.2075802E3,2.163869E1,5.9551625E0,4.0496494E1,4.943737E0,4.0334756E2,1.844511E0,1.888495E0,1.8427061E0,1.8307333E1,1.014371E0,1.0259671E2,1.1739655E3,3.3614773E1,1.727216E1,4.3665314E0],"tree_param":{"num_deleted":"0","num_feature":"42","num_nodes":"29","size_leaf_vector":"1"}},{"base_weights":[5.9400465E-2,-5.157731E-1,6.8055516E-1,-1.2964086E-1,-5.8363274E-2,-4.2776796E-1,1.1512139E0,-1.1062751E-1,3.0593464E-1,-4.7703823E-1,1.15187585E-1,1.4122728E0,-3.252706E-1,-1.2702058E-1,-4.7122255E-2,-6.18267E-2,5.6951123E-1,-1.3140583E-1,3.792509E-1,8.035702E-2,-1.2582502E-1],"categories":[],"categories_nodes":[],"categories_segments":[],"categories_sizes":[],"default_left":[0,0,0,0,0,0,0,0,0,0,0,0,0,0,0,0,0,0,0,0,0],"id":26,"left_children":[1,3,5,-1,7,9,11,-1,-1,13,15,17,19,-1,-1,-1,-1,-1,-1,-1,-1],"loss_changes":[7.316069E2,1.3268127E0,5.140415E2,0E0,4.271737E0,7.924782E0,2.6692194E2,0E0,0E0,2.3219376E0,2.0383482E1,1.20060425E2,1.2213552E1,0E0,0E0,0E0,0E0,0E0,0E0,0E0,0E0],"parents":[2147483647,0,0,1,1,2,2,4,4,5,5,6,6,9,9,10,10,11,11,12,12],"right_children":[2,4,6,-1,8,10,12,-1,-1,14,16,18,20,-1,-1,-1,-1,-1,-1,-1,-1],"split_conditions":[8.686414E-1,8.6446786E-1,-1.6209938E-1,-1.2964086E-1,-1.52817E-1,5.73464E-1,2.971332E-1,-1.1062751E-1,3.0593464E-1,-2.080319E-1,1.0244106E0,4.5549637E-1,3.2546788E-1,-1.2702058E-1,-4.7122255E-2,-6.18267E-2,5.6951123E-1,-1.3140583E-1,3.792509E-1,8.035702E-2,-1.2582502E-1],"split_indices":[33,33,26,0,26,8,14,0,0,28,17,8,14,0,0,0,0,0,0,0,0],"split_type":[0,0,0,0,0,0,0,0,0,0,0,0,0,0,0,0,0,0,0,0,0],"sum_hessian":[2.0457776E3,1.0622919E3,9.834858E2,1.055718E3,6.5738163E0,2.9318198E2,6.903038E2,5.5621314E0,1.0116849E0,2.6890198E2,2.4279985E1,5.8662537E2,1.0367843E2,2.4209492E2,2.6807056E1,2.1553312E1,2.7266726E0,2.987176E1,5.567536E2,2.2206612E1,8.147182E1],"tree_param":{"num_deleted":"0","num_feature":"42","num_nodes":"21","size_leaf_vector":"1"}},{"base_weights":[3.730064E-2,-3.7724113E-1,8.895104E-1,-4.8615596E-1,2.235301E-1,1.3389945E0,-1.8351224E-1,-5.0964975E-1,-2.9686442E-1,2.1508675E0,-3.1345907E-1,1.1550925E-1,1.5898265E0,-3.3387804E-1,4.7956312E-1,-5.5132467E-2,-1.2814894E-1,1.1363269E-1,-1.1048818E-1,-8.807594E-2,8.2076263E-1,-1.16022326E-1,8.306787E-2,4.1592392E-1,-1.2734956E-1,4.3217015E-1,-1.0468077E-1,-1.332761E-1,-3.132951E-2,2.2232236E-1,-1.1892379E-1],"categories":[],"categories_nodes":[],"categories_segments":[],"categories_sizes":[],"default_left":[0,0,0,0,0,0,0,0,0,0,0,0,0,0,0,0,0,0,0,0,0,0,0,0,0,0,0,0,0,0,0],"id":27,"left_children":[1,3,5,7,9,11,13,15,17,19,21,23,25,27,29,-1,-1,-1,-1,-1,-1,-1,-1,-1,-1,-1,-1,-1,-1,-1,-1],"loss_changes":[6.8449304E2,8.540422E1,3.0605124E2,4.7575684E0,2.0843277E2,1.3698999E2,1.8911133E1,7.2213745E-1,1.3748465E1,1.25485214E2,1.5509782E1,7.5464005E1,1.0415393E2,6.3275166E0,1.4190308E1,0E0,0E0,0E0,0E0,0E0,0E0,0E0,0E0,0E0,0E0,0E0,0E0,0E0,0E0,0E0,0E0],"parents":[2147483647,0,0,1,1,2,2,3,3,4,4,5,5,6,6,7,7,8,8,9,9,10,10,11,11,12,12,13,13,14,14],"right_children":[2,4,6,8,10,12,14,16,18,20,22,24,26,28,30,-1,-1,-1,-1,-1,-1,-1,-1,-1,-1,-1,-1,-1,-1,-1,-1],"split_conditions":[3.074506E-1,1.1155611E0,-1.0015695E-1,2.7942646E-1,-1.8151316E-1,4.507368E-1,3.9394405E-1,1.5045434E-2,-1.2828225E-1,2.0447981E-1,2.7951077E-1,2.2682922E-1,6.3017046E-1,3.968091E-1,5.658478E-1,-5.5132467E-2,-1.2814894E-1,1.1363269E-1,-1.1048818E-1,-8.807594E-2,8.2076263E-1,-1.16022326E-1,8.306787E-2,4.1592392E-1,-1.2734956E-1,4.3217015E-1,-1.0468077E-1,-1.332761E-1,-3.132951E-2,2.2232236E-1,-1.1892379E-1],"split_indices":[12,17,24,12,24,11,12,4,22,12,16,5,33,16,33,0,0,0,0,0,0,0,0,0,0,0,0,0,0,0,0],"split_type":[0,0,0,0,0,0,0,0,0,0,0,0,0,0,0,0,0,0,0,0,0,0,0,0,0,0,0,0,0,0,0],"sum_hessian":[1.935606E3,1.3025579E3,6.3304803E2,1.1028171E3,1.9974077E2,4.459809E2,1.8706715E2,9.7954865E2,1.232685E2,4.286962E1,1.5687114E2,7.612516E1,3.6985574E2,1.5289221E2,3.417494E1,1.0645626E1,9.68903E2,1.9604795E1,1.03663704E2,1.3565703E1,2.9303919E1,1.2742734E2,2.944381E1,2.1412968E1,5.471219E1,3.4607068E2,2.3785069E1,7.739997E1,7.549224E1,2.3965004E1,1.0209934E1],"tree_param":{"num_deleted":"0","num_feature":"42","num_nodes":"31","size_leaf_vector":"1"}},{"base_weights":[3.5883866E-2,8.540519E-1,-3.7428364E-1,1.1382394E0,-4.7722876E-1,5.2137977E-1,-4.7842228E-1,1.393761E0,-4.340928E-2,-1.2977578E-1,7.0597976E-1,-1.7239189E-1,1.267329E0,-4.9881673E-1,4.3753612E-1,3.0093683E-2,3.8900056E-1,1.9205308E-1,-1.0689501E-1,4.3837398E-1,-9.340887E-2,-1.2228248E-1,1.46112E-1,-1.00191E-1,3.9630598E-1,-8.2779646E-2,-1.2841485E-1,4.4044667E-1,-8.493172E-2],"categories":[],"categories_nodes":[],"categories_segments":[],"categories_sizes":[],"default_left":[0,0,0,0,0,0,0,0,0,0,0,0,0,0,0,0,0,0,0,0,0,0,0,0,0,0,0,0,0],"id":28,"left_children":[1,3,5,7,9,11,13,15,17,-1,19,21,23,25,27,-1,-1,-1,-1,-1,-1,-1,-1,-1,-1,-1,-1,-1,-1],"loss_changes":[6.6113696E2,2.4942773E2,1.22651886E2,1.6383514E2,6.135145E0,7.1204834E1,2.2188965E1,9.195557E1,3.0700495E1,0E0,5.635054E0,1.7533535E1,3.574903E1,2.6948242E0,2.7514236E1,0E0,0E0,0E0,0E0,0E0,0E0,0E0,0E0,0E0,0E0,0E0,0E0,0E0,0E0],"parents":[2147483647,0,0,1,1,2,2,3,3,4,4,5,5,6,6,7,7,8,8,10,10,11,11,12,12,13,13,14,14],"right_children":[2,4,6,8,10,12,14,16,18,-1,20,22,24,26,28,-1,-1,-1,-1,-1,-1,-1,-1,-1,-1,-1,-1,-1,-1],"split_conditions":[-2.0717654E-1,1.3971871E-1,4.4242933E-1,5.319217E-1,3.2248884E-1,1.0566074E0,1.230596E0,1.127861E-1,-1.9438593E-1,-1.2977578E-1,4.3101305E-1,4.4468647E-1,2.6534343E-1,4.715856E-1,7.481513E-1,3.0093683E-2,3.8900056E-1,1.9205308E-1,-1.0689501E-1,4.3837398E-1,-9.340887E-2,-1.2228248E-1,1.46112E-1,-1.00191E-1,3.9630598E-1,-8.2779646E-2,-1.2841485E-1,4.4044667E-1,-8.493172E-2],"split_indices":[24,8,11,11,12,25,25,16,20,0,14,16,16,11,13,0,0,0,0,0,0,0,0,0,0,0,0,0,0],"split_type":[0,0,0,0,0,0,0,0,0,0,0,0,0,0,0,0,0,0,0,0,0,0,0,0,0,0,0,0,0],"sum_hessian":[1.968145E3,6.5684436E2,1.3113007E3,5.4141406E2,1.15430275E2,1.3616681E2,1.1751339E3,4.450058E2,9.640827E1,1.1202686E2,3.4034157E0,7.094922E1,6.521758E1,1.1499841E3,2.5149757E1,5.048725E1,3.9451855E2,3.0651808E1,6.575646E1,1.4105846E0,1.9928311E0,5.0266407E1,2.0682808E1,1.0397584E1,5.4820004E1,9.540241E1,1.0545817E3,8.833372E0,1.6316385E1],"tree_param":{"num_deleted":"0","num_feature":"42","num_nodes":"29","size_leaf_vector":"1"}},{"base_weights":[-5.9480914E-3,8.023009E-1,-4.780481E-1,1.2100341E0,-3.6163273E-1,-5.080376E-1,7.2499174E-1,-4.392215E-1,1.4286633E0,-4.5955262E-1,9.425955E-1,-5.150262E-1,-1.823201E-1,1.3489978E0,-1.194316E-1,3.631877E-2,-1.3112187E-1,-1.0011795E-1,3.60549E-1,-1.2818587E-1,-1.327191E-2,-9.981217E-2,3.434804E-1,-3.617004E-2,-1.2896086E-1,1.9560587E-1,-1.2459594E-1,3.6535105E-1,-7.072429E-2],"categories":[],"categories_nodes":[],"categories_segments":[],"categories_sizes":[],"default_left":[0,0,0,0,0,0,0,0,0,0,0,0,0,0,0,0,0,0,0,0,0,0,0,0,0,0,0,0,0],"id":29,"left_children":[1,3,5,7,9,11,13,15,17,19,21,23,25,27,-1,-1,-1,-1,-1,-1,-1,-1,-1,-1,-1,-1,-1,-1,-1],"loss_changes":[7.624229E2,3.5008347E2,4.587558E1,1.9744824E2,2.4941294E1,2.7088318E0,2.3977629E1,3.2984428E0,1.2513611E1,3.8465843E0,8.494809E0,2.9000854E-1,8.748047E0,4.2162743E0,0E0,0E0,0E0,0E0,0E0,0E0,0E0,0E0,0E0,0E0,0E0,0E0,0E0,0E0,0E0],"parents":[2147483647,0,0,1,1,2,2,3,3,4,4,5,5,6,6,7,7,8,8,9,9,10,10,11,11,12,12,13,13],"right_children":[2,4,6,8,10,12,14,16,18,20,22,24,26,28,-1,-1,-1,-1,-1,-1,-1,-1,-1,-1,-1,-1,-1,-1,-1],"split_conditions":[5.9404343E-1,2.4603067E-1,1.238727E0,4.9409965E-1,1.1337746E0,1.1846983E0,-4.4823638E-1,2.3200344E-1,9.2281884E-1,1.0374327E0,4.7091278E-1,3.1618685E-2,8.37035E-1,1.1303849E0,-1.194316E-1,3.631877E-2,-1.3112187E-1,-1.0011795E-1,3.60549E-1,-1.2818587E-1,-1.327191E-2,-9.981217E-2,3.434804E-1,-3.617004E-2,-1.2896086E-1,1.9560587E-1,-1.2459594E-1,3.6535105E-1,-7.072429E-2],"split_indices":[25,8,17,41,17,17,40,10,17,17,41,10,25,25,0,0,0,0,0,0,0,0,0,0,0,0,0,0,0],"split_type":[0,0,0,0,0,0,0,0,0,0,0,0,0,0,0,0,0,0,0,0,0,0,0,0,0,0,0,0,0],"sum_hessian":[1.9960929E3,7.3575665E2,1.2603363E3,5.44852E2,1.909047E2,1.2302462E3,3.0090038E1,6.3654846E1,4.8119714E2,1.7817516E2,1.2729528E1,1.2038354E3,2.641076E1,1.9731253E1,1.0358786E1,8.014159E0,5.5640686E1,3.3239975E0,4.7787314E2,1.5732571E2,2.0849438E1,3.114566E0,9.614963E0,3.0425668E0,1.200793E3,6.153246E0,2.0257515E1,1.855747E1,1.1737813E0],"tree_param":{"num_deleted":"0","num_feature":"42","num_nodes":"29","size_leaf_vector":"1"}},{"base_weights":[3.90629E-2,-5.0581837E-1,6.993531E-1,-1.2987234E-1,-8.0556504E-2,-3.8500434E-1,1.3340399E0,-1.2573579E-1,1.2302241E0,1.202781E0,-4.945462E-1,-1.8921882E-1,1.6229405E0,-9.832858E-2,5.2726716E-1,4.660205E-3,7.741698E-1,6.030568E-2,-1.2791811E-1,-1.2461434E-1,1.2740874E-1,4.3136278E-1,-1.315074E-1],"categories":[],"categories_nodes":[],"categories_segments":[],"categories_sizes":[],"default_left":[0,0,0,0,0,0,0,0,0,0,0,0,0,0,0,0,0,0,0,0,0,0,0],"id":30,"left_children":[1,3,5,-1,7,9,11,-1,13,15,17,19,21,-1,-1,-1,-1,-1,-1,-1,-1,-1,-1],"loss_changes":[7.0807697E2,6.227173E0,6.1288745E2,0E0,1.9868628E1,5.7868332E1,2.474029E2,0E0,1.3333751E1,4.8255936E1,4.013954E0,1.9792868E1,1.0490332E2,0E0,0E0,0E0,0E0,0E0,0E0,0E0,0E0,0E0,0E0],"parents":[2147483647,0,0,1,1,2,2,4,4,5,5,6,6,8,8,9,9,10,10,11,11,12,12],"right_children":[2,4,6,-1,8,10,12,-1,14,16,18,20,22,-1,-1,-1,-1,-1,-1,-1,-1,-1,-1],"split_conditions":[8.75302E-1,8.5477525E-1,2.4934487E-1,-1.2987234E-1,4.3758926E-1,1.242372E-1,-2.2390568E-1,-1.2573579E-1,5.453114E-1,-2.2918394E-1,1.5280502E-1,2.1698241E-1,3.2839426E-1,-9.832858E-2,5.2726716E-1,4.660205E-3,7.741698E-1,6.030568E-2,-1.2791811E-1,-1.2461434E-1,1.2740874E-1,4.3136278E-1,-1.315074E-1],"split_indices":[33,33,2,0,6,16,26,0,11,30,16,12,16,0,0,0,0,0,0,0,0,0,0],"split_type":[0,0,0,0,0,0,0,0,0,0,0,0,0,0,0,0,0,0,0,0,0,0,0],"sum_hessian":[1.9661011E3,1.077317E3,8.887841E2,1.0435483E3,3.3768677E1,3.2829245E2,5.6049164E2,2.6005087E1,7.7635903E0,2.05432E1,3.0774924E2,8.9410484E1,4.7108118E2,2.9206235E0,4.842967E0,1.3261456E1,7.281744E0,6.702777E0,3.0104648E2,6.2182053E1,2.722843E1,4.498208E2,2.1260372E1],"tree_param":{"num_deleted":"0","num_feature":"42","num_nodes":"23","size_leaf_vector":"1"}},{"base_weights":[4.4019915E-2,8.0997455E-1,-3.756892E-1,-5.1516235E-1,1.3904917E0,-4.3474555E-1,5.052122E-1,-1.2992191E-1,5.3873647E-2,1.4858735E0,-3.9775056E-1,-5.045018E-1,-1.8512896E-1,2.0198958E0,-4.7069988E-1,3.361817E-1,5.348215E-1,-1.2618315E-1,2.0496531E-1,4.6576813E-2,-1.2690115E-1,6.5464467E-1,-7.861408E-2,1.0020617E-1,6.75642E-1,8.510386E-2,-1.2743835E-1],"categories":[],"categories_nodes":[],"categories_segments":[],"categories_sizes":[],"default_left":[0,0,0,0,0,0,0,0,0,0,0,0,0,0,0,0,0,0,0,0,0,0,0,0,0,0,0],"id":31,"left_children":[1,3,5,7,9,11,13,-1,-1,15,17,19,21,23,25,-1,-1,-1,-1,-1,-1,-1,-1,-1,-1,-1,-1],"loss_changes":[6.441454E2,5.4632837E2,6.75625E1,8.288002E-1,8.476044E1,2.1039871E1,1.2185781E2,0E0,0E0,4.034973E1,3.7715888E0,2.1266022E0,9.751706E1,3.45502E1,1.7749424E0,0E0,0E0,0E0,0E0,0E0,0E0,0E0,0E0,0E0,0E0,0E0,0E0],"parents":[2147483647,0,0,1,1,2,2,3,3,4,4,5,5,6,6,9,9,10,10,11,11,12,12,13,13,14,14],"right_children":[2,4,6,8,10,12,14,-1,-1,16,18,20,22,24,26,-1,-1,-1,-1,-1,-1,-1,-1,-1,-1,-1,-1],"split_conditions":[4.924548E-1,7.623013E-1,8.2038194E-1,7.3654187E-1,2.937518E-1,3.068651E-1,-3.3996624E-1,-1.2992191E-1,5.3873647E-2,4.7204405E-1,4.365938E-1,1.542634E-1,-3.5162112E-1,8.9403296E-1,5.6673877E-2,3.361817E-1,5.348215E-1,-1.2618315E-1,2.0496531E-1,4.6576813E-2,-1.2690115E-1,6.5464467E-1,-7.861408E-2,1.0020617E-1,6.75642E-1,8.510386E-2,-1.2743835E-1],"split_indices":[19,33,41,33,16,2,34,0,0,19,4,35,32,23,3,0,0,0,0,0,0,0,0,0,0,0,0],"split_type":[0,0,0,0,0,0,0,0,0,0,0,0,0,0,0,0,0,0,0,0,0,0,0,0,0,0,0],"sum_hessian":[2.0017523E3,7.082644E2,1.2934879E3,2.1579204E2,4.9247238E2,1.2126945E3,8.079354E1,2.1475073E2,1.0413136E0,4.6769537E2,2.4776993E1,9.4702405E2,2.6567035E2,3.1238874E1,4.9554665E1,3.8712802E2,8.056737E1,2.3314043E1,1.4629498E0,3.9705925E0,9.4305347E2,1.08656025E1,2.5480475E2,9.735842E0,2.150303E1,1.9218795E0,4.7632786E1],"tree_param":{"num_deleted":"0","num_feature":"42","num_nodes":"27","size_leaf_vector":"1"}},{"base_weights":[1.2274834E-3,9.69444E-1,-4.2629606E-1,-2.9268396E-1,1.3403944E0,7.091641E-2,-4.7445E-1,9.6871006E-1,-4.3875888E-1,1.3642E0,-1.12082325E-1,-3.859827E-1,1.4269655E0,-1.1150518E-1,-4.9286416E-1,4.3471062E-1,-7.261494E-2,-1.1922619E-1,1.1650107E-1,-2.3241823E-3,3.432722E-1,-8.927184E-3,-1.2163319E-1,-1.2625627E-1,4.9755624E-1,-8.6018756E-2,7.477848E-1,-9.543496E-2,-1.2809417E-1],"categories":[],"categories_nodes":[],"categories_segments":[],"categories_sizes":[],"default_left":[0,0,0,0,0,0,0,0,0,0,0,0,0,0,0,0,0,0,0,0,0,0,0,0,0,0,0,0,0],"id":32,"left_children":[1,3,5,7,9,11,13,15,17,19,-1,21,23,25,27,-1,-1,-1,-1,-1,-1,-1,-1,-1,-1,-1,-1,-1,-1],"loss_changes":[8.206194E2,2.8469684E2,3.2960617E1,2.5991829E1,2.0603271E1,7.632426E1,8.325562E0,1.4772221E1,4.5378437E0,5.6723633E0,0E0,3.232171E0,3.4777332E1,4.565159E1,2.391388E0,0E0,0E0,0E0,0E0,0E0,0E0,0E0,0E0,0E0,0E0,0E0,0E0,0E0,0E0],"parents":[2147483647,0,0,1,1,2,2,3,3,4,4,5,5,6,6,7,7,8,8,9,9,11,11,12,12,13,13,14,14],"right_children":[2,4,6,8,10,12,14,16,18,20,-1,22,24,26,28,-1,-1,-1,-1,-1,-1,-1,-1,-1,-1,-1,-1,-1,-1],"split_conditions":[-3.7885234E-1,-5.118264E-1,-3.3404282E-1,2.783605E-1,1.9893964E-1,-4.460509E-1,1.8718778E-1,-3.3622763E-1,1.0037827E0,4.9992076E-1,-1.12082325E-1,4.315864E-1,7.915079E-1,9.4380265E-1,1.02759674E-1,4.3471062E-1,-7.261494E-2,-1.1922619E-1,1.1650107E-1,-2.3241823E-3,3.432722E-1,-8.927184E-3,-1.2163319E-1,-1.2625627E-1,4.9755624E-1,-8.6018756E-2,7.477848E-1,-9.543496E-2,-1.2809417E-1],"split_indices":[32,38,32,5,8,40,4,34,15,33,0,9,33,33,6,0,0,0,0,0,0,0,0,0,0,0,0,0,0],"split_type":[0,0,0,0,0,0,0,0,0,0,0,0,0,0,0,0,0,0,0,0,0,0,0,0,0,0,0,0,0],"sum_hessian":[1.9804836E3,6.062457E2,1.3742379E3,1.3775542E2,4.6849033E2,1.2129861E2,1.2529392E3,1.3712542E1,1.2404288E2,4.6257144E2,5.9189053E0,9.1264015E1,3.0034592E1,6.083974E1,1.1920995E3,8.272177E0,5.440365E0,1.1947842E2,4.564456E0,2.9740458E0,4.5959738E2,2.0657423E1,7.06066E1,6.803128E0,2.3231464E1,5.7424393E1,3.4153488E0,1.8112863E2,1.0109709E3],"tree_param":{"num_deleted":"0","num_feature":"42","num_nodes":"29","size_leaf_vector":"1"}},{"base_weights":[4.647047E-2,-4.4970447E-1,7.13495E-1,-4.9016827E-1,2.765525E-1,1.2449828E0,-4.7958726E-1,-5.0566745E-1,-1.9131874E-1,1.0788593E0,-1.2665865E-1,-1.28207E-1,1.4333053E0,-1.3766022E-1,-5.117995E-1,-8.322931E-2,-1.2790367E-1,4.2409572E-1,-1.2755714E-1,-1.209257E-1,4.7332636E-1,3.3652824E-1,1.1603252E0,2.83745E-1,-1.2391058E-1,1.5049077E-2,-1.2895241E-1],"categories":[],"categories_nodes":[],"categories_segments":[],"categories_sizes":[],"default_left":[0,0,0,0,0,0,0,0,0,0,0,0,0,0,0,0,0,0,0,0,0,0,0,0,0,0,0],"id":33,"left_children":[1,3,5,7,9,11,13,15,17,19,-1,-1,21,23,25,-1,-1,-1,-1,-1,-1,-1,-1,-1,-1,-1,-1],"loss_changes":[6.7987195E2,3.4754715E1,5.5622156E2,5.0735474E0,4.0013943E1,2.0149658E2,2.9117966E0,9.193115E-1,3.496611E1,4.0807503E1,0E0,0E0,1.4704675E2,1.1806238E1,5.978012E-1,0E0,0E0,0E0,0E0,0E0,0E0,0E0,0E0,0E0,0E0,0E0,0E0],"parents":[2147483647,0,0,1,1,2,2,3,3,4,4,5,5,6,6,7,7,8,8,9,9,12,12,13,13,14,14],"right_children":[2,4,6,8,10,12,14,16,18,20,-1,-1,22,24,26,-1,-1,-1,-1,-1,-1,-1,-1,-1,-1,-1,-1],"split_conditions":[5.903226E-1,-3.036285E-1,5.2855045E-1,5.6636095E-1,-5.280363E-2,7.633655E-1,5.782015E-1,2.4710171E-1,3.6692217E-1,3.262651E-1,-1.2665865E-1,-1.28207E-1,3.2644716E-1,4.8719233E-1,-2.2238037E-1,-8.322931E-2,-1.2790367E-1,4.2409572E-1,-1.2755714E-1,-1.209257E-1,4.7332636E-1,3.3652824E-1,1.1603252E0,2.83745E-1,-1.2391058E-1,1.5049077E-2,-1.2895241E-1],"split_indices":[8,36,39,8,20,25,39,33,41,8,0,0,41,9,24,0,0,0,0,0,0,0,0,0,0,0,0],"split_type":[0,0,0,0,0,0,0,0,0,0,0,0,0,0,0,0,0,0,0,0,0,0,0,0,0,0,0],"sum_hessian":[2.052267E3,1.1770378E3,8.752292E2,1.1152274E3,6.1810467E1,6.05466E2,2.697632E2,1.0595825E3,5.5644848E1,3.0346058E1,3.1464409E1,5.8422657E1,5.4704333E2,2.3679825E1,2.4608339E2,3.7160286E1,1.02242224E3,7.4178057E0,4.822704E1,1.0536763E1,1.9809294E1,5.339503E2,1.3092979E1,4.7220964E0,1.8957727E1,1.6156905E0,2.444677E2],"tree_param":{"num_deleted":"0","num_feature":"42","num_nodes":"27","size_leaf_vector":"1"}},{"base_weights":[5.20266E-3,-3.853168E-1,7.876559E-1,4.028172E-1,-4.71017E-1,1.1561388E0,-4.027392E-1,-4.1462532E-1,1.5066931E0,5.916253E-2,-4.8404446E-1,-3.9562717E-1,1.5312725E0,-5.1679486E-1,3.3394995E-1,-1.2849261E-1,1.585003E-1,3.3596566E-1,8.17481E-1,3.8636944E-1,-1.0225551E-1,-1.2333681E-1,1.8622942E-3,1.6819714E-1,-1.15909986E-1,3.0313956E-2,4.888119E-1,-1.3098256E-1,-4.8549835E-2,3.7605944E-1,-8.909175E-2],"categories":[],"categories_nodes":[],"categories_segments":[],"categories_sizes":[],"default_left":[0,0,0,0,0,0,0,0,0,0,0,0,0,0,0,0,0,0,0,0,0,0,0,0,0,0,0,0,0,0,0],"id":34,"left_children":[1,3,5,7,9,11,13,15,17,19,21,23,25,27,29,-1,-1,-1,-1,-1,-1,-1,-1,-1,-1,-1,-1,-1,-1,-1,-1],"loss_changes":[5.824749E2,8.6077576E1,2.7884543E2,1.1364415E2,7.953247E0,2.8286768E2,1.2839685E1,7.9041433E0,1.0967163E1,2.039995E1,5.1243286E0,7.2292595E0,2.3332361E2,1.9965363E-1,1.7354887E1,0E0,0E0,0E0,0E0,0E0,0E0,0E0,0E0,0E0,0E0,0E0,0E0,0E0,0E0,0E0,0E0],"parents":[2147483647,0,0,1,1,2,2,3,3,4,4,5,5,6,6,7,7,8,8,9,9,10,10,11,11,12,12,13,13,14,14],"right_children":[2,4,6,8,10,12,14,16,18,20,22,24,26,28,30,-1,-1,-1,-1,-1,-1,-1,-1,-1,-1,-1,-1,-1,-1,-1,-1],"split_conditions":[2.59943E-1,2.6911908E-1,3.5491994E-1,9.447785E-1,4.6689454E-2,8.5475093E-1,7.159777E-3,3.32688E-1,2.531985E-1,-2.1234472E-1,1.1497835E0,3.4776574E-1,-4.0388396E-1,3.74217E-1,-2.7394828E-1,-1.2849261E-1,1.585003E-1,3.3596566E-1,8.17481E-1,3.8636944E-1,-1.0225551E-1,-1.2333681E-1,1.8622942E-3,1.6819714E-1,-1.15909986E-1,3.0313956E-2,4.888119E-1,-1.3098256E-1,-4.8549835E-2,3.7605944E-1,-8.909175E-2],"split_indices":[10,35,16,23,3,23,20,2,35,26,15,9,40,2,26,0,0,0,0,0,0,0,0,0,0,0,0,0,0,0,0],"split_type":[0,0,0,0,0,0,0,0,0,0,0,0,0,0,0,0,0,0,0,0,0,0,0,0,0,0,0,0,0,0,0],"sum_hessian":[1.9042404E3,1.2705975E3,6.336428E2,1.24249405E2,1.1463481E3,4.8388626E2,1.4975659E2,7.17451E1,5.2504307E1,2.7407345E1,1.1189408E3,9.419358E1,3.896927E2,1.2993785E2,1.981874E1,6.6002045E1,5.7430587E0,4.9678745E1,2.8255625E0,6.014021E0,2.1393324E1,1.0981517E3,2.0789068E1,5.10511E0,8.908847E1,9.038495E1,2.9930774E2,1.2651539E2,3.4224658E0,6.9156504E0,1.2903091E1],"tree_param":{"num_deleted":"0","num_feature":"42","num_nodes":"31","size_leaf_vector":"1"}},{"base_weights":[-5.6957928E-5,1.0347651E0,-4.1621798E-1,1.2206784E0,-1.2823504E-1,1.3984171E0,-4.7740895E-1,1.3676312E0,-3.1895545E-1,-4.5922983E-1,1.1881964E0,1.7517606E0,-3.5209876E-1,3.4959573E-1,-4.940238E-1,3.6240044E-1,-8.597304E-2,2.763542E-1,-1.2721233E-1,1.1947745E-1,-1.2224569E-1,4.8982427E-1,-4.152943E-2,5.291977E-1,-1.1029228E-1,5.8203228E-2,-1.1549832E-1,-1.2168832E-1,3.2068765E-1,-1.2443295E-1,7.7845804E-2],"categories":[],"categories_nodes":[],"categories_segments":[],"categories_sizes":[],"default_left":[0,0,0,0,0,0,0,0,0,0,0,0,0,0,0,0,0,0,0,0,0,0,0,0,0,0,0,0,0,0,0],"id":35,"left_children":[1,3,5,7,9,11,13,15,17,19,21,23,25,27,29,-1,-1,-1,-1,-1,-1,-1,-1,-1,-1,-1,-1,-1,-1,-1,-1],"loss_changes":[8.3562305E2,1.20486145E2,1.5432843E2,1.09018555E2,3.436163E1,2.8696075E1,1.8577454E1,6.1988037E1,1.2091954E1,1.982934E0,1.6900097E1,3.1303947E1,6.511619E-1,2.1669514E1,4.077606E0,0E0,0E0,0E0,0E0,0E0,0E0,0E0,0E0,0E0,0E0,0E0,0E0,0E0,0E0,0E0,0E0],"parents":[2147483647,0,0,1,1,2,2,3,3,4,4,5,5,6,6,7,7,8,8,9,9,10,10,11,11,12,12,13,13,14,14],"right_children":[2,4,6,8,10,12,14,16,18,20,22,24,26,28,30,-1,-1,-1,-1,-1,-1,-1,-1,-1,-1,-1,-1,-1,-1,-1,-1],"split_conditions":[-5.5408794E-1,2.6369476E-1,-2.9447022E-1,-2.1898526E-1,-6.8032118E-3,-2.5018135E-1,4.2009953E-1,7.623013E-1,-5.979056E-1,-6.205123E-1,4.601992E-1,3.632351E-1,3.7281123E-1,7.881814E-1,1.1449265E0,3.6240044E-1,-8.597304E-2,2.763542E-1,-1.2721233E-1,1.1947745E-1,-1.2224569E-1,4.8982427E-1,-4.152943E-2,5.291977E-1,-1.1029228E-1,5.8203228E-2,-1.1549832E-1,-1.2168832E-1,3.2068765E-1,-1.2443295E-1,7.7845804E-2],"split_indices":[36,16,26,32,20,40,11,33,34,34,11,16,4,15,23,0,0,0,0,0,0,0,0,0,0,0,0,0,0,0,0],"split_type":[0,0,0,0,0,0,0,0,0,0,0,0,0,0,0,0,0,0,0,0,0,0,0,0,0,0,0,0,0,0,0],"sum_hessian":[1.9383641E3,5.55522E2,1.3828422E3,4.789147E2,7.6607285E1,4.439656E1,1.3384457E3,4.372887E2,4.1626003E1,6.1735962E1,1.4871324E1,3.693956E1,7.4570007E0,2.5965618E1,1.31248E3,4.1744873E2,1.9839975E1,4.329522E0,3.7296482E1,1.4362177E0,6.0299744E1,9.191364E0,5.67996E0,3.1697912E1,5.2416453E0,1.0025314E0,6.4544697E0,1.3945347E1,1.2020271E1,1.3068455E3,5.6345463E0],"tree_param":{"num_deleted":"0","num_feature":"42","num_nodes":"31","size_leaf_vector":"1"}},{"base_weights":[4.617301E-3,8.523492E-1,-4.7825596E-1,1.001505E0,-4.3674427E-1,5.460196E-2,-4.9591446E-1,-4.6248484E-1,1.0597186E0,-4.9656704E-1,1.9908373E-1,1.8120875E0,-4.098303E-1,-5.031765E-1,3.4492004E-1,4.808123E-2,-1.2510026E-1,2.5938264E-1,7.356281E-1,-5.1972285E-2,-1.2760064E-1,6.4644694E-1,-9.1323726E-2,-1.2593783E-1,1.0616524E-1,-1.2645793E-1,5.150401E-2,2.1686246E-1,-1.0305162E-1],"categories":[],"categories_nodes":[],"categories_segments":[],"categories_sizes":[],"default_left":[0,0,0,0,0,0,0,0,0,0,0,0,0,0,0,0,0,0,0,0,0,0,0,0,0,0,0,0,0],"id":36,"left_children":[1,3,5,7,9,11,13,15,17,19,-1,21,23,25,27,-1,-1,-1,-1,-1,-1,-1,-1,-1,-1,-1,-1,-1,-1],"loss_changes":[7.454292E2,1.2750125E2,1.0943787E1,5.0994934E1,5.502263E0,3.1853506E1,7.0312195E0,6.762037E-1,2.0769592E1,1.6006279E-1,0E0,1.4676758E1,2.6407475E0,2.2016602E0,4.3968043E0,0E0,0E0,0E0,0E0,0E0,0E0,0E0,0E0,0E0,0E0,0E0,0E0,0E0,0E0],"parents":[2147483647,0,0,1,1,2,2,3,3,4,4,5,5,6,6,7,7,8,8,9,9,11,11,12,12,13,13,14,14],"right_children":[2,4,6,8,10,12,14,16,18,20,-1,22,24,26,28,-1,-1,-1,-1,-1,-1,-1,-1,-1,-1,-1,-1,-1,-1],"split_conditions":[9.11441E-2,-4.0816134E-1,5.002875E-1,-3.8387522E-1,9.241392E-1,1.8116462E-1,9.241392E-1,-9.283511E-2,6.859431E-2,1.3446544E-1,1.9908373E-1,-4.3189827E-1,6.1096966E-1,1.1398603E0,8.5091037E-1,4.808123E-2,-1.2510026E-1,2.5938264E-1,7.356281E-1,-5.1972285E-2,-1.2760064E-1,6.4644694E-1,-9.1323726E-2,-1.2593783E-1,1.0616524E-1,-1.2645793E-1,5.150401E-2,2.1686246E-1,-1.0305162E-1],"split_indices":[12,40,17,34,41,16,41,12,12,2,0,40,9,9,23,0,0,0,0,0,0,0,0,0,0,0,0,0,0],"split_type":[0,0,0,0,0,0,0,0,0,0,0,0,0,0,0,0,0,0,0,0,0,0,0,0,0,0,0,0,0],"sum_hessian":[1.8190243E3,6.598417E2,1.1591826E3,5.9161176E2,6.822992E1,3.7115166E1,1.1220675E3,2.2359406E1,5.692523E2,6.564256E1,2.587351E0,7.151401E0,2.9963766E1,1.1128577E3,9.209858E0,1.0009358E0,2.1358469E1,5.64155E2,5.0972924E0,3.7351117E0,6.1907455E1,5.1380906E0,2.0133104E0,2.7288782E1,2.674983E0,1.1089923E3,3.8652837E0,5.362928E0,3.8469305E0],"tree_param":{"num_deleted":"0","num_feature":"42","num_nodes":"29","size_leaf_vector":"1"}},{"base_weights":[-3.9570738E-2,-5.031627E-1,7.960216E-1,-5.0831085E-1,8.9018695E-2,-4.940715E-1,9.490955E-1,-3.86762E-2,-5.1006323E-1,-1.138512E-1,1.4100814E0,-1.3028052E-1,8.859661E-2,-2.2133291E-1,1.0391822E0,1.8401192E-1,-9.8990045E-2,-1.286037E-1,-8.21199E-2,5.7522917E-1,-6.902758E-2,1.6275732E-1,-8.6181566E-2,1.7063005E-1,-9.934105E-2,2.7320158E-1,5.8280874E-2],"categories":[],"categories_nodes":[],"categories_segments":[],"categories_sizes":[],"default_left":[0,0,0,0,0,0,0,0,0,0,0,0,0,0,0,0,0,0,0,0,0,0,0,0,0,0,0],"id":37,"left_children":[1,3,5,7,9,11,13,15,17,-1,19,-1,21,23,25,-1,-1,-1,-1,-1,-1,-1,-1,-1,-1,-1,-1],"loss_changes":[6.7971173E2,3.4855652E0,1.2411911E2,9.0112305E-1,8.249289E0,1.1033154E0,5.9283752E1,1.7423135E0,7.118225E-1,0E0,5.6387153E0,0E0,1.1579418E0,6.7709627E0,2.2231323E1,0E0,0E0,0E0,0E0,0E0,0E0,0E0,0E0,0E0,0E0,0E0,0E0],"parents":[2147483647,0,0,1,1,2,2,3,3,4,4,5,5,6,6,7,7,8,8,10,10,12,12,13,13,14,14],"right_children":[2,4,6,8,10,12,14,16,18,-1,20,-1,22,24,26,-1,-1,-1,-1,-1,-1,-1,-1,-1,-1,-1,-1],"split_conditions":[6.218803E-1,8.962679E-1,5.693004E-1,4.7007966E-1,-8.935379E-2,5.286874E-1,-3.651003E-3,3.6747167E-1,5.855917E-1,-1.138512E-1,-2.6086396E-1,-1.3028052E-1,6.373615E-1,5.658478E-1,2.6026958E-1,1.8401192E-1,-9.8990045E-2,-1.286037E-1,-8.21199E-2,5.7522917E-1,-6.902758E-2,1.6275732E-1,-8.6181566E-2,1.7063005E-1,-9.934105E-2,2.7320158E-1,5.8280874E-2],"split_indices":[27,29,8,15,32,8,24,35,27,0,36,0,17,33,2,0,0,0,0,0,0,0,0,0,0,0,0],"split_type":[0,0,0,0,0,0,0,0,0,0,0,0,0,0,0,0,0,0,0,0,0,0,0,0,0,0,0],"sum_hessian":[1.752632E3,1.1274907E3,6.251413E2,1.1179138E3,9.576955E0,6.6071236E1,5.5907E2,4.241643E0,1.1136721E3,7.246055E0,2.3308997E0,6.324088E1,2.8303554E0,3.9851612E1,5.1921844E2,1.0041516E0,3.2374914E0,1.0858182E3,2.7853947E1,1.2866062E0,1.0442934E0,1.0130512E0,1.8173043E0,6.0271654E0,3.3824448E1,4.8649777E2,3.2720654E1],"tree_param":{"num_deleted":"0","num_feature":"42","num_nodes":"27","size_leaf_vector":"1"}},{"base_weights":[-1.4830144E-1,-4.8205084E-1,9.0488267E-1,-5.130216E-1,-1.6077857E-1,1.0193161E0,-3.3011076E-1,-5.1386327E-1,4.0130768E-2,2.8801153E0,-4.922689E-1,-1.1009481E-1,1.0423399E0,-4.69849E-1,8.647816E-1,-1.2867366E-1,-7.083628E-2,1.2987064E0,4.4066793E-1,1.5762573E-1,-1.2803221E-1,2.6211312E-1,2.3878304E-2,-1.2532486E-1,5.9391435E-2,-8.613561E-2,5.1925427E-1],"categories":[],"categories_nodes":[],"categories_segments":[],"categories_sizes":[],"default_left":[0,0,0,0,0,0,0,0,0,0,0,0,0,0,0,0,0,0,0,0,0,0,0,0,0,0,0],"id":38,"left_children":[1,3,5,7,9,11,13,15,-1,17,19,-1,21,23,25,-1,-1,-1,-1,-1,-1,-1,-1,-1,-1,-1,-1],"loss_changes":[5.7220966E2,1.2214569E1,5.5705536E1,7.2125244E-1,1.1242238E2,1.2517731E1,6.079938E0,6.9885254E-2,0E0,1.9218658E1,2.5560684E0,0E0,1.9459534E0,8.103466E-1,6.447262E0,0E0,0E0,0E0,0E0,0E0,0E0,0E0,0E0,0E0,0E0,0E0,0E0],"parents":[2147483647,0,0,1,1,2,2,3,3,4,4,5,5,6,6,7,7,9,9,10,10,12,12,13,13,14,14],"right_children":[2,4,6,8,10,12,14,16,-1,18,20,-1,22,24,26,-1,-1,-1,-1,-1,-1,-1,-1,-1,-1,-1,-1],"split_conditions":[7.615754E-1,7.197347E-1,-1.7567307E-1,9.1633266E-1,-2.0862772E-1,5.598579E-1,9.3357354E-1,7.9481095E-1,4.0130768E-2,7.086363E-1,6.480566E-2,-1.1009481E-1,5.2609855E-1,3.020736E-1,6.732756E-1,-1.2867366E-1,-7.083628E-2,1.2987064E0,4.4066793E-1,1.5762573E-1,-1.2803221E-1,2.6211312E-1,2.3878304E-2,-1.2532486E-1,5.9391435E-2,-8.613561E-2,5.1925427E-1],"split_indices":[7,19,26,9,26,27,7,11,0,7,3,0,8,14,27,0,0,0,0,0,0,0,0,0,0,0,0],"split_type":[0,0,0,0,0,0,0,0,0,0,0,0,0,0,0,0,0,0,0,0,0,0,0,0,0,0,0],"sum_hessian":[1.6256688E3,1.2348823E3,3.9078647E2,1.1257617E3,1.0912065E2,3.5780704E2,3.2979446E1,1.1245935E3,1.1681703E0,9.97034E0,9.9150314E1,5.2745814E0,3.5253244E2,3.0069693E1,2.9097536E0,1.1193236E3,5.269862E0,2.0581567E0,7.912183E0,1.1889004E0,9.796142E1,3.501645E2,2.3679466E0,2.906871E1,1.0009818E0,1.8149458E0,1.0948079E0],"tree_param":{"num_deleted":"0","num_feature":"42","num_nodes":"27","size_leaf_vector":"1"}},{"base_weights":[3.4074012E-2,6.0436165E-1,-4.85633E-1,-1.2745942E-1,9.0529263E-1,-1.9524603E-1,-5.11671E-1,1.0302157E0,-3.7098327E-1,9.737655E-1,-3.1992015E-1,-1.2845977E-1,-2.9532993E-1,-1.4703558E-1,2.6516494E-1,-1.18511975E-1,9.947722E-2,4.00663E-1,-9.2368655E-2,-1.0671402E-1,1.5050493E-1,-1.1629661E-1,1.2608545E-1],"categories":[],"categories_nodes":[],"categories_segments":[],"categories_sizes":[],"default_left":[0,0,0,0,0,0,0,0,0,0,0,0,0,0,0,0,0,0,0,0,0,0,0],"id":39,"left_children":[1,3,5,-1,7,9,11,13,15,17,19,-1,21,-1,-1,-1,-1,-1,-1,-1,-1,-1,-1],"loss_changes":[5.565861E2,3.006756E2,7.3294525E0,0E0,1.1283661E2,1.23313465E1,2.7088928E-1,3.228961E1,5.2300825E0,7.514963E0,7.678339E0,0E0,1.768443E0,0E0,0E0,0E0,0E0,0E0,0E0,0E0,0E0,0E0,0E0],"parents":[2147483647,0,0,1,1,2,2,4,4,5,5,6,6,7,7,8,8,9,9,10,10,12,12],"right_children":[2,4,6,-1,8,10,12,14,16,18,20,-1,22,-1,-1,-1,-1,-1,-1,-1,-1,-1,-1],"split_conditions":[-5.3053343E-1,7.76193E-1,-4.9642777E-1,-1.2745942E-1,2.8742006E-1,3.624501E-1,1.0578389E0,-3.4884813E-1,1.0108217E0,3.6307162E-1,1.1122814E0,-1.2845977E-1,1.2136041E0,-1.4703558E-1,2.6516494E-1,-1.18511975E-1,9.947722E-2,4.00663E-1,-9.2368655E-2,-1.0671402E-1,1.5050493E-1,-1.1629661E-1,1.2608545E-1],"split_indices":[40,33,40,0,8,9,33,28,17,8,17,0,17,0,0,0,0,0,0,0,0,0,0],"split_type":[0,0,0,0,0,0,0,0,0,0,0,0,0,0,0,0,0,0,0,0,0,0,0],"sum_hessian":[1.8759417E3,8.9436707E2,9.815745E2,1.9004175E2,7.043253E2,8.14713E1,9.001032E2,6.417072E2,6.261813E1,7.1951575E0,7.4276146E1,8.898109E2,1.0292322E1,1.1510439E1,6.301968E2,5.5554855E1,7.0632725E0,4.7691727E0,2.425985E0,6.703746E1,7.238682E0,8.834157E0,1.4581659E0],"tree_param":{"num_deleted":"0","num_feature":"42","num_nodes":"23","size_leaf_vector":"1"}},{"base_weights":[2.2221897E-3,-4.9385467E-1,7.442838E-1,-5.0064456E-1,1.9103888E-1,1.0720632E0,2.8599074E-1,3.8248992E-1,-5.0522333E-1,-2.3105443E-1,1.009644E0,1.1542872E0,-1.269807E-1,-4.0167463E-1,7.103409E-1,-1.0399321E-1,5.58696E-1,1.6616203E-2,-1.2697971E-1,-1.1250109E-1,1.6977052E-1,-6.6787064E-2,3.834157E-1,3.832875E-1,2.619945E-1,-1.23099454E-1,9.003349E-3,-9.8329134E-2,2.6950067E-1],"categories":[],"categories_nodes":[],"categories_segments":[],"categories_sizes":[],"default_left":[0,0,0,0,0,0,0,0,0,0,0,0,0,0,0,0,0,0,0,0,0,0,0,0,0,0,0,0,0],"id":40,"left_children":[1,3,5,7,9,11,13,15,17,19,21,23,-1,25,27,-1,-1,-1,-1,-1,-1,-1,-1,-1,-1,-1,-1,-1,-1],"loss_changes":[6.677082E2,5.1510315E0,1.0886301E2,4.547119E0,4.1706796E0,5.5582886E1,8.911287E1,9.985015E0,1.6850281E0,1.9660089E0,3.1281085E0,1.4612671E1,0E0,4.6556625E0,7.69533E1,0E0,0E0,0E0,0E0,0E0,0E0,0E0,0E0,0E0,0E0,0E0,0E0,0E0,0E0],"parents":[2147483647,0,0,1,1,2,2,3,3,4,4,5,5,6,6,7,7,8,8,9,9,10,10,11,11,13,13,14,14],"right_children":[2,4,6,8,10,12,14,16,18,20,22,24,-1,26,28,-1,-1,-1,-1,-1,-1,-1,-1,-1,-1,-1,-1,-1,-1],"split_conditions":[8.683132E-1,6.732756E-1,1.6647314E-1,3.9663705E-1,1.882511E-1,1.0338084E0,6.87325E-1,-2.0931694E-1,-3.171511E-1,9.834221E-1,-1.6826482E-1,6.2473136E-1,-1.269807E-1,6.7127156E-1,1.6654524E-1,-1.0399321E-1,5.58696E-1,1.6616203E-2,-1.2697971E-1,-1.1250109E-1,1.6977052E-1,-6.6787064E-2,3.834157E-1,3.832875E-1,2.619945E-1,-1.23099454E-1,9.003349E-3,-9.8329134E-2,2.6950067E-1],"split_indices":[21,27,16,19,10,17,8,26,14,13,26,39,0,8,10,0,0,0,0,0,0,0,0,0,0,0,0,0,0],"split_type":[0,0,0,0,0,0,0,0,0,0,0,0,0,0,0,0,0,0,0,0,0,0,0,0,0,0,0,0,0],"sum_hessian":[1.8118364E3,1.0861002E3,7.257362E2,1.075705E3,1.0395312E1,4.223352E2,3.0340103E2,5.1227045E0,1.0705822E3,7.3323274E0,3.0629854E0,4.016998E2,2.0635405E1,1.157996E2,1.8760143E2,4.1214933E0,1.0012113E0,4.9130545E0,1.0656692E3,6.3179846E0,1.0143425E0,1.0339409E0,2.0290444E0,8.507816E1,3.1662164E2,9.581438E1,1.9985226E1,4.6861492E1,1.4073993E2],"tree_param":{"num_deleted":"0","num_feature":"42","num_nodes":"29","size_leaf_vector":"1"}},{"base_weights":[-1.0532731E-1,-4.680544E-1,1.0121759E0,1.08082E0,-5.0722086E-1,-9.844472E-2,1.0225806E0,1.627413E0,-1.1788006E-1,-5.094473E-1,5.406438E-1,1.0270494E0,-9.015796E-2,5.968293E-1,2.7662808E-1,-5.2390393E-2,-1.2808354E-1,-7.094739E-2,2.843005E-1,2.5870496E-1,1.1740821E-1],"categories":[],"categories_nodes":[],"categories_segments":[],"categories_sizes":[],"default_left":[0,0,0,0,0,0,0,0,0,0,0,0,0,0,0,0,0,0,0,0,0],"id":41,"left_children":[1,3,5,7,9,-1,11,13,-1,15,17,19,-1,-1,-1,-1,-1,-1,-1,-1,-1],"loss_changes":[6.8244727E2,7.764261E1,6.438324E0,2.763311E1,3.1687012E0,0E0,2.903717E0,6.7166977E0,0E0,9.6450806E-1,1.854548E0,1.2846375E0,0E0,0E0,0E0,0E0,0E0,0E0,0E0,0E0,0E0],"parents":[2147483647,0,0,1,1,2,2,3,3,4,4,6,6,7,7,9,9,10,10,11,11],"right_children":[2,4,6,8,10,-1,12,14,-1,16,18,20,-1,-1,-1,-1,-1,-1,-1,-1,-1],"split_conditions":[1.9334021E-1,-4.6618524E-1,-1.6767503E-1,1.0483725E-1,-7.0741095E-2,-9.844472E-2,8.5477525E-1,-1.2121869E-1,-1.1788006E-1,9.232172E-2,9.095039E-1,2.0228243E-1,-9.015796E-2,5.968293E-1,2.7662808E-1,-5.2390393E-2,-1.2808354E-1,-7.094739E-2,2.843005E-1,2.5870496E-1,1.1740821E-1],"split_indices":[32,22,26,10,26,0,33,26,0,2,15,10,0,0,0,0,0,0,0,0,0],"split_type":[0,0,0,0,0,0,0,0,0,0,0,0,0,0,0,0,0,0,0,0,0],"sum_hessian":[1.6814365E3,1.269843E3,4.1159348E2,3.0662704E1,1.2391803E3,2.7529182E0,4.0884055E2,2.2641918E1,8.020786E0,1.2370658E3,2.114583E0,4.077806E2,1.0599414E0,7.7512007E0,1.48907175E1,1.249692E1,1.2245688E3,1.1078465E0,1.0067366E0,4.0132956E2,6.4510436E0],"tree_param":{"num_deleted":"0","num_feature":"42","num_nodes":"21","size_leaf_vector":"1"}},{"base_weights":[2.321627E-2,-4.1160798E-1,7.959702E-1,4.5767623E-1,-4.8699057E-1,1.0380145E0,-3.3317688E-1,-1.257531E-1,1.0591701E0,-1.4981966E-1,-5.039233E-1,-1.11597106E-1,1.0557617E0,-5.038247E-1,9.208895E-1,7.6429926E-2,2.681442E-1,-1.261067E-1,2.5283918E-1,-1.2850389E-1,-9.108629E-2,2.5925115E-1,3.119679E-1,-1.2829259E-1,5.76951E-2,3.3418262E-1,-5.083453E-2],"categories":[],"categories_nodes":[],"categories_segments":[],"categories_sizes":[],"default_left":[0,0,0,0,0,0,0,0,0,0,0,0,0,0,0,0,0,0,0,0,0,0,0,0,0,0,0],"id":42,"left_children":[1,3,5,7,9,11,13,-1,15,17,19,-1,21,23,25,-1,-1,-1,-1,-1,-1,-1,-1,-1,-1,-1,-1],"loss_changes":[6.235282E2,7.803958E1,1.829617E2,5.55885E1,6.1660767E0,1.4972839E1,2.5867237E1,0E0,2.6720428E-1,2.262185E1,1.2784729E0,0E0,6.672363E-1,8.4020996E-1,7.0840893E0,0E0,0E0,0E0,0E0,0E0,0E0,0E0,0E0,0E0,0E0,0E0,0E0],"parents":[2147483647,0,0,1,1,2,2,3,3,4,4,5,5,6,6,8,8,9,9,10,10,12,12,13,13,14,14],"right_children":[2,4,6,8,10,12,14,-1,16,18,20,-1,22,24,26,-1,-1,-1,-1,-1,-1,-1,-1,-1,-1,-1,-1],"split_conditions":[9.32613E-1,6.6195095E-1,8.9710647E-1,7.3654187E-1,7.2640634E-1,1.2970138E-1,9.071897E-1,-1.257531E-1,3.1254178E-1,8.1411064E-1,9.6230507E-1,-1.11597106E-1,4.289701E-1,-1.2246333E-1,1.1265429E0,7.6429926E-2,2.681442E-1,-1.261067E-1,2.5283918E-1,-1.2850389E-1,-9.108629E-2,2.5925115E-1,3.119679E-1,-1.2829259E-1,5.76951E-2,3.3418262E-1,-5.083453E-2],"split_indices":[33,15,17,33,15,8,21,0,8,33,23,0,5,30,17,0,0,0,0,0,0,0,0,0,0,0,0],"split_type":[0,0,0,0,0,0,0,0,0,0,0,0,0,0,0,0,0,0,0,0,0,0,0,0,0,0,0],"sum_hessian":[1.8536965E3,1.1865173E3,6.671792E2,9.4277115E1,1.0922402E3,5.4947437E2,1.1770481E2,3.6362965E1,5.7914146E1,5.2700256E1,1.0395399E3,6.206403E0,5.43268E2,1.0413309E2,1.3571726E1,1.4286394E0,5.6485508E1,4.080467E1,1.1895589E1,9.669421E2,7.25979E1,5.007719E2,4.249608E1,1.0312259E2,1.0104936E0,9.769179E0,3.8025463E0],"tree_param":{"num_deleted":"0","num_feature":"42","num_nodes":"27","size_leaf_vector":"1"}},{"base_weights":[-4.753953E-2,7.257159E-1,-4.5743376E-1,9.761952E-1,-4.785596E-1,-4.9135116E-1,5.3108227E-2,-1.5229538E-1,1.0731363E0,4.356994E-1,-1.2804799E-1,-2.983774E-1,-5.081863E-1,8.9218485E-1,-4.6414593E-1,2.5021067E-1,-7.509766E-2,-1.2241257E-1,2.7463585E-1,-8.429365E-2,2.9090917E-1,-1.2179827E-1,2.8050163E-1,-1.2779447E-1,-6.2508024E-2,4.227509E-1,-1.17976524E-1,5.8912005E-2,-1.2142338E-1],"categories":[],"categories_nodes":[],"categories_segments":[],"categories_sizes":[],"default_left":[0,0,0,0,0,0,0,0,0,0,0,0,0,0,0,0,0,0,0,0,0,0,0,0,0,0,0,0,0],"id":43,"left_children":[1,3,5,7,9,11,13,15,17,19,-1,21,23,25,27,-1,-1,-1,-1,-1,-1,-1,-1,-1,-1,-1,-1,-1,-1],"loss_changes":[5.503139E2,1.8191962E2,1.9674408E1,5.46756E1,3.4285278E0,3.3053284E0,3.1484306E1,7.1819663E0,1.8763E1,2.777257E0,0E0,2.4095068E1,6.2693787E-1,3.0919619E1,7.9216766E-1,0E0,0E0,0E0,0E0,0E0,0E0,0E0,0E0,0E0,0E0,0E0,0E0,0E0,0E0],"parents":[2147483647,0,0,1,1,2,2,3,3,4,4,5,5,6,6,7,7,8,8,9,9,11,11,12,12,13,13,14,14],"right_children":[2,4,6,8,10,12,14,16,18,20,-1,22,24,26,28,-1,-1,-1,-1,-1,-1,-1,-1,-1,-1,-1,-1,-1,-1],"split_conditions":[5.207781E-1,4.6333545E-1,1.0468521E0,1.6654524E-1,5.1024204E-1,6.139786E-1,7.983069E-1,8.449697E-2,7.559207E-1,5.4166365E-1,-1.2804799E-1,2.4693277E-1,3.4320396E-1,5.071766E-1,3.33696E-1,2.5021067E-1,-7.509766E-2,-1.2241257E-1,2.7463585E-1,-8.429365E-2,2.9090917E-1,-1.2179827E-1,2.8050163E-1,-1.2779447E-1,-6.2508024E-2,4.227509E-1,-1.17976524E-1,5.8912005E-2,-1.2142338E-1],"split_indices":[25,41,15,10,11,25,23,5,17,23,0,10,3,41,7,0,0,0,0,0,0,0,0,0,0,0,0,0,0],"split_type":[0,0,0,0,0,0,0,0,0,0,0,0,0,0,0,0,0,0,0,0,0,0,0,0,0,0,0,0,0],"sum_hessian":[1.7342166E3,6.005408E2,1.1336758E3,4.9729657E2,1.0324418E2,1.0630881E3,7.0587715E1,3.9294834E1,4.5800174E2,3.239055E0,1.0000513E2,8.68048E1,9.762833E2,2.66431E1,4.3944614E1,3.816865E0,3.547797E1,7.034579E0,4.5096716E2,1.8314037E0,1.4076512E0,7.7199455E1,9.605345E0,9.641303E2,1.2153026E1,1.6651966E1,9.991135E0,1.0158846E0,4.2928726E1],"tree_param":{"num_deleted":"0","num_feature":"42","num_nodes":"29","size_leaf_vector":"1"}},{"base_weights":[5.261057E-2,-5.11521E-1,5.588939E-1,-1.2870565E-1,-2.2922251E-2,-4.4835934E-1,8.7845993E-1,3.0170187E-1,-1.08205035E-1,-4.6019214E-1,1.8138902E-1,1.0344477E0,-4.2190865E-1,-7.151593E-2,-1.2674205E-1,-1.2992659E-1,2.807476E-1,2.0218048E-2,-1.2750408E-1],"categories":[],"categories_nodes":[],"categories_segments":[],"categories_sizes":[],"default_left":[0,0,0,0,0,0,0,0,0,0,0,0,0,0,0,0,0,0,0],"id":44,"left_children":[1,3,5,-1,7,9,11,-1,-1,13,-1,15,17,-1,-1,-1,-1,-1,-1],"loss_changes":[5.38173E2,1.4259644E0,3.2002835E2,0E0,4.06531E0,3.665306E0,1.5341577E2,0E0,0E0,1.7938919E0,0E0,9.3289856E1,3.6511297E0,0E0,0E0,0E0,0E0,0E0,0E0],"parents":[2147483647,0,0,1,1,2,2,4,4,5,5,6,6,9,9,11,11,12,12],"right_children":[2,4,6,-1,8,10,12,-1,-1,14,-1,16,18,-1,-1,-1,-1,-1,-1],"split_conditions":[8.686414E-1,8.6446786E-1,-1.650232E-1,-1.2870565E-1,1.6971357E-1,6.3740605E-1,3.1254917E-1,3.0170187E-1,-1.08205035E-1,2.0228243E-1,1.8138902E-1,4.5549637E-1,3.3155835E-1,-7.151593E-2,-1.2674205E-1,-1.2992659E-1,2.807476E-1,2.0218048E-2,-1.2750408E-1],"split_indices":[33,33,26,0,10,8,14,0,0,10,0,8,14,0,0,0,0,0,0],"split_type":[0,0,0,0,0,0,0,0,0,0,0,0,0,0,0,0,0,0,0],"sum_hessian":[1.8822894E3,8.902777E2,9.920117E2,8.842489E2,6.028833E0,2.3883014E2,7.531816E2,1.0211442E0,5.007689E0,2.3704872E2,1.7814126E0,6.7269226E2,8.048934E1,5.1701263E1,1.8534746E2,3.5996223E1,6.3669604E2,1.201405E1,6.8475296E1],"tree_param":{"num_deleted":"0","num_feature":"42","num_nodes":"19","size_leaf_vector":"1"}},{"base_weights":[3.554253E-2,-3.5822183E-1,6.8917614E-1,-4.7658533E-1,1.828263E-1,9.745731E-1,-1.5910774E-1,-5.0400674E-1,-2.689764E-1,1.0986998E0,-3.3738065E-1,-7.3950134E-2,1.1195626E0,-1.3161409E-1,8.393413E-2,-4.6736017E-2,-1.2687467E-1,-9.2832744E-2,2.1181303E-1,-1.2266664E-1,3.6338347E-1,-1.1881845E-1,1.8238988E-2,2.346528E-1,-9.3548596E-2,3.0360934E-1,-5.3097494E-2,1.942763E-1,-1.2324334E-1],"categories":[],"categories_nodes":[],"categories_segments":[],"categories_sizes":[],"default_left":[0,0,0,0,0,0,0,0,0,0,0,0,0,0,0,0,0,0,0,0,0,0,0,0,0,0,0,0,0],"id":45,"left_children":[1,3,5,7,9,11,13,15,17,19,21,23,25,-1,27,-1,-1,-1,-1,-1,-1,-1,-1,-1,-1,-1,-1,-1,-1],"loss_changes":[4.6846484E2,7.283249E1,1.6581201E2,5.1720123E0,9.7860916E1,7.7940765E1,1.5500255E1,8.156433E-1,1.2987177E1,4.2647614E1,7.461919E0,1.9550875E1,5.712213E1,0E0,4.2391598E1,0E0,0E0,0E0,0E0,0E0,0E0,0E0,0E0,0E0,0E0,0E0,0E0,0E0,0E0],"parents":[2147483647,0,0,1,1,2,2,3,3,4,4,5,5,6,6,7,7,8,8,9,9,10,10,11,11,12,12,14,14],"right_children":[2,4,6,8,10,12,14,16,18,20,22,24,26,-1,28,-1,-1,-1,-1,-1,-1,-1,-1,-1,-1,-1,-1,-1,-1],"split_conditions":[3.074506E-1,1.1155611E0,-1.0015695E-1,2.7942646E-1,-1.5496251E-1,4.7204405E-1,3.968091E-1,1.5045434E-2,1.0840269E0,1.2179026E-1,-3.8777712E-1,3.0298558E-1,5.2974397E-1,-1.3161409E-1,5.658478E-1,-4.6736017E-2,-1.2687467E-1,-9.2832744E-2,2.1181303E-1,-1.2266664E-1,3.6338347E-1,-1.1881845E-1,1.8238988E-2,2.346528E-1,-9.3548596E-2,3.0360934E-1,-5.3097494E-2,1.942763E-1,-1.2324334E-1],"split_indices":[12,17,24,12,24,19,16,4,17,16,36,33,33,0,33,0,0,0,0,0,0,0,0,0,0,0,0,0,0],"split_type":[0,0,0,0,0,0,0,0,0,0,0,0,0,0,0,0,0,0,0,0,0,0,0,0,0,0,0,0,0],"sum_hessian":[1.8181866E3,1.1349299E3,6.832567E2,9.313093E2,2.0362067E2,5.111398E2,1.7211691E2,8.213908E2,1.09918526E2,7.335689E1,1.3026378E2,6.2153477E1,4.4898633E2,6.806824E1,1.04048676E2,9.5419235E0,8.118489E2,1.01297226E2,8.621298E0,1.3318426E1,6.003846E1,9.738081E1,3.2882965E1,1.3728503E1,4.8424973E1,4.19214E2,2.977231E1,4.7104378E1,5.6944298E1],"tree_param":{"num_deleted":"0","num_feature":"42","num_nodes":"29","size_leaf_vector":"1"}},{"base_weights":[3.6683355E-2,6.635103E-1,-3.7729684E-1,8.75416E-1,-4.2712232E-1,3.6781886E-1,-4.7589326E-1,1.0433836E0,-6.843749E-2,-5.068165E-1,5.6630605E-1,-3.9331007E-1,8.5267085E-1,-4.9614817E-1,3.7432125E-1,4.4753626E-5,2.8986758E-1,1.6424443E-1,-8.819494E-2,-1.288141E-1,4.7313012E-2,5.2877694E-1,-5.284089E-2,-1.2368628E-1,1.492431E-1,-9.1964334E-2,2.882075E-1,-7.510831E-2,-1.2782012E-1,2.385809E-1,-1.167991E-1],"categories":[],"categories_nodes":[],"categories_segments":[],"categories_sizes":[],"default_left":[0,0,0,0,0,0,0,0,0,0,0,0,0,0,0,0,0,0,0,0,0,0,0,0,0,0,0,0,0,0,0],"id":46,"left_children":[1,3,5,7,9,11,13,15,17,19,21,23,25,27,29,-1,-1,-1,-1,-1,-1,-1,-1,-1,-1,-1,-1,-1,-1,-1,-1],"loss_changes":[4.7309732E2,1.6796118E2,8.084425E1,9.638156E1,9.679972E0,4.7897583E1,1.6893051E1,6.2461914E1,1.935579E1,7.458439E-1,1.1628147E1,5.4018755E0,2.9382751E1,2.654068E0,1.1742437E1,0E0,0E0,0E0,0E0,0E0,0E0,0E0,0E0,0E0,0E0,0E0,0E0,0E0,0E0,0E0,0E0],"parents":[2147483647,0,0,1,1,2,2,3,3,4,4,5,5,6,6,7,7,8,8,9,9,10,10,11,11,12,12,13,13,14,14],"right_children":[2,4,6,8,10,12,14,16,18,20,22,24,26,28,30,-1,-1,-1,-1,-1,-1,-1,-1,-1,-1,-1,-1,-1,-1,-1,-1],"split_conditions":[-1.924488E-1,8.916475E-2,4.4242933E-1,5.364278E-1,3.2248884E-1,3.897976E-1,1.2475432E0,4.0829718E-1,-4.827514E-1,2.8037947E-1,-1.1290382E-1,1.1442852E0,1.0228382E0,4.6746132E-1,5.390124E-1,4.4753626E-5,2.8986758E-1,1.6424443E-1,-8.819494E-2,-1.288141E-1,4.7313012E-2,5.2877694E-1,-5.284089E-2,-1.2368628E-1,1.492431E-1,-9.1964334E-2,2.882075E-1,-7.510831E-2,-1.2782012E-1,2.385809E-1,-1.167991E-1],"split_indices":[24,8,11,11,12,16,25,7,24,10,32,25,25,11,11,0,0,0,0,0,0,0,0,0,0,0,0,0,0,0,0],"split_type":[0,0,0,0,0,0,0,0,0,0,0,0,0,0,0,0,0,0,0,0,0,0,0,0,0,0,0,0,0,0,0],"sum_hessian":[1.821189E3,7.2413666E2,1.0970522E3,6.0649445E2,1.1764218E2,1.2788272E2,9.6916956E2,5.1477924E2,9.1715256E1,1.0935908E2,8.283104E0,4.9836826E1,7.804589E1,9.470247E2,2.2144833E1,5.1648205E1,4.63131E2,2.5457487E1,6.6257774E1,1.08305626E2,1.053454E0,2.193915E0,6.0891886E0,4.566023E1,4.176596E0,1.5360481E1,6.2685413E1,6.946371E1,8.7756104E2,1.303004E1,9.114794E0],"tree_param":{"num_deleted":"0","num_feature":"42","num_nodes":"31","size_leaf_vector":"1"}},{"base_weights":[-7.361068E-3,6.6215014E-1,-4.708494E-1,9.223515E-1,-4.7749048E-1,-5.028334E-1,5.955876E-1,-1.2778473E-1,1.089187E0,-4.9881732E-1,2.0259039E-1,-5.105565E-1,-1.712843E-1,1.0522836E0,-1.1752301E-1,-5.258289E-2,2.7707896E-1,-1.6169813E-2,-1.2648119E-1,-2.671116E-2,-1.2788172E-1,1.5614592E-1,-1.22958034E-1,2.8311473E-1,-6.79019E-2],"categories":[],"categories_nodes":[],"categories_segments":[],"categories_sizes":[],"default_left":[0,0,0,0,0,0,0,0,0,0,0,0,0,0,0,0,0,0,0,0,0,0,0,0,0],"id":47,"left_children":[1,3,5,7,9,11,13,-1,15,17,-1,19,21,23,-1,-1,-1,-1,-1,-1,-1,-1,-1,-1,-1],"loss_changes":[5.598836E2,2.1931247E2,3.6665375E1,1.4434772E2,4.1905346E0,2.5644531E0,