{"learner":{"attributes":{"scikit_learn":"{\"_estimator_type\": \"classifier\"}"},"feature_names":["x1","y1","x2","y2","x3","y3","x4","y4","x5","y5","x6","y6","x7","y7","x8","y8","x9","y9","x10","y10","x11","y11","x12","y12","x13","y13","x14","y14","x15","y15","x16","y16","x17","y17","x18","y18","x19","y19","x20","y20","x21","y21"],"feature_types":["float","float","float","float","float","float","float","float","float","float","float","float","float","float","float","float","float","float","float","float","float","float","float","float","float","float","float","float","float","float","float","float","float","float","float","float","float","float","float","float","float","float"],"gradient_booster":{"model":{"gbtree_model_param":{"num_parallel_tree":"1","num_trees":"1800"},"iteration_indptr":[0,18,36,54,72,90,108,126,144,162,180,198,216,234,252,270,288,306,324,342,360,378,396,414,432,450,468,486,504,522,540,558,576,594,612,630,648,666,684,702,720,738,756,774,792,810,828,846,864,882,900,918,936,954,972,990,1008,1026,1044,1062,1080,1098,1116,1134,1152,1170,1188,1206,1224,1242,1260,1278,1296,1314,1332,1350,1368,1386,1404,1422,1440,1458,1476,1494,1512,1530,1548,1566,1584,1602,1620,1638,1656,1674,1692,1710,1728,1746,1764,1782,1800],"tree_info":[0,1,2,3,4,5,6,7,8,9,10,11,12,13,14,15,16,17,0,1,2,3,4,5,6,7,8,9,10,11,12,13,14,15,16,17,0,1,2,3,4,5,6,7,8,9,10,11,12,13,14,15,16,17,0,1,2,3,4,5,6,7,8,9,10,11,12,13,14,15,16,17,0,1,2,3,4,5,6,7,8,9,10,11,12,13,14,15,16,17,0,1,2,3,4,5,6,7,8,9,10,11,12,13,14,15,16,17,0,1,2,3,4,5,6,7,8,9,10,11,12,13,14,15,16,17,0,1,2,3,4,5,6,7,8,9,10,11,12,13,14,15,16,17,0,1,2,3,4,5,6,7,8,9,10,11,12,13,14,15,16,17,0,1,2,3,4,5,6,7,8,9,10,11,12,13,14,15,16,17,0,1,2,3,4,5,6,7,8,9,10,11,12,13,14,15,16,17,0,1,2,3,4,5,6,7,8,9,10,11,12,13,14,15,16,17,0,1,2,3,4,5,6,7,8,9,10,11,12,13,14,15,16,17,0,1,2,3,4,5,6,7,8,9,10,11,12,13,14,15,16,17,0,1,2,3,4,5,6,7,8,9,10,11,12,13,14,15,16,17,0,1,2,3,4,5,6,7,8,9,10,11,12,13,14,15,16,17,0,1,2,3,4,5,6,7,8,9,10,11,12,13,14,15,16,17,0,1,2,3,4,5,6,7,8,9,10,11,12,13,14,15,16,17,0,1,2,3,4,5,6,7,8,9,10,11,12,13,14,15,16,17,0,1,2,3,4,5,6,7,8,9,10,11,12,13,14,15,16,17,0,1,2,3,4,5,6,7,8,9,10,11,12,13,14,15,16,17,0,1,2,3,4,5,6,7,8,9,10,11,12,13,14,15,16,17,0,1,2,3,4,5,6,7,8,9,10,11,12,13,14,15,16,17,0,1,2,3,4,5,6,7,8,9,10,11,12,13,14,15,16,17,0,1,2,3,4,5,6,7,8,9,10,11,12,13,14,15,16,17,0,1,2,3,4,5,6,7,8,9,10,11,12,13,14,15,16,17,0,1,2,3,4,5,6,7,8,9,10,11,12,13,14,15,16,17,0,1,2,3,4,5,6,7,8,9,10,11,12,13,14,15,16,17,0,1,2,3,4,5,6,7,8,9,10,11,12,13,14,15,16,17,0,1,2,3,4,5,6,7,8,9,10,11,12,13,14,15,16,17,0,1,2,3,4,5,6,7,8,9,10,11,12,13,14,15,16,17,0,1,2,3,4,5,6,7,8,9,10,11,12,13,14,15,16,17,0,1,2,3,4,5,6,7,8,9,10,11,12,13,14,15,16,17,0,1,2,3,4,5,6,7,8,9,10,11,12,13,14,15,16,17,0,1,2,3,4,5,6,7,8,9,10,11,12,13,14,15,16,17,0,1,2,3,4,5,6,7,8,9,10,11,12,13,14,15,16,17,0,1,2,3,4,5,6,7,8,9,10,11,12,13,14,15,16,17,0,1,2,3,4,5,6,7,8,9,10,11,12,13,14,15,16,17,0,1,2,3,4,5,6,7,8,9,10,11,12,13,14,15,16,17,0,1,2,3,4,5,6,7,8,9,10,11,12,13,14,15,16,17,0,1,2,3,4,5,6,7,8,9,10,11,12,13,14,15,16,17,0,1,2,3,4,5,6,7,8,9,10,11,12,13,14,15,16,17,0,1,2,3,4,5,6,7,8,9,10,11,12,13,14,15,16,17,0,1,2,3,4,5,6,7,8,9,10,11,12,13,14,15,16,17,0,1,2,3,4,5,6,7,8,9,10,11,12,13,14,15,16,17,0,1,2,3,4,5,6,7,8,9,10,11,12,13,14,15,16,17,0,1,2,3,4,5,6,7,8,9,10,11,12,13,14,15,16,17,0,1,2,3,4,5,6,7,8,9,10,11,12,13,14,15,16,17,0,1,2,3,4,5,6,7,8,9,10,11,12,13,14,15,16,17,0,1,2,3,4,5,6,7,8,9,10,11,12,13,14,15,16,17,0,1,2,3,4,5,6,7,8,9,10,11,12,13,14,15,16,17,0,1,2,3,4,5,6,7,8,9,10,11,12,13,14,15,16,17,0,1,2,3,4,5,6,7,8,9,10,11,12,13,14,15,16,17,0,1,2,3,4,5,6,7,8,9,10,11,12,13,14,15,16,17,0,1,2,3,4,5,6,7,8,9,10,11,12,13,14,15,16,17,0,1,2,3,4,5,6,7,8,9,10,11,12,13,14,15,16,17,0,1,2,3,4,5,6,7,8,9,10,11,12,13,14,15,16,17,0,1,2,3,4,5,6,7,8,9,10,11,12,13,14,15,16,17,0,1,2,3,4,5,6,7,8,9,10,11,12,13,14,15,16,17,0,1,2,3,4,5,6,7,8,9,10,11,12,13,14,15,16,17,0,1,2,3,4,5,6,7,8,9,10,11,12,13,14,15,16,17,0,1,2,3,4,5,6,7,8,9,10,11,12,13,14,15,16,17,0,1,2,3,4,5,6,7,8,9,10,11,12,13,14,15,16,17,0,1,2,3,4,5,6,7,8,9,10,11,12,13,14,15,16,17,0,1,2,3,4,5,6,7,8,9,10,11,12,13,14,15,16,17,0,1,2,3,4,5,6,7,8,9,10,11,12,13,14,15,16,17,0,1,2,3,4,5,6,7,8,9,10,11,12,13,14,15,16,17,0,1,2,3,4,5,6,7,8,9,10,11,12,13,14,15,16,17,0,1,2,3,4,5,6,7,8,9,10,11,12,13,14,15,16,17,0,1,2,3,4,5,6,7,8,9,10,11,12,13,14,15,16,17,0,1,2,3,4,5,6,7,8,9,10,11,12,13,14,15,16,17,0,1,2,3,4,5,6,7,8,9,10,11,12,13,14,15,16,17,0,1,2,3,4,5,6,7,8,9,10,11,12,13,14,15,16,17,0,1,2,3,4,5,6,7,8,9,10,11,12,13,14,15,16,17,0,1,2,3,4,5,6,7,8,9,10,11,12,13,14,15,16,17,0,1,2,3,4,5,6,7,8,9,10,11,12,13,14,15,16,17,0,1,2,3,4,5,6,7,8,9,10,11,12,13,14,15,16,17,0,1,2,3,4,5,6,7,8,9,10,11,12,13,14,15,16,17,0,1,2,3,4,5,6,7,8,9,10,11,12,13,14,15,16,17,0,1,2,3,4,5,6,7,8,9,10,11,12,13,14,15,16,17,0,1,2,3,4,5,6,7,8,9,10,11,12,13,14,15,16,17,0,1,2,3,4,5,6,7,8,9,10,11,12,13,14,15,16,17,0,1,2,3,4,5,6,7,8,9,10,11,12,13,14,15,16,17,0,1,2,3,4,5,6,7,8,9,10,11,12,13,14,15,16,17,0,1,2,3,4,5,6,7,8,9,10,11,12,13,14,15,16,17,0,1,2,3,4,5,6,7,8,9,10,11,12,13,14,15,16,17,0,1,2,3,4,5,6,7,8,9,10,11,12,13,14,15,16,17,0,1,2,3,4,5,6,7,8,9,10,11,12,13,14,15,16,17,0,1,2,3,4,5,6,7,8,9,10,11,12,13,14,15,16,17,0,1,2,3,4,5,6,7,8,9,10,11,12,13,14,15,16,17,0,1,2,3,4,5,6,7,8,9,10,11,12,13,14,15,16,17,0,1,2,3,4,5,6,7,8,9,10,11,12,13,14,15,16,17,0,1,2,3,4,5,6,7,8,9,10,11,12,13,14,15,16,17,0,1,2,3,4,5,6,7,8,9,10,11,12,13,14,15,16,17,0,1,2,3,4,5,6,7,8,9,10,11,12,13,14,15,16,17,0,1,2,3,4,5,6,7,8,9,10,11,12,13,14,15,16,17,0,1,2,3,4,5,6,7,8,9,10,11,12,13,14,15,16,17,0,1,2,3,4,5,6,7,8,9,10,11,12,13,14,15,16,17,0,1,2,3,4,5,6,7,8,9,10,11,12,13,14,15,16,17,0,1,2,3,4,5,6,7,8,9,10,11,12,13,14,15,16,17],"trees":[{"base_weights":[2.962711E-2,-3.0094606E-1,3.0675259E0,5.4281983E0,-4.2882708E-1,-3.5936263E-1,8.68839E0,-6.509328E-2,2.1219802E0,-5.2798617E-1,9.183327E-1,7.008197E-1,-4.1107297E-1,2.2119598E0,-7.637076E-2,5.989209E-1,-1.23313665E-1,4.5128938E-2,-1.321373E-1,-1.19801596E-1,1.9859694E0,-1.1770429E-1,4.3956953E-1],"categories":[],"categories_nodes":[],"categories_segments":[],"categories_sizes":[],"default_left":[0,0,0,0,0,0,0,0,0,0,0,0,0,0,0,0,0,0,0,0,0,0,0],"id":0,"left_children":[1,3,5,7,9,11,13,15,-1,17,19,-1,21,-1,-1,-1,-1,-1,-1,-1,-1,-1,-1],"loss_changes":[2.1665154E3,1.4278542E3,4.0812124E3,7.1582385E2,2.5484854E2,2.2819544E1,1.1775635E2,1.8267065E1,0E0,8.0319214E-1,1.2891782E3,0E0,1.7835821E1,0E0,0E0,0E0,0E0,0E0,0E0,0E0,0E0,0E0,0E0],"parents":[2147483647,0,0,1,1,2,2,3,3,4,4,5,5,6,6,7,7,9,9,10,10,12,12],"right_children":[2,4,6,8,10,12,14,16,-1,18,20,-1,22,-1,-1,-1,-1,-1,-1,-1,-1,-1,-1],"split_conditions":[2.12005E0,-2.8200462E-1,1.3927897E0,1.0553708E0,1.0909678E0,1.9133654E-1,1.7219871E0,5.929861E-1,2.1219802E0,1.8780766E-1,1.5081625E0,7.008197E-1,1.2445538E0,2.2119598E0,-7.637076E-2,5.989209E-1,-1.23313665E-1,4.5128938E-2,-1.321373E-1,-1.19801596E-1,1.9859694E0,-1.1770429E-1,4.3956953E-1],"split_indices":[11,3,40,40,5,4,20,34,0,37,40,0,40,0,0,0,0,0,0,0,0,0,0],"split_type":[0,0,0,0,0,0,0,0,0,0,0,0,0,0,0,0,0,0,0,0,0,0,0],"sum_hessian":[2.1554321E3,1.944716E3,2.1071605E2,4.1555553E1,1.9031604E3,1.3148766E2,7.922839E1,1.5216049E1,2.6339506E1,1.7732468E3,1.2991357E2,1.2592592E0,1.302284E2,7.78642E1,1.3641975E0,1.574074E0,1.3641975E1,1.154321E0,1.7720925E3,1.091358E2,2.0777777E1,1.275E2,2.728395E0],"tree_param":{"num_deleted":"0","num_feature":"42","num_nodes":"23","size_leaf_vector":"1"}},{"base_weights":[-4.8743084E-2,4.0697436E0,-4.5730284E-1,8.457653E-1,7.764033E0,-4.9258173E-1,2.7406983E0,5.8543687E0,-8.80772E-2,-1.0636364E-1,8.15631E0,2.3350628E-1,-5.2482575E-1,-2.3052798E-1,5.746988E0,1.741206E-1,2.0304878E0,-5.093472E-2,3.8650307E-1,2.1038122E0,3.725165E-2,-7.618672E-2,1.7297431E0,1.2430935E-2,-1.3174187E-1,-1.2005164E-1,2.9819277E-1,1.793662E0,-8.814433E-2],"categories":[],"categories_nodes":[],"categories_segments":[],"categories_sizes":[],"default_left":[0,0,0,0,0,0,0,0,0,0,0,0,0,0,0,0,0,0,0,0,0,0,0,0,0,0,0,0,0],"id":1,"left_children":[1,3,5,7,9,11,13,15,17,-1,19,21,23,25,27,-1,-1,-1,-1,-1,-1,-1,-1,-1,-1,-1,-1,-1,-1],"loss_changes":[3.630377E3,2.312562E3,2.2278754E2,4.9208844E2,2.9458203E2,4.5592133E1,1.9397726E2,1.8768713E2,1.7243452E1,0E0,1.7814648E2,3.0175916E2,2.3148193E0,4.7691813E0,9.622235E1,0E0,0E0,0E0,0E0,0E0,0E0,0E0,0E0,0E0,0E0,0E0,0E0,0E0,0E0],"parents":[2147483647,0,0,1,1,2,2,3,3,4,4,5,5,6,6,7,7,8,8,10,10,11,11,12,12,13,13,14,14],"right_children":[2,4,6,8,10,12,14,16,18,-1,20,22,24,26,28,-1,-1,-1,-1,-1,-1,-1,-1,-1,-1,-1,-1,-1,-1],"split_conditions":[2.6289302E-1,1.4569254E0,2.9969409E0,1.0922388E0,9.752047E-1,2.0793105E-2,1.2022132E0,1.0960828E0,3.1818414E-1,-1.0636364E-1,1.8881888E0,1.6087677E0,-2.8200462E-1,1.4178083E0,6.7864496E-1,1.741206E-1,2.0304878E0,-5.093472E-2,3.8650307E-1,2.1038122E0,3.725165E-2,-7.618672E-2,1.7297431E0,1.2430935E-2,-1.3174187E-1,-1.2005164E-1,2.9819277E-1,1.793662E0,-8.814433E-2],"split_indices":[27,20,35,22,18,35,19,10,2,0,40,20,3,20,15,0,0,0,0,0,0,0,0,0,0,0,0,0,0],"split_type":[0,0,0,0,0,0,0,0,0,0,0,0,0,0,0,0,0,0,0,0,0,0,0,0,0,0,0,0,0],"sum_hessian":[2.1554321E3,1.9371605E2,1.961716E3,1.0409876E2,8.961728E1,1.9411481E3,2.0567902E1,1.5530864E1,8.85679E1,4.0925922E0,8.552469E1,8.227161E1,1.8588765E3,1.0808641E1,9.759259E0,5.1419754E0,1.0388888E1,8.353086E1,5.037037E0,8.2796295E1,2.728395E0,7.702469E1,5.2469134E0,6.8209877E0,1.8520555E3,9.759259E0,1.0493827E0,7.765432E0,1.9938271E0],"tree_param":{"num_deleted":"0","num_feature":"42","num_nodes":"29","size_leaf_vector":"1"}},{"base_weights":[-1.7858718E-1,-5.0723624E-1,1.6433933E0,-5.191324E-1,3.3443785E-1,5.6711135E0,-5.038149E-1,-5.2683866E-1,-1.9378299E-1,1.3369565E0,-1.2665959E-1,-1.2902099E-1,2.2072542E0,-1.030177E-1,-5.1269156E-1,-1.3199002E-1,-9.897361E-2,8.584991E-1,-1.229991E-1,-1.0524653E-1,1.7620482E-1,-1.2932107E-1,-2.3684213E-2],"categories":[],"categories_nodes":[],"categories_segments":[],"categories_sizes":[],"default_left":[0,0,0,0,0,0,0,0,0,0,0,0,0,0,0,0,0,0,0,0,0,0,0],"id":2,"left_children":[1,3,5,7,9,11,13,15,17,-1,-1,-1,-1,19,21,-1,-1,-1,-1,-1,-1,-1,-1],"loss_changes":[1.292088E3,1.847348E1,2.8548386E3,4.417389E0,1.12680466E2,2.2466677E3,7.1572876E-1,4.9438477E-2,4.852304E1,0E0,0E0,0E0,0E0,1.8204774E0,3.5617828E-1,0E0,0E0,0E0,0E0,0E0,0E0,0E0,0E0],"parents":[2147483647,0,0,1,1,2,2,3,3,4,4,5,5,6,6,7,7,8,8,13,13,14,14],"right_children":[2,4,6,8,10,12,14,16,18,-1,-1,-1,-1,20,22,-1,-1,-1,-1,-1,-1,-1,-1],"split_conditions":[1.1583054E0,1.0950572E0,1.414235E0,9.639148E-1,1.2833947E0,2.6284593E-1,1.9269392E0,8.9456797E-1,1.2833947E0,1.3369565E0,-1.2665959E-1,-1.2902099E-1,2.2072542E0,9.584413E-1,2.0320292E0,-1.3199002E-1,-9.897361E-2,8.584991E-1,-1.229991E-1,-1.0524653E-1,1.7620482E-1,-1.2932107E-1,-2.3684213E-2],"split_indices":[37,37,17,37,17,9,17,39,17,0,0,0,0,8,7,0,0,0,0,0,0,0,0],"split_type":[0,0,0,0,0,0,0,0,0,0,0,0,0,0,0,0,0,0,0,0,0,0,0],"sum_hessian":[2.1554321E3,1.8266604E3,3.287716E2,1.8015802E3,2.5080246E1,1.1375308E2,2.1501851E2,1.75929E3,4.2290123E1,2.8333333E0,2.2246914E1,3.872222E1,7.503086E1,4.9320984E0,2.1008641E2,1.7413456E3,1.7944445E1,2.4135802E0,3.987654E1,3.882716E0,1.0493827E0,2.075679E2,2.5185184E0],"tree_param":{"num_deleted":"0","num_feature":"42","num_nodes":"23","size_leaf_vector":"1"}},{"base_weights":[7.692746E-2,1.2074132E0,-3.1662932E-1,3.0058117E0,6.4672865E-3,-5.249169E-1,3.743058E-2,-4.8913047E-1,6.5001106E0,-6.702846E-2,3.9527638E0,-2.8836426E-1,-1.3196829E-1,1.1517265E0,-4.4158506E-1,-1.2667093E-1,1.6117477E-1,2.1688378E0,3.3497583E-2,-1.3000153E-1,9.277329E-2,-8.964144E-2,1.5698473E0,-1.2261581E-1,2.9819277E-1,1.125771E-1,6.9445723E-1,-3.882888E-2,-1.1915982E-1],"categories":[],"categories_nodes":[],"categories_segments":[],"categories_sizes":[],"default_left":[0,0,0,0,0,0,0,0,0,0,0,0,0,0,0,0,0,0,0,0,0,0,0,0,0,0,0,0,0],"id":3,"left_children":[1,3,5,7,9,11,13,15,17,19,21,23,-1,25,27,-1,-1,-1,-1,-1,-1,-1,-1,-1,-1,-1,-1,-1,-1],"loss_changes":[9.5980115E2,1.2031243E3,1.1804051E2,2.727142E3,9.743237E1,5.524597E-1,3.1740033E2,2.5645714E0,1.5443242E3,6.5660034E1,6.3860786E1,4.96788E0,0E0,2.0264494E2,4.0997543E0,0E0,0E0,0E0,0E0,0E0,0E0,0E0,0E0,0E0,0E0,0E0,0E0,0E0,0E0],"parents":[2147483647,0,0,1,1,2,2,3,3,4,4,5,5,6,6,7,7,8,8,9,9,10,10,11,11,13,13,14,14],"right_children":[2,4,6,8,10,12,14,16,18,20,22,24,-1,26,28,-1,-1,-1,-1,-1,-1,-1,-1,-1,-1,-1,-1,-1,-1],"split_conditions":[9.2088294E-1,7.297933E-1,8.432837E-1,6.093821E-1,9.0973215E0,3.0871108E-1,5.184812E-1,5.813965E-1,1.6694553E-1,8.0602884E-1,4.3951002E-1,7.0879215E-1,-1.3196829E-1,2.6882148E-1,-8.7699366E-1,-1.2667093E-1,1.6117477E-1,2.1688378E0,3.3497583E-2,-1.3000153E-1,9.277329E-2,-8.964144E-2,1.5698473E0,-1.2261581E-1,2.9819277E-1,1.125771E-1,6.9445723E-1,-3.882888E-2,-1.1915982E-1],"split_indices":[17,8,33,41,40,9,9,41,40,17,41,31,0,5,32,0,0,0,0,0,0,0,0,0,0,0,0,0,0],"split_type":[0,0,0,0,0,0,0,0,0,0,0,0,0,0,0,0,0,0,0,0,0,0,0,0,0,0,0,0,0],"sum_hessian":[2.1554321E3,5.560679E2,1.5993641E3,2.2204938E2,3.3401852E2,1.0066728E3,5.9269135E2,1.1144444E2,1.10604935E2,3.2887653E2,5.1419754E0,1.3641975E1,9.930308E2,1.7776543E2,4.149259E2,1.1029012E2,1.154321E0,8.2166664E1,2.843827E1,1.6160493E2,1.672716E2,2.0987654E0,3.0432098E0,1.2592592E1,1.0493827E0,1.2508642E2,5.2679012E1,4.5858025E1,3.690679E2],"tree_param":{"num_deleted":"0","num_feature":"42","num_nodes":"29","size_leaf_vector":"1"}},{"base_weights":[3.6582884E-3,3.291661E0,-4.6765637E-1,5.368691E0,-2.0019397E-1,1.947909E0,-5.0013757E-1,7.6707788E0,1.201384E0,1.0937042E0,-3.794142E-1,5.4574466E0,-1.2397421E-1,-5.2251595E-1,3.802482E-1,1.3290642E-1,2.1126342E0,-7.964645E-4,1.8103136E0,8.372093E-1,-6.1064724E-2,1.6500436E-2,-1.2690277E-1,1.8730965E0,1.40625E-1,1.0853428E-2,-1.318631E-1,1.2508223E0,-1.22852765E-1],"categories":[],"categories_nodes":[],"categories_segments":[],"categories_sizes":[],"default_left":[0,0,0,0,0,0,0,0,0,0,0,0,0,0,0,0,0,0,0,0,0,0,0,0,0,0,0,0,0],"id":4,"left_children":[1,3,5,7,9,11,13,15,17,19,21,23,-1,25,27,-1,-1,-1,-1,-1,-1,-1,-1,-1,-1,-1,-1,-1,-1],"loss_changes":[3.3433271E3,1.9627925E3,1.4902512E2,1.618186E3,2.4032238E1,2.1918677E2,3.6897125E1,6.02771E2,4.478223E2,3.898105E1,5.1838665E0,9.982181E1,0E0,5.098938E0,1.9086037E2,0E0,0E0,0E0,0E0,0E0,0E0,0E0,0E0,0E0,0E0,0E0,0E0,0E0,0E0],"parents":[2147483647,0,0,1,1,2,2,3,3,4,4,5,5,6,6,7,7,8,8,9,9,10,10,11,11,13,13,14,14],"right_children":[2,4,6,8,10,12,14,16,18,20,22,24,-1,26,28,-1,-1,-1,-1,-1,-1,-1,-1,-1,-1,-1,-1,-1,-1],"split_conditions":[1.2316487E-1,1.0553708E0,-5.2342725E-1,1.4784113E0,9.1740614E-1,1.0707132E0,2.0320292E0,1.0969504E0,1.106748E0,1.5272491E0,1.3423598E0,1.3208171E0,-1.2397421E-1,3.0573076E-1,1.1116928E0,1.3290642E-1,2.1126342E0,-7.964645E-4,1.8103136E0,8.372093E-1,-6.1064724E-2,1.6500436E-2,-1.2690277E-1,1.8730965E0,1.40625E-1,1.0853428E-2,-1.318631E-1,1.2508223E0,-1.22852765E-1],"split_indices":[35,40,17,12,16,38,7,22,19,38,38,19,0,11,40,0,0,0,0,0,0,0,0,0,0,0,0,0,0],"split_type":[0,0,0,0,0,0,0,0,0,0,0,0,0,0,0,0,0,0,0,0,0,0,0,0,0,0,0,0,0],"sum_hessian":[2.1554321E3,2.6948148E2,1.8859506E3,1.686358E2,1.0084567E2,2.424074E1,1.8617098E3,1.0808642E2,6.054938E1,1.1648148E1,8.9197525E1,9.444445E0,1.4796296E1,1.8159568E3,4.5753086E1,1.0808641E1,9.727778E1,5.131481E1,9.234568E0,3.7777777E0,7.87037E0,2.004321E1,6.915432E1,6.296296E0,3.148148E0,1.5635802E1,1.8003209E3,6.5061727E0,3.9246914E1],"tree_param":{"num_deleted":"0","num_feature":"42","num_nodes":"29","size_leaf_vector":"1"}},{"base_weights":[-1.257221E-1,-4.6322885E-1,1.8043591E0,-5.066269E-1,2.7677277E-1,7.084912E0,-4.8262337E-1,-5.218066E-1,-3.996744E-1,4.988444E0,-1.3085598E-1,-3.6842108E-1,7.8039284E0,1.2174462E0,-5.179748E-1,-1.3061523E-1,4.5128938E-2,3.8191882E-1,-1.3051045E-1,-1.0636364E-1,1.7667613E0,5.4216865E-2,-1.16691016E-1,1.024813E-1,2.1351547E0,-9.782609E-2,9.081325E-1,-3.5087038E-9,-1.317441E-1],"categories":[],"categories_nodes":[],"categories_segments":[],"categories_sizes":[],"default_left":[0,0,0,0,0,0,0,0,0,0,0,0,0,0,0,0,0,0,0,0,0,0,0,0,0,0,0,0,0],"id":5,"left_children":[1,3,5,7,9,11,13,15,17,19,-1,21,23,25,27,-1,-1,-1,-1,-1,-1,-1,-1,-1,-1,-1,-1,-1,-1],"loss_changes":[1.4055691E3,5.9111176E1,3.881999E3,2.6080017E0,3.8857434E2,5.233667E2,1.4155663E1,7.910156E-1,5.2660065E1,1.7132053E2,0E0,6.4803684E-1,4.7923926E2,2.0392082E1,1.031189E0,0E0,0E0,0E0,0E0,0E0,0E0,0E0,0E0,0E0,0E0,0E0,0E0,0E0,0E0],"parents":[2147483647,0,0,1,1,2,2,3,3,4,4,5,5,6,6,7,7,8,8,9,9,11,11,12,12,13,13,14,14],"right_children":[2,4,6,8,10,12,14,16,18,20,-1,22,24,26,28,-1,-1,-1,-1,-1,-1,-1,-1,-1,-1,-1,-1,-1,-1],"split_conditions":[2.4573164E0,2.1323988E0,6.811764E-1,1.1974661E0,6.678603E-1,-2.5361663E-1,9.612014E-1,5.000297E-1,9.258469E-1,-9.8369434E-2,-1.3085598E-1,1.5295901E0,-6.1985654E-1,4.3396592E-1,1.1049409E0,-1.3061523E-1,4.5128938E-2,3.8191882E-1,-1.3051045E-1,-1.0636364E-1,1.7667613E0,5.4216865E-2,-1.16691016E-1,1.024813E-1,2.1351547E0,-9.782609E-2,9.081325E-1,-3.5087038E-9,-1.317441E-1],"split_indices":[17,17,10,17,12,4,12,3,12,4,0,21,34,18,12,0,0,0,0,0,0,0,0,0,0,0,0,0,0],"split_type":[0,0,0,0,0,0,0,0,0,0,0,0,0,0,0,0,0,0,0,0,0,0,0,0,0,0,0,0,0],"sum_hessian":[2.1554321E3,1.8352654E3,3.2016666E2,1.733895E3,1.0137037E2,9.612345E1,2.240432E2,1.5149938E3,2.1890123E2,1.395679E1,8.7413574E1,8.5E0,8.762345E1,3.882716E0,2.2016049E2,1.5138395E3,1.154321E0,1.2382715E1,2.0651851E2,4.0925922E0,9.864197E0,1.0493827E0,7.450617E0,8.080247E0,7.9543205E1,2.8333333E0,1.0493827E0,3.7777777E0,2.163827E2],"tree_param":{"num_deleted":"0","num_feature":"42","num_nodes":"29","size_leaf_vector":"1"}},{"base_weights":[6.1624408E-2,6.591664E0,-1.3114956E-1,-4.458571E-1,8.721561E0,2.9819277E-1,-1.2913983E-1,2.2146792E0,-8.814433E-2],"categories":[],"categories_nodes":[],"categories_segments":[],"categories_sizes":[],"default_left":[0,0,0,0,0,0,0,0,0],"id":6,"left_children":[1,3,-1,5,7,-1,-1,-1,-1],"loss_changes":[8.258402E3,2.66771E3,0E0,5.509921E0,1.7297559E2,0E0,0E0,0E0,0E0],"parents":[2147483647,0,0,1,1,3,3,4,4],"right_children":[2,4,-1,6,8,-1,-1,-1,-1],"split_conditions":[7.462476E-1,3.7305713E-1,-1.3114956E-1,5.414567E-1,9.5339733E-1,2.9819277E-1,-1.2913983E-1,2.2146792E0,-8.814433E-2],"split_indices":[17,11,0,18,19,0,0,0,0],"split_type":[0,0,0,0,0,0,0,0,0],"sum_hessian":[2.1554321E3,1.7671605E2,1.978716E3,4.1240738E1,1.3547531E2,1.0493827E0,4.0191357E1,1.3348148E2,1.9938271E0],"tree_param":{"num_deleted":"0","num_feature":"42","num_nodes":"9","size_leaf_vector":"1"}},{"base_weights":[-6.0800035E-2,-5.197444E-1,1.692418E0,-1.3123117E-1,-2.3884812E-1,6.565921E0,7.131582E-1,5.9016395E-1,-4.1749856E-1,7.901425E0,-4.114286E-1,6.508728E0,4.7207597E-1,-1.2801175E-1,2.9819277E-1,-1.0879121E-1,2.1425958E0,-1.2124353E-1,5.4216865E-2,1.8514527E0,-8.294931E-2,5.0109303E-1,-1.30004175E-2],"categories":[],"categories_nodes":[],"categories_segments":[],"categories_sizes":[],"default_left":[0,0,0,0,0,0,0,0,0,0,0,0,0,0,0,0,0,0,0,0,0,0,0],"id":7,"left_children":[1,3,5,-1,7,9,11,-1,13,15,17,19,21,-1,-1,-1,-1,-1,-1,-1,-1,-1,-1],"loss_changes":[1.7360085E3,2.3626404E0,2.1315376E3,0E0,1.621625E1,6.999939E2,5.192679E2,0E0,5.4122205E0,3.5400244E2,7.041726E-1,9.3595825E1,2.8919443E2,0E0,0E0,0E0,0E0,0E0,0E0,0E0,0E0,0E0,0E0],"parents":[2147483647,0,0,1,1,2,2,4,4,5,5,6,6,8,8,9,9,10,10,11,11,12,12],"right_children":[2,4,6,-1,8,10,12,-1,14,16,18,20,22,-1,-1,-1,-1,-1,-1,-1,-1,-1,-1],"split_conditions":[9.6723914E-1,5.328796E-1,5.6726915E-1,-1.3123117E-1,2.0630497E-1,1.0885922E0,-5.255065E-1,5.9016395E-1,9.1023785E-1,1.600104E0,1.7205837E0,1.1913309E0,-9.8264635E-2,-1.2801175E-1,2.9819277E-1,-1.0879121E-1,2.1425958E0,-1.2124353E-1,5.4216865E-2,1.8514527E0,-8.294931E-2,5.0109303E-1,-1.30004175E-2],"split_indices":[29,35,20,0,16,41,2,0,2,17,9,39,26,0,0,0,0,0,0,0,0,0,0],"split_type":[0,0,0,0,0,0,0,0,0,0,0,0,0,0,0,0,0,0,0,0,0,0,0],"sum_hessian":[2.1554321E3,1.7088148E3,4.4661728E2,1.6770184E3,3.1796295E1,7.377161E1,3.7284567E2,1.2592592E0,3.0537037E1,6.180864E1,1.1962963E1,1.3851851E1,3.589938E2,2.9487654E1,1.0493827E0,4.617284E0,5.7191357E1,1.091358E1,1.0493827E0,1.2172839E1,1.6790123E0,9.07716E1,2.6822223E2],"tree_param":{"num_deleted":"0","num_feature":"42","num_nodes":"23","size_leaf_vector":"1"}},{"base_weights":[8.249221E-2,-2.3074962E-1,2.2664766E0,-3.6437312E-1,1.9457811E0,4.222618E0,2.615032E-1,-4.29399E-1,6.817537E-1,4.3032784E0,5.4095745E-1,-4.8964855E-1,6.0029798E0,1.347982E0,-2.1658385E-1,-1.1700371E-1,6.898921E-2,8.3391607E-1,-3.47424E-2,1.35151E0,-1.1688312E-1,-1.2904719E-1,4.766949E-1,5.4216865E-2,-1.2881538E-1,-1.24496154E-1,1.8103353E0,9.388489E-1,-8.730354E-2,2.4271132E-2,-1.1572027E-1],"categories":[],"categories_nodes":[],"categories_segments":[],"categories_sizes":[],"default_left":[0,0,0,0,0,0,0,0,0,0,0,0,0,0,0,0,0,0,0,0,0,0,0,0,0,0,0,0,0,0,0],"id":8,"left_children":[1,3,5,7,9,11,13,15,17,19,21,23,25,27,29,-1,-1,-1,-1,-1,-1,-1,-1,-1,-1,-1,-1,-1,-1,-1,-1],"loss_changes":[1.4757709E3,5.4947095E2,1.0601389E3,1.21279144E2,3.5964706E2,1.1514255E3,7.025488E1,4.575479E1,2.2801051E2,2.1647748E2,1.01520645E2,8.077698E-1,8.040886E2,1.7004202E2,7.337492E0,0E0,0E0,0E0,0E0,0E0,0E0,0E0,0E0,0E0,0E0,0E0,0E0,0E0,0E0,0E0,0E0],"parents":[2147483647,0,0,1,1,2,2,3,3,4,4,5,5,6,6,7,7,8,8,9,9,10,10,11,11,12,12,13,13,14,14],"right_children":[2,4,6,8,10,12,14,16,18,20,22,24,26,28,30,-1,-1,-1,-1,-1,-1,-1,-1,-1,-1,-1,-1,-1,-1,-1,-1],"split_conditions":[3.0647848E0,4.691153E0,3.786572E-1,2.2083337E0,3.9623648E-1,6.093821E-1,5.091579E-1,2.641405E0,1.9733883E-1,-3.498773E0,4.9197623E-1,-7.2908325E0,6.7864496E-1,-4.4588417E-1,-3.1085284E0,-1.1700371E-1,6.898921E-2,8.3391607E-1,-3.47424E-2,1.35151E0,-1.1688312E-1,-1.2904719E-1,4.766949E-1,5.4216865E-2,-1.2881538E-1,-1.24496154E-1,1.8103353E0,9.388489E-1,-8.730354E-2,2.4271132E-2,-1.1572027E-1],"split_indices":[8,40,7,8,7,41,9,40,5,8,19,30,15,32,40,0,0,0,0,0,0,0,0,0,0,0,0,0,0,0,0],"split_type":[0,0,0,0,0,0,0,0,0,0,0,0,0,0,0,0,0,0,0,0,0,0,0,0,0,0,0,0,0,0,0],"sum_hessian":[2.1554321E3,1.8858456E3,2.6958643E2,1.7775493E3,1.08296295E2,1.3589507E2,1.3369136E2,1.6740802E3,1.0346913E2,3.9666664E1,6.862963E1,3.7462963E1,9.84321E1,4.0296295E1,9.339506E1,1.5875061E3,8.657407E1,2.371605E1,7.975308E1,3.211111E1,7.5555553E0,3.9037037E1,2.9592592E1,1.0493827E0,3.6413578E1,1.5845678E1,8.258642E1,1.6160494E1,2.4135801E1,4.1345676E1,5.204938E1],"tree_param":{"num_deleted":"0","num_feature":"42","num_nodes":"31","size_leaf_vector":"1"}},{"base_weights":[5.5132043E-3,7.4198806E-1,-5.155382E-1,2.501458E0,-3.306995E-1,6.5780714E-2,-5.1943E-1,5.0250494E-1,3.3519225E0,1.5527312E0,-4.1053218E-1,2.7439025E-1,-3.256579E-1,-3.5643566E-1,-5.224775E-1,-1.0854588E-2,1.0089004E0,1.5505182E0,3.7714776E-1,-1.0422344E-1,1.0042219E0,-1.1251593E-1,3.362866E-1,5.4216865E-2,-1.1185469E-1,-1.2612547E-1,5.8532774E-2,-1.0746269E-1,-1.3139781E-1],"categories":[],"categories_nodes":[],"categories_segments":[],"categories_sizes":[],"default_left":[0,0,0,0,0,0,0,0,0,0,0,0,0,0,0,0,0,0,0,0,0,0,0,0,0,0,0,0,0],"id":9,"left_children":[1,3,5,7,9,11,13,15,17,19,21,-1,23,25,27,-1,-1,-1,-1,-1,-1,-1,-1,-1,-1,-1,-1,-1,-1],"loss_changes":[8.2789453E2,1.6879769E3,2.8926392E0,5.74104E2,8.4271545E1,4.109512E0,4.3725586E-1,1.9742477E2,1.2380251E3,1.1246542E2,3.769535E1,0E0,5.9287584E-1,2.4078305E0,1.2884521E-1,0E0,0E0,0E0,0E0,0E0,0E0,0E0,0E0,0E0,0E0,0E0,0E0,0E0,0E0],"parents":[2147483647,0,0,1,1,2,2,3,3,4,4,5,5,6,6,7,7,8,8,9,9,10,10,12,12,13,13,14,14],"right_children":[2,4,6,8,10,12,14,16,18,20,22,-1,24,26,28,-1,-1,-1,-1,-1,-1,-1,-1,-1,-1,-1,-1,-1,-1],"split_conditions":[6.1948633E-1,3.278035E-1,6.4899945E-1,-9.5602745E-1,-2.140041E0,1.8151647E-1,7.283185E-1,4.8670535E0,-2.2422378E-1,4.7894332E-1,3.1013393E0,2.7439025E-1,-2.148906E-1,5.6964654E-1,-7.8197436E0,-1.0854588E-2,1.0089004E0,1.5505182E0,3.7714776E-1,-1.0422344E-1,1.0042219E0,-1.1251593E-1,3.362866E-1,5.4216865E-2,-1.1185469E-1,-1.2612547E-1,5.8532774E-2,-1.0746269E-1,-1.3139781E-1],"split_indices":[31,5,31,8,16,3,31,16,16,19,16,0,2,41,14,0,0,0,0,0,0,0,0,0,0,0,0,0,0],"split_type":[0,0,0,0,0,0,0,0,0,0,0,0,0,0,0,0,0,0,0,0,0,0,0,0,0,0,0,0,0],"sum_hessian":[2.1554321E3,8.9291974E2,1.2625123E3,3.3769135E2,5.552284E2,8.290123E0,1.2542222E3,1.0126543E2,2.3642592E2,2.182716E1,5.3340125E2,1.7839506E0,6.5061727E0,2.5185184E1,1.229037E3,8.85679E1,1.2697531E1,9.192593E1,1.445E2,1.2592592E1,9.234568E0,5.223827E2,1.1018518E1,1.0493827E0,5.45679E0,2.0253086E1,4.9320984E0,4.4493828E1,1.1845432E3],"tree_param":{"num_deleted":"0","num_feature":"42","num_nodes":"29","size_leaf_vector":"1"}},{"base_weights":[2.6381006E-2,1.2681063E0,-4.8905402E-1,-9.724953E-2,4.6667686E0,9.511227E-2,-5.22801E-1,-3.9345625E-1,9.9948823E-1,6.344262E0,1.0350285E0,1.8897471E0,-3.734918E-1,-5.275369E-1,-4.487502E-1,1.9167472E-1,-1.087944E-1,9.752601E-1,2.073474E-2,1.8668952E0,1.8367347E-1,6.9416606E-1,-8.382273E-2,-4.3403864E-2,1.0087312E0,1.164158E-1,-1.14080094E-1,-8.595506E-2,-1.3206801E-1,6.564987E-2,-1.2511483E-1],"categories":[],"categories_nodes":[],"categories_segments":[],"categories_sizes":[],"default_left":[0,0,0,0,0,0,0,0,0,0,0,0,0,0,0,0,0,0,0,0,0,0,0,0,0,0,0,0,0,0,0],"id":10,"left_children":[1,3,5,7,9,11,13,15,17,19,21,23,25,27,29,-1,-1,-1,-1,-1,-1,-1,-1,-1,-1,-1,-1,-1,-1,-1,-1],"loss_changes":[1.3807987E3,2.9370432E3,3.0105377E1,1.4737485E2,1.0984946E3,7.1440994E1,2.6882935E-1,1.7611214E1,2.5629358E2,7.7514014E2,1.4056166E2,7.8515625E1,4.906292E0,5.493164E-4,3.5649757E0,0E0,0E0,0E0,0E0,0E0,0E0,0E0,0E0,0E0,0E0,0E0,0E0,0E0,0E0,0E0,0E0],"parents":[2147483647,0,0,1,1,2,2,3,3,4,4,5,5,6,6,7,7,8,8,9,9,10,10,11,11,12,12,13,13,14,14],"right_children":[2,4,6,8,10,12,14,16,18,20,22,24,26,28,30,-1,-1,-1,-1,-1,-1,-1,-1,-1,-1,-1,-1,-1,-1,-1,-1],"split_conditions":[2.5362092E-1,-7.1864843E-1,2.3734981E-1,1.5124875E-1,5.2771306E-1,8.2067627E-1,8.220761E0,4.1865474E-1,2.1173503E0,1.6058439E0,5.9548944E-1,2.068672E-1,9.1478395E-1,2.7221188E-1,4.2869854E-1,1.9167472E-1,-1.087944E-1,9.752601E-1,2.073474E-2,1.8668952E0,1.8367347E-1,6.9416606E-1,-8.382273E-2,-4.3403864E-2,1.0087312E0,1.164158E-1,-1.14080094E-1,-8.595506E-2,-1.3206801E-1,6.564987E-2,-1.2511483E-1],"split_indices":[16,4,10,3,11,30,16,11,36,34,9,3,30,10,11,0,0,0,0,0,0,0,0,0,0,0,0,0,0,0,0],"split_type":[0,0,0,0,0,0,0,0,0,0,0,0,0,0,0,0,0,0,0,0,0,0,0,0,0,0,0,0,0,0,0],"sum_hessian":[2.1554321E3,6.318333E2,1.5235988E3,4.5144443E2,1.8038889E2,8.311111E1,1.4404877E3,3.5595062E2,9.549383E1,1.2288271E2,5.7506172E1,1.6580246E1,6.653086E1,1.348142E3,9.234567E1,1.1753086E1,3.441975E2,2.2141975E1,7.335185E1,1.02104935E2,2.0777777E1,2.4870369E1,3.2635803E1,8.919753E0,7.660494E0,5.5617285E0,6.0969135E1,7.240741E0,1.3409012E3,5.9814816E0,8.63642E1],"tree_param":{"num_deleted":"0","num_feature":"42","num_nodes":"31","size_leaf_vector":"1"}},{"base_weights":[1.154168E-2,-5.1461893E-1,6.5254393E0,-5.24115E-1,1.5727575E0,-1.2910675E-1,8.835349E0,-5.260706E-1,-3.9882544E-1,-1.09223306E-1,3.745946E0,2.2250872E0,1.7620482E-1,-5.0528403E-2,-1.3164425E-1,1.6304347E-1,-1.2819768E-1,1.3916185E0,-7.637076E-2],"categories":[],"categories_nodes":[],"categories_segments":[],"categories_sizes":[],"default_left":[0,0,0,0,0,0,0,0,0,0,0,0,0,0,0,0,0,0,0],"id":11,"left_children":[1,3,5,7,9,-1,11,13,15,-1,17,-1,-1,-1,-1,-1,-1,-1,-1],"loss_changes":[7.394219E3,4.0392822E1,2.6273174E3,2.772827E-1,4.2209785E1,0E0,5.79209E1,2.140503E-1,4.4889317E0,0E0,3.539212E1,0E0,0E0,0E0,0E0,0E0,0E0,0E0,0E0],"parents":[2147483647,0,0,1,1,2,2,3,3,4,4,6,6,7,7,8,8,10,10],"right_children":[2,4,6,8,10,-1,12,14,16,-1,18,-1,-1,-1,-1,-1,-1,-1,-1],"split_conditions":[1.5662024E0,1.2404653E0,1.3646127E0,1.0356041E0,1.414235E0,-1.2910675E-1,5.000297E-1,3.0573076E-1,8.06517E-1,-1.09223306E-1,1.3842593E0,2.2250872E0,1.7620482E-1,-5.0528403E-2,-1.3164425E-1,1.6304347E-1,-1.2819768E-1,1.3916185E0,-7.637076E-2],"split_indices":[41,41,17,41,17,0,3,11,33,0,9,0,0,0,0,0,0,0,0],"split_type":[0,0,0,0,0,0,0,0,0,0,0,0,0,0,0,0,0,0,0],"sum_hessian":[2.1554321E3,1.9951913E3,1.6024074E2,1.9869011E3,8.290123E0,3.9771603E1,1.2046913E2,1.953216E3,3.3685184E1,4.7222223E0,3.5679011E0,1.1941975E2,1.0493827E0,3.6728394E0,1.9495432E3,2.8333333E0,3.085185E1,2.2037036E0,1.3641975E0],"tree_param":{"num_deleted":"0","num_feature":"42","num_nodes":"19","size_leaf_vector":"1"}},{"base_weights":[2.081626E-2,-3.5217533E-1,1.4798887E0,-5.2539384E-1,-2.1681337E-2,-3.268335E-1,2.9788716E0,-1.3200985E-1,-2.756325E-1,4.8575655E-1,-5.1435435E-1,-4.8095942E-1,7.7016026E-1,4.5336623E0,-1.2815048E-1,1.1842105E-1,-1.2073171E-1,4.3717083E-2,1.1151489E0,-1.319013E-1,-3.169018E-3,-1.2829924E-1,-5.4781467E-2,-1.0965556E-1,7.258065E-1,1.0454276E-1,1.4834781E0,3.2218724E-1,-1.1529341E-1],"categories":[],"categories_nodes":[],"categories_segments":[],"categories_sizes":[],"default_left":[0,0,0,0,0,0,0,0,0,0,0,0,0,0,0,0,0,0,0,0,0,0,0,0,0,0,0,0,0],"id":12,"left_children":[1,3,5,7,9,11,13,-1,15,17,19,21,23,25,27,-1,-1,-1,-1,-1,-1,-1,-1,-1,-1,-1,-1,-1,-1],"loss_changes":[1.1740984E3,9.835213E1,1.1904952E3,5.993042E-1,1.4822725E2,3.4196938E1,1.1607114E3,0E0,2.38898E0,3.6017532E2,1.9929886E0,1.3734512E0,6.581331E1,9.200513E2,3.8847065E1,0E0,0E0,0E0,0E0,0E0,0E0,0E0,0E0,0E0,0E0,0E0,0E0,0E0,0E0],"parents":[2147483647,0,0,1,1,2,2,3,3,4,4,5,5,6,6,8,8,9,9,10,10,11,11,12,12,13,13,14,14],"right_children":[2,4,6,8,10,12,14,-1,16,18,20,22,24,26,28,-1,-1,-1,-1,-1,-1,-1,-1,-1,-1,-1,-1,-1,-1],"split_conditions":[1.922002E0,9.0575606E-1,7.587578E-1,9.021322E-1,1.5125786E0,7.4360836E-1,8.644464E-1,-1.3200985E-1,-4.1226616E0,6.497371E-1,1.8551064E0,7.2798425E-1,4.9426663E-1,4.3035808E-1,8.783148E-1,1.1842105E-1,-1.2073171E-1,4.3717083E-2,1.1151489E0,-1.319013E-1,-3.169018E-3,-1.2829924E-1,-5.4781467E-2,-1.0965556E-1,7.258065E-1,1.0454276E-1,1.4834781E0,3.2218724E-1,-1.1529341E-1],"split_indices":[8,33,41,33,16,41,31,0,4,2,8,41,9,9,31,0,0,0,0,0,0,0,0,0,0,0,0,0,0],"split_type":[0,0,0,0,0,0,0,0,0,0,0,0,0,0,0,0,0,0,0,0,0,0,0,0,0,0,0,0,0],"sum_hessian":[2.1554321E3,1.7172098E3,4.382222E2,1.1263025E3,5.909074E2,1.990679E2,2.3915431E2,1.113395E3,1.2907407E1,2.9109875E2,2.9980862E2,1.7503703E2,2.4030863E1,1.5908641E2,8.00679E1,2.5185184E0,1.0388888E1,2.7095062E2,2.0148148E1,2.920432E2,7.765432E0,1.5499382E2,2.004321E1,1.5845678E1,8.1851845E0,4.071605E1,1.1837037E2,1.4691358E1,6.537654E1],"tree_param":{"num_deleted":"0","num_feature":"42","num_nodes":"29","size_leaf_vector":"1"}},{"base_weights":[5.18861E-2,-3.6039084E-1,2.2713292E0,-4.5873332E-1,1.3173012E0,-2.8854468E-1,6.2023706E0,-5.0021183E-1,-5.4783527E-2,6.491364E0,-1.8455246E-2,-4.491385E-1,2.0918462E0,8.392568E0,1.2631116E0,-1.2740606E-1,9.115138E-2,1.1263571E0,-9.0365484E-2,-1.0834267E-1,2.1112485E0,-9.4674416E-2,2.9455605E-1,-1.2730452E-1,2.6819319E-2,1.7209724E0,-4.3403864E-2,1.6187048E-2,2.134128E0,3.483812E-2,9.837469E-1],"categories":[],"categories_nodes":[],"categories_segments":[],"categories_sizes":[],"default_left":[0,0,0,0,0,0,0,0,0,0,0,0,0,0,0,0,0,0,0,0,0,0,0,0,0,0,0,0,0,0,0],"id":13,"left_children":[1,3,5,7,9,11,13,15,17,19,21,23,25,27,29,-1,-1,-1,-1,-1,-1,-1,-1,-1,-1,-1,-1,-1,-1,-1,-1],"loss_changes":[1.9740082E3,3.0079663E2,3.402638E3,2.8782715E1,6.9820264E2,7.9546814E1,1.431727E3,1.2877899E1,2.271267E2,2.8408112E2,3.548461E1,6.521736E0,1.4420203E2,1.0996094E2,1.2596629E2,0E0,0E0,0E0,0E0,0E0,0E0,0E0,0E0,0E0,0E0,0E0,0E0,0E0,0E0,0E0,0E0],"parents":[2147483647,0,0,1,1,2,2,3,3,4,4,5,5,6,6,7,7,8,8,9,9,10,10,11,11,12,12,13,13,14,14],"right_children":[2,4,6,8,10,12,14,16,18,20,22,24,26,28,30,-1,-1,-1,-1,-1,-1,-1,-1,-1,-1,-1,-1,-1,-1,-1,-1],"split_conditions":[1.294593E0,6.7236795E0,7.1991813E-1,2.7241652E0,4.7067928E-1,7.0405746E-1,4.9517488E-1,1.2074999E0,4.5426294E-1,6.7922986E-1,7.807978E-1,6.728586E-1,4.420243E-1,7.922725E-1,-6.262558E-1,-1.2740606E-1,9.115138E-2,1.1263571E0,-9.0365484E-2,-1.0834267E-1,2.1112485E0,-9.4674416E-2,2.9455605E-1,-1.2730452E-1,2.6819319E-2,1.7209724E0,-4.3403864E-2,1.6187048E-2,2.134128E0,3.483812E-2,9.837469E-1],"split_indices":[32,6,41,8,19,41,19,32,19,41,41,41,27,15,16,0,0,0,0,0,0,0,0,0,0,0,0,0,0,0,0],"split_type":[0,0,0,0,0,0,0,0,0,0,0,0,0,0,0,0,0,0,0,0,0,0,0,0,0,0,0,0,0,0,0],"sum_hessian":[2.1554321E3,1.8184752E3,3.369568E2,1.7184691E3,1.0000617E2,2.0462962E2,1.3232716E2,1.5582284E3,1.6024074E2,1.9728394E1,8.027778E1,1.9245679E2,1.2172839E1,9.119135E1,4.1135803E1,1.541858E3,1.6370369E1,9.234568E0,1.5100616E2,4.5123453E0,1.5216049E1,6.2228394E1,1.8049381E1,1.7377777E2,1.8679012E1,3.2530863E0,8.919753E0,1.574074E0,8.961728E1,2.969753E1,1.14382715E1],"tree_param":{"num_deleted":"0","num_feature":"42","num_nodes":"31","size_leaf_vector":"1"}},{"base_weights":[1.1077952E-2,6.5335727E-1,-4.0798846E-1,2.1987407E0,-4.5979518E-1,4.056502E-1,-4.4494402E-1,-5.113863E-1,8.568351E0,4.736842E-1,-4.6932933E-1,1.2857143E0,-4.4469714E-1,-5.178766E-1,-2.4639273E-1,-1.2882528E-1,4.5128938E-2,-8.0935255E-2,2.176186E0,-1.026971E-1,5.421687E-1,1.7307691E-1,-1.18806265E-1,-1.2652813E-1,1.8E0,-1.2756696E-1,6.50289E-2,-1.3189673E-1,-1.0088864E-1,2.0278792E0,-1.2585993E-1],"categories":[],"categories_nodes":[],"categories_segments":[],"categories_sizes":[],"default_left":[0,0,0,0,0,0,0,0,0,0,0,0,0,0,0,0,0,0,0,0,0,0,0,0,0,0,0,0,0,0,0],"id":14,"left_children":[1,3,5,7,9,11,13,15,17,19,21,23,25,27,29,-1,-1,-1,-1,-1,-1,-1,-1,-1,-1,-1,-1,-1,-1,-1,-1],"loss_changes":[5.806868E2,1.4663855E3,3.94377E1,6.164412E3,4.636635E0,4.3413063E1,1.796399E1,7.736511E-1,1.320669E2,9.154824E0,3.6950073E0,3.044917E2,1.5126195E0,8.003998E-1,7.2924005E2,0E0,0E0,0E0,0E0,0E0,0E0,0E0,0E0,0E0,0E0,0E0,0E0,0E0,0E0,0E0,0E0],"parents":[2147483647,0,0,1,1,2,2,3,3,4,4,5,5,6,6,7,7,8,8,9,9,10,10,11,11,12,12,13,13,14,14],"right_children":[2,4,6,8,10,12,14,16,18,20,22,24,26,28,30,-1,-1,-1,-1,-1,-1,-1,-1,-1,-1,-1,-1,-1,-1,-1,-1],"split_conditions":[4.2141804E-1,5.813965E-1,8.1202745E-1,6.758834E-1,6.093821E-1,6.311363E-1,9.0720963E-1,5.3578955E-1,6.122722E-1,6.7761594E-1,8.708232E-1,6.4178294E-1,6.9088733E-1,8.4957314E-1,6.093821E-1,-1.2882528E-1,4.5128938E-2,-8.0935255E-2,2.176186E0,-1.026971E-1,5.421687E-1,1.7307691E-1,-1.18806265E-1,-1.2652813E-1,1.8E0,-1.2756696E-1,6.50289E-2,-1.3189673E-1,-1.0088864E-1,2.0278792E0,-1.2585993E-1],"split_indices":[7,41,15,33,41,41,33,33,15,29,33,33,13,33,41,0,0,0,0,0,0,0,0,0,0,0,0,0,0,0,0],"split_type":[0,0,0,0,0,0,0,0,0,0,0,0,0,0,0,0,0,0,0,0,0,0,0,0,0,0,0,0,0,0,0],"sum_hessian":[2.1554321E3,8.508395E2,1.3045925E3,3.5584567E2,4.949938E2,5.624691E1,1.2483457E3,2.5027777E2,1.055679E2,4.5123453E0,4.9048148E2,2.7388887E1,2.8858025E1,9.118086E2,3.3653702E2,2.4912344E2,1.154321E0,1.574074E0,1.0399383E2,3.4629629E0,1.0493827E0,1.8888888E0,4.885926E2,2.1722221E1,5.6666665E0,2.665432E1,2.2037036E0,8.370926E2,7.471605E1,9.129629E0,3.274074E2],"tree_param":{"num_deleted":"0","num_feature":"42","num_nodes":"31","size_leaf_vector":"1"}},{"base_weights":[8.38834E-2,1.6961371E0,-4.0012574E-1,7.185847E0,2.532896E-1,-1.1427552E-2,-1.3164817E-1,-4.357035E-1,8.513071E0,-2.8442818E-1,6.5816083E0,2.91189E0,-3.2003003E-1,5.4216865E-2,-1.2368634E-1,7.9780877E-1,2.1514034E0,1.3737065E0,-9.725224E-2,2.042864E0,-1.12500004E-1,-1.00890666E-1,1.5247762E0,1.3598901E0,-1.0190844E-1],"categories":[],"categories_nodes":[],"categories_segments":[],"categories_sizes":[],"default_left":[0,0,0,0,0,0,0,0,0,0,0,0,0,0,0,0,0,0,0,0,0,0,0,0,0],"id":15,"left_children":[1,3,5,7,9,11,-1,13,15,17,19,21,23,-1,-1,-1,-1,-1,-1,-1,-1,-1,-1,-1,-1],"loss_changes":[1.6834408E3,3.943479E3,8.15629E1,1.0519751E3,1.3475729E3,3.693404E2,0E0,7.361257E-1,1.6027832E1,2.2301552E2,3.5037E2,4.1555505E2,1.8904529E2,0E0,0E0,0E0,0E0,0E0,0E0,0E0,0E0,0E0,0E0,0E0,0E0],"parents":[2147483647,0,0,1,1,2,2,3,3,4,4,5,5,7,7,8,8,9,9,10,10,11,11,12,12],"right_children":[2,4,6,8,10,12,-1,14,16,18,20,22,24,-1,-1,-1,-1,-1,-1,-1,-1,-1,-1,-1,-1],"split_conditions":[3.4088147E-1,-6.5786767E-1,6.4899945E-1,-2.022905E-1,2.9745615E0,-9.5602745E-1,-1.3164817E-1,1.0873619E0,4.464001E-1,2.5389177E-1,1.9882469E-1,-2.0447602E-2,3.4554407E-1,5.4216865E-2,-1.2368634E-1,7.9780877E-1,2.1514034E0,1.3737065E0,-9.725224E-2,2.042864E0,-1.12500004E-1,-1.00890666E-1,1.5247762E0,1.3598901E0,-1.0190844E-1],"split_indices":[33,8,31,28,8,8,0,2,11,9,38,30,9,0,0,0,0,0,0,0,0,0,0,0,0],"split_type":[0,0,0,0,0,0,0,0,0,0,0,0,0,0,0,0,0,0,0,0,0,0,0,0,0],"sum_hessian":[2.1554321E3,4.970926E2,1.6583395E3,1.0262962E2,3.9446295E2,4.0737036E2,1.2509691E3,1.5320988E1,8.730864E1,3.644506E2,3.0012344E1,3.809259E1,3.6927777E2,1.0493827E0,1.4271605E1,2.0987654E0,8.520988E1,5.5617285E0,3.588889E2,2.4345678E1,5.6666665E0,1.9098764E1,1.8993826E1,4.617284E0,3.646605E2],"tree_param":{"num_deleted":"0","num_feature":"42","num_nodes":"25","size_leaf_vector":"1"}},{"base_weights":[-3.1121382E-2,6.5382665E-1,-5.234133E-1,4.5566516E0,-1.6448039E-1,-3.7821615E-1,-1.3203774E-1,6.5191746E0,1.4860258E0,-3.4011135E-1,1.7293569E0,2.6292133E-1,-1.286708E-1,1.781825E0,-1.1688312E-1,-7.5702004E-2,6.42602E-1,2.4740347E-1,-9.8712735E-2,-2.6299432E-2,7.0804197E-1,-1.1185469E-1,4.5399112E-1],"categories":[],"categories_nodes":[],"categories_segments":[],"categories_sizes":[],"default_left":[0,0,0,0,0,0,0,0,0,0,0,0,0,0,0,0,0,0,0,0,0,0,0],"id":16,"left_children":[1,3,5,7,9,11,-1,13,15,17,19,21,-1,-1,-1,-1,-1,-1,-1,-1,-1,-1,-1],"loss_changes":[7.2747906E2,2.8821455E3,6.636963E-1,9.328882E2,2.4898492E2,3.9137712E0,0E0,4.0751758E2,1.21595505E2,5.019658E1,1.2885645E2,9.903589E0,0E0,0E0,0E0,0E0,0E0,0E0,0E0,0E0,0E0,0E0,0E0],"parents":[2147483647,0,0,1,1,2,2,3,3,4,4,5,5,7,7,8,8,9,9,10,10,11,11],"right_children":[2,4,6,8,10,12,-1,14,16,18,20,22,-1,-1,-1,-1,-1,-1,-1,-1,-1,-1,-1],"split_conditions":[6.4899945E-1,1.8054575E-1,7.529997E-1,9.613244E-1,1.9802542E0,-3.1721535E-1,-1.3203774E-1,4.0527418E-1,9.160091E-1,1.3130209E-1,4.6896756E-1,4.7848263E-1,-1.286708E-1,1.781825E0,-1.1688312E-1,-7.5702004E-2,6.42602E-1,2.4740347E-1,-9.8712735E-2,-2.6299432E-2,7.0804197E-1,-1.1185469E-1,4.5399112E-1],"split_indices":[31,26,31,18,26,40,0,28,17,34,11,41,0,0,0,0,0,0,0,0,0,0,0],"split_type":[0,0,0,0,0,0,0,0,0,0,0,0,0,0,0,0,0,0,0,0,0,0,0],"sum_hessian":[2.1554321E3,9.0120984E2,1.2542222E3,1.5541357E2,7.4579626E2,4.2185184E1,1.212037E3,9.412962E1,6.128395E1,6.8325305E2,6.254321E1,7.240741E0,3.4944443E1,8.657407E1,7.5555553E0,2.3401234E1,3.7882713E1,2.6339506E1,6.569136E2,2.3820988E1,3.872222E1,5.45679E0,1.7839506E0],"tree_param":{"num_deleted":"0","num_feature":"42","num_nodes":"23","size_leaf_vector":"1"}},{"base_weights":[-2.0455617E-2,1.1882392E0,-3.6742407E-1,-3.116587E-1,2.5228264E0,8.597629E-2,-5.109338E-1,-4.4238785E-1,6.7428046E-1,4.1950245E0,-6.8273604E-2,-4.710625E-1,1.3832445E0,-5.1924205E-1,-2.5714287E-1,-1.2995194E-1,-3.666381E-2,1.0875E0,-1.2615608E-1,4.244186E-1,1.8025455E0,2.5413668E-1,-7.178759E-2,-1.24239616E-1,-3.3002593E-2,8.3561933E-1,-1.06874466E-1,4.5128938E-2,-1.3001125E-1,-1.2014779E-1,8.66718E-2],"categories":[],"categories_nodes":[],"categories_segments":[],"categories_sizes":[],"default_left":[0,0,0,0,0,0,0,0,0,0,0,0,0,0,0,0,0,0,0,0,0,0,0,0,0,0,0,0,0,0,0],"id":17,"left_children":[1,3,5,7,9,11,13,15,17,19,21,23,25,27,29,-1,-1,-1,-1,-1,-1,-1,-1,-1,-1,-1,-1,-1,-1,-1,-1],"loss_changes":[9.047988E2,9.640207E2,1.0911211E2,2.961542E1,1.1040355E3,2.92491E2,2.5514526E0,4.535679E0,1.1930183E2,1.1536858E3,2.425009E1,2.42165E0,4.3273303E2,7.860718E-1,5.8800964E0,0E0,0E0,0E0,0E0,0E0,0E0,0E0,0E0,0E0,0E0,0E0,0E0,0E0,0E0,0E0,0E0],"parents":[2147483647,0,0,1,1,2,2,3,3,4,4,5,5,6,6,7,7,8,8,9,9,10,10,11,11,12,12,13,13,14,14],"right_children":[2,4,6,8,10,12,14,16,18,20,22,24,26,28,30,-1,-1,-1,-1,-1,-1,-1,-1,-1,-1,-1,-1,-1,-1,-1,-1],"split_conditions":[4.7894332E-1,3.0485174E-1,-3.2199536E-2,1.1628066E-1,5.5237204E-1,1.6254447E-1,2.285013E0,9.833904E-2,5.4348326E-1,1.4589685E0,-1.0856417E-1,-3.679956E-3,1.0142783E0,-2.7443178E1,1.4969124E-1,-1.2995194E-1,-3.666381E-2,1.0875E0,-1.2615608E-1,4.244186E-1,1.8025455E0,2.5413668E-1,-7.178759E-2,-1.24239616E-1,-3.3002593E-2,8.3561933E-1,-1.06874466E-1,4.5128938E-2,-1.3001125E-1,-1.2014779E-1,8.66718E-2],"split_indices":[19,5,2,3,9,3,18,3,31,28,18,16,17,8,3,0,0,0,0,0,0,0,0,0,0,0,0,0,0,0,0],"split_type":[0,0,0,0,0,0,0,0,0,0,0,0,0,0,0,0,0,0,0,0,0,0,0,0,0,0,0,0,0,0,0],"sum_hessian":[2.1554321E3,4.801975E2,1.6752345E3,2.2645679E2,2.5374074E2,4.02858E2,1.2723765E3,2.004321E2,2.602469E1,1.5383951E2,9.990123E1,2.8228394E2,1.2057407E2,1.2310309E3,4.1345676E1,1.582469E2,4.2185184E1,5.6666665E0,2.0358025E1,8.5E1,6.883951E1,1.6160494E1,8.374074E1,2.6182098E2,2.0462963E1,5.7506172E1,6.3067898E1,1.154321E0,1.2298765E3,3.032716E1,1.1018518E1],"tree_param":{"num_deleted":"0","num_feature":"42","num_nodes":"31","size_leaf_vector":"1"}},{"base_weights":[-6.8513644E-3,-4.8739654E-1,6.760571E-1,4.1287833E-1,-5.0437415E-1,-5.1246864E-1,1.3438805E0,1.2172452E0,-2.9874313E-1,-5.11731E-1,-2.3774745E-2,-1.3032773E-1,1.4615485E-1,1.3755007E0,-2.0815775E-1,-8.5784234E-2,3.9634088E-1,6.715684E-2,-1.2408303E-1,-1.3004059E-1,-1.0253036E-1,-6.518708E-2,3.9241773E-1,3.4455088E-1,2.5883418E-2,2.0995447E-1,-1.0616359E-1],"categories":[],"categories_nodes":[],"categories_segments":[],"categories_sizes":[],"default_left":[0,0,0,0,0,0,0,0,0,0,0,0,0,0,0,0,0,0,0,0,0,0,0,0,0,0,0],"id":18,"left_children":[1,3,5,7,9,11,13,15,17,19,21,-1,-1,23,25,-1,-1,-1,-1,-1,-1,-1,-1,-1,-1,-1,-1],"loss_changes":[6.769111E2,1.8713593E1,6.769157E2,1.3505709E1,4.1909485E0,3.2850266E0,2.706903E1,6.84778E0,1.5890204E0,7.8967285E-1,7.5730877E0,0E0,0E0,1.6967163E0,3.025954E0,0E0,0E0,0E0,0E0,0E0,0E0,0E0,0E0,0E0,0E0,0E0,0E0],"parents":[2147483647,0,0,1,1,2,2,3,3,4,4,5,5,6,6,7,7,8,8,9,9,10,10,13,13,14,14],"right_children":[2,4,6,8,10,12,14,16,18,20,22,-1,-1,24,26,-1,-1,-1,-1,-1,-1,-1,-1,-1,-1,-1,-1],"split_conditions":[1.2790692E0,3.0573076E-1,8.25119E-1,1.2847718E0,2.3872788E0,5.594297E-1,1.7219871E0,1.0297279E0,9.7092724E-1,9.759697E-1,1.0335841E0,-1.3032773E-1,1.4615485E-1,1.1044049E0,-2.8200462E-1,-8.5784234E-2,3.9634088E-1,6.715684E-2,-1.2408303E-1,-1.3004059E-1,-1.0253036E-1,-6.518708E-2,3.9241773E-1,3.4455088E-1,2.5883418E-2,2.0995447E-1,-1.0616359E-1],"split_indices":[40,11,12,27,19,3,20,33,10,32,40,0,0,4,3,0,0,0,0,0,0,0,0,0,0,0,0],"split_type":[0,0,0,0,0,0,0,0,0,0,0,0,0,0,0,0,0,0,0,0,0,0,0,0,0,0,0],"sum_hessian":[2.0606904E3,1.2097246E3,8.509658E2,2.1959394E1,1.1877651E3,3.0621948E2,5.4474634E2,9.974452E0,1.1984942E1,1.1697935E3,1.7971697E1,3.0429178E2,1.9276962E0,5.3398114E2,1.0765182E1,1.9169091E0,8.057543E0,3.0028443E0,8.982099E0,1.0763602E3,9.3433334E1,1.637309E1,1.5986062E0,5.327655E2,1.2156333E0,1.3502109E0,9.41497E0],"tree_param":{"num_deleted":"0","num_feature":"42","num_nodes":"27","size_leaf_vector":"1"}},{"base_weights":[-5.1089495E-2,1.0734012E0,-4.6824747E-1,1.3386537E0,-2.1131681E-1,-5.12999E-1,9.718301E-1,5.431662E-1,1.4105786E0,-4.4978005E-1,1.403189E0,-1.6349128E-1,-5.178033E-1,1.0660069E-1,1.6877257E0,4.7649154E-1,3.301069E-3,3.428046E-1,5.7517415E-1,1.8397914E-1,-1.1843035E-1,3.1898055E-2,3.804446E-1,-9.8437056E-2,4.8683175E-1,-1.2999065E-1,-8.370786E-3,-1.2141167E-1,2.1454395E-1,4.4430062E-1,2.7114073E-2],"categories":[],"categories_nodes":[],"categories_segments":[],"categories_sizes":[],"default_left":[0,0,0,0,0,0,0,0,0,0,0,0,0,0,0,0,0,0,0,0,0,0,0,0,0,0,0,0,0,0,0],"id":19,"left_children":[1,3,5,7,9,11,13,15,17,19,21,23,25,27,29,-1,-1,-1,-1,-1,-1,-1,-1,-1,-1,-1,-1,-1,-1,-1,-1],"loss_changes":[9.295499E2,1.8301294E2,9.364264E1,2.4671265E1,3.629331E1,2.2701416E0,2.7016068E1,2.7774416E1,1.1108032E1,2.6611996E0,1.6458168E0,1.0719358E1,1.4288635E0,9.740667E0,3.1928482E0,0E0,0E0,0E0,0E0,0E0,0E0,0E0,0E0,0E0,0E0,0E0,0E0,0E0,0E0,0E0,0E0],"parents":[2147483647,0,0,1,1,2,2,3,3,4,4,5,5,6,6,7,7,8,8,9,9,10,10,11,11,12,12,13,13,14,14],"right_children":[2,4,6,8,10,12,14,16,18,20,22,24,26,28,30,-1,-1,-1,-1,-1,-1,-1,-1,-1,-1,-1,-1,-1,-1,-1,-1],"split_conditions":[-6.722349E-2,1.1925222E0,2.9969409E0,1.0399863E0,1.6341666E0,1.9261456E-1,1.4178083E0,8.4130913E-1,2.6289302E-1,6.6609114E-1,5.103832E-1,1.6213712E0,2.2362523E0,1.3208171E0,1.1541709E0,4.7649154E-1,3.301069E-3,3.428046E-1,5.7517415E-1,1.8397914E-1,-1.1843035E-1,3.1898055E-2,3.804446E-1,-9.8437056E-2,4.8683175E-1,-1.2999065E-1,-8.370786E-3,-1.2141167E-1,2.1454395E-1,4.4430062E-1,2.7114073E-2],"split_indices":[35,19,35,10,20,35,20,21,27,40,8,12,35,19,40,0,0,0,0,0,0,0,0,0,0,0,0,0,0,0,0],"split_type":[0,0,0,0,0,0,0,0,0,0,0,0,0,0,0,0,0,0,0,0,0,0,0,0,0,0,0,0,0,0,0],"sum_hessian":[1.97953E3,5.3521954E2,1.4443105E3,4.4359055E2,9.1628975E1,1.4014045E3,4.2905994E1,3.7491207E1,4.0609933E2,8.046558E1,1.116339E1,1.9477314E1,1.3819272E3,1.9947004E1,2.2958992E1,9.77033E0,2.7720877E1,3.9133533E2,1.4764008E1,1.0040038E0,7.946158E1,1.126135E0,1.0037255E1,1.8295073E1,1.1822418E0,1.3757201E3,6.2071586E0,1.1353881E1,8.5931225E0,2.1609337E1,1.3496552E0],"tree_param":{"num_deleted":"0","num_feature":"42","num_nodes":"31","size_leaf_vector":"1"}},{"base_weights":[-1.6951393E-1,-5.081787E-1,6.778592E-1,-5.1833045E-1,-1.0982554E-1,1.20977E0,-4.8819387E-1,-1.2996097E-1,-3.3823243E-1,1.828802E0,-4.7069436E-1,1.3583581E0,-4.8391923E-1,-2.2683056E-1,-5.109434E-1,-1.1965501E-1,1.361614E-1,7.3041016E-1,-8.9041404E-2,5.316458E-2,-1.2579814E-1,7.256967E-3,3.409754E-1,-1.2825008E-1,4.2443916E-2,-1.036318E-1,3.044093E-1,-1.2931807E-1,-7.884813E-2],"categories":[],"categories_nodes":[],"categories_segments":[],"categories_sizes":[],"default_left":[0,0,0,0,0,0,0,0,0,0,0,0,0,0,0,0,0,0,0,0,0,0,0,0,0,0,0,0,0],"id":20,"left_children":[1,3,5,7,9,11,13,-1,15,17,19,21,23,25,27,-1,-1,-1,-1,-1,-1,-1,-1,-1,-1,-1,-1,-1,-1],"loss_changes":[5.417387E2,5.396118E0,3.349725E2,1.8249512E-1,2.5191656E1,9.39035E1,8.925209E-1,0E0,1.9733174E0,1.4561966E1,7.758169E-1,2.4725342E0,6.692157E-1,4.6742144E0,2.8961182E-2,0E0,0E0,0E0,0E0,0E0,0E0,0E0,0E0,0E0,0E0,0E0,0E0,0E0,0E0],"parents":[2147483647,0,0,1,1,2,2,3,3,4,4,5,5,6,6,8,8,9,9,10,10,11,11,12,12,13,13,14,14],"right_children":[2,4,6,8,10,12,14,-1,16,18,20,22,24,26,28,-1,-1,-1,-1,-1,-1,-1,-1,-1,-1,-1,-1,-1,-1],"split_conditions":[1.0950572E0,9.639148E-1,1.414235E0,8.9456797E-1,1.2833947E0,1.5662024E0,2.1567097E0,-1.2996097E-1,4.612391E-1,9.37531E-1,1.782425E0,1.2492815E0,1.1828842E0,1.245185E0,3.8545537E0,-1.1965501E-1,1.361614E-1,7.3041016E-1,-8.9041404E-2,5.316458E-2,-1.2579814E-1,7.256967E-3,3.409754E-1,-1.2825008E-1,4.2443916E-2,-1.036318E-1,3.044093E-1,-1.2931807E-1,-7.884813E-2],"split_indices":[37,37,17,39,17,41,17,0,2,39,17,13,4,19,6,0,0,0,0,0,0,0,0,0,0,0,0,0,0],"split_type":[0,0,0,0,0,0,0,0,0,0,0,0,0,0,0,0,0,0,0,0,0,0,0,0,0,0,0,0,0],"sum_hessian":[1.8855525E3,1.3474323E3,5.381203E2,1.3136536E3,3.3778713E1,3.6952087E2,1.6859941E2,1.3008358E3,1.2817719E1,4.662652E0,2.9116062E1,3.3989932E2,2.9621544E1,1.437859E1,1.5422083E2,1.145425E1,1.3634689E0,2.8833525E0,1.7792997E0,1.0701374E0,2.8045925E1,1.4374486E0,3.3846188E2,2.8565952E1,1.055592E0,1.3356099E1,1.0224907E0,1.477924E2,6.4284096E0],"tree_param":{"num_deleted":"0","num_feature":"42","num_nodes":"29","size_leaf_vector":"1"}},{"base_weights":[7.263407E-2,-4.939661E-1,5.0883925E-1,-5.1589835E-1,-6.877194E-2,8.0999094E-1,-3.1582487E-1,-1.3011761E-1,-4.0670857E-1,5.00926E-1,-1.2560362E-1,-1.2867574E-1,1.0140566E0,7.7721155E-1,-4.058623E-1,2.6951298E-1,-1.2098856E-1,-1.2075896E-1,4.539111E-1,3.3348808E-1,9.437259E-3,2.5799322E-1,-1.04353E-1,6.977313E-3,-1.0952687E-1],"categories":[],"categories_nodes":[],"categories_segments":[],"categories_sizes":[],"default_left":[0,0,0,0,0,0,0,0,0,0,0,0,0,0,0,0,0,0,0,0,0,0,0,0,0],"id":21,"left_children":[1,3,5,7,9,11,13,-1,15,17,-1,-1,19,21,23,-1,-1,-1,-1,-1,-1,-1,-1,-1,-1],"loss_changes":[5.0049948E2,8.179596E0,2.8439258E2,2.0646667E-1,1.1211813E1,2.2714581E2,3.0505268E1,0E0,4.9071765E0,2.6329504E1,0E0,0E0,2.2693231E2,7.6404066E0,3.9855766E0,0E0,0E0,0E0,0E0,0E0,0E0,0E0,0E0,0E0,0E0],"parents":[2147483647,0,0,1,1,2,2,3,3,4,4,5,5,6,6,8,8,9,9,12,12,13,13,14,14],"right_children":[2,4,6,8,10,12,14,-1,16,18,-1,-1,20,22,24,-1,-1,-1,-1,-1,-1,-1,-1,-1,-1],"split_conditions":[8.7517756E-1,8.432837E-1,5.296381E-1,7.9863364E-1,5.168002E-1,6.0615313E-1,9.069124E-1,-1.3011761E-1,3.078618E-1,4.6395913E-1,-1.2560362E-1,-1.2867574E-1,1.7927252E0,1.5720177E0,7.2798425E-1,2.6951298E-1,-1.2098856E-1,-1.2075896E-1,4.539111E-1,3.3348808E-1,9.437259E-3,2.5799322E-1,-1.04353E-1,6.977313E-3,-1.0952687E-1],"split_indices":[33,33,9,33,9,17,17,0,35,41,0,0,8,8,41,0,0,0,0,0,0,0,0,0,0],"split_type":[0,0,0,0,0,0,0,0,0,0,0,0,0,0,0,0,0,0,0,0,0,0,0,0,0],"sum_hessian":[2.0230347E3,8.799319E2,1.1431028E3,8.36567E2,4.3364906E1,8.373399E2,3.0576288E2,7.9933E2,3.723696E1,1.86752E1,2.4689707E1,1.1156867E2,7.257712E2,2.2689146E1,2.8307373E2,1.2007556E0,3.6036205E1,1.1042993E1,7.6322064E0,5.46379E2,1.7939217E2,1.8813248E1,3.8758967E0,1.9596079E1,2.6347766E2],"tree_param":{"num_deleted":"0","num_feature":"42","num_nodes":"25","size_leaf_vector":"1"}},{"base_weights":[-1.2415932E-2,-4.7148347E-1,1.0164787E0,7.490963E-1,-5.1866716E-1,1.240922E0,-3.572292E-1,1.6071755E0,-3.8571602E-1,-1.3039427E-1,4.513978E-2,-5.9631035E-2,1.3474743E0,2.4098156E-1,-3.8905403E-1,4.4377756E-1,-9.05189E-2,8.7308556E-2,-1.2520443E-1,3.6366904E-1,-1.1166776E-1,4.0499118E-1,-1.1057987E-1,3.5167652E-1,-6.1474744E-2,-5.9660235E-3,-1.2080117E-1],"categories":[],"categories_nodes":[],"categories_segments":[],"categories_sizes":[],"default_left":[0,0,0,0,0,0,0,0,0,0,0,0,0,0,0,0,0,0,0,0,0,0,0,0,0,0,0],"id":22,"left_children":[1,3,5,7,9,11,13,15,17,-1,19,21,23,-1,25,-1,-1,-1,-1,-1,-1,-1,-1,-1,-1,-1,-1],"loss_changes":[9.571991E2,8.109094E1,1.9321503E2,5.180306E1,2.2378845E0,7.458624E1,4.099575E0,1.0604973E1,2.1576395E0,0E0,6.0920563E0,2.7500986E1,4.7249878E1,0E0,2.9870892E0,0E0,0E0,0E0,0E0,0E0,0E0,0E0,0E0,0E0,0E0,0E0,0E0],"parents":[2147483647,0,0,1,1,2,2,3,3,4,4,5,5,6,6,7,7,8,8,10,10,11,11,12,12,14,14],"right_children":[2,4,6,8,10,12,14,16,18,-1,20,22,24,-1,26,-1,-1,-1,-1,-1,-1,-1,-1,-1,-1,-1,-1],"split_conditions":[7.117628E-1,3.0573076E-1,1.286825E0,9.097282E-1,5.594297E-1,1.130364E0,1.6468344E0,4.0314135E-1,1.0152731E0,-1.3039427E-1,8.459967E-1,7.1018887E-1,1.6457437E0,2.4098156E-1,1.2790692E0,4.4377756E-1,-9.05189E-2,8.7308556E-2,-1.2520443E-1,3.6366904E-1,-1.1166776E-1,4.0499118E-1,-1.1057987E-1,3.5167652E-1,-6.1474744E-2,-5.9660235E-3,-1.2080117E-1],"split_indices":[3,11,38,40,3,22,13,2,40,0,29,34,12,0,40,0,0,0,0,0,0,0,0,0,0,0,0],"split_type":[0,0,0,0,0,0,0,0,0,0,0,0,0,0,0,0,0,0,0,0,0,0,0,0,0,0,0],"sum_hessian":[2.0245237E3,1.4002903E3,6.242334E2,5.156245E1,1.3487278E3,5.3664954E2,8.758385E1,2.9124184E1,2.2438265E1,1.3418771E3,6.850687E0,4.0670864E1,4.9597867E2,1.3712243E0,8.621262E1,2.6926516E1,2.1976678E0,2.7628303E0,1.9675434E1,1.2656167E0,5.58507E0,6.9471483E0,3.3723717E1,4.7831503E2,1.7663635E1,1.7927853E1,6.8284775E1],"tree_param":{"num_deleted":"0","num_feature":"42","num_nodes":"27","size_leaf_vector":"1"}},{"base_weights":[-1.18763536E-1,-5.0154024E-1,6.5998566E-1,-5.054706E-1,4.678891E-2,1.322537E0,-5.1006955E-1,-5.069093E-1,-1.3619636E-1,2.2378235E-1,-1.1375158E-1,-3.807484E-1,1.379914E0,-1.2968132E-1,1.634654E-1,-1.298239E-1,-1.180133E-1,-1.05927244E-1,1.7423216E-1,-1.2447956E-1,1.5173178E-2,3.5841736E-1,-1.0142978E-1,-8.160575E-2,1.847467E-1],"categories":[],"categories_nodes":[],"categories_segments":[],"categories_sizes":[],"default_left":[0,0,0,0,0,0,0,0,0,0,0,0,0,0,0,0,0,0,0,0,0,0,0,0,0],"id":23,"left_children":[1,3,5,7,9,11,13,15,17,-1,-1,19,21,-1,23,-1,-1,-1,-1,-1,-1,-1,-1,-1,-1],"loss_changes":[5.744962E2,2.808014E0,4.9308984E2,6.124878E-1,4.7110863E0,4.0186707E1,1.4278107E0,3.06427E-1,1.8153841E0,0E0,0E0,7.5481415E-1,3.8287354E1,0E0,1.279694E0,0E0,0E0,0E0,0E0,0E0,0E0,0E0,0E0,0E0,0E0],"parents":[2147483647,0,0,1,1,2,2,3,3,4,4,5,5,6,6,7,7,8,8,11,11,12,12,14,14],"right_children":[2,4,6,8,10,12,14,16,18,-1,-1,20,22,-1,24,-1,-1,-1,-1,-1,-1,-1,-1,-1,-1],"split_conditions":[6.0802317E-1,9.6723914E-1,9.612014E-1,5.692092E-1,6.568739E-1,4.0527418E-1,4.374477E0,5.22282E-1,1.3646127E0,2.2378235E-1,-1.1375158E-1,5.262006E-1,1.7705828E0,-1.2968132E-1,-1.2239781E-1,-1.298239E-1,-1.180133E-1,-1.05927244E-1,1.7423216E-1,-1.2447956E-1,1.5173178E-2,3.5841736E-1,-1.0142978E-1,-8.160575E-2,1.847467E-1],"split_indices":[35,29,12,35,14,28,15,11,17,0,0,30,40,0,34,0,0,0,0,0,0,0,0,0,0],"split_type":[0,0,0,0,0,0,0,0,0,0,0,0,0,0,0,0,0,0,0,0,0,0,0,0,0],"sum_hessian":[1.9251663E3,1.2909733E3,6.34193E2,1.2818632E3,9.110089E0,4.0482687E2,2.2936612E2,1.2765172E3,5.3460283E0,3.0945523E0,6.0155373E0,1.3008967E1,3.918179E2,2.2668283E2,2.6832914E0,9.3157794E2,3.4493924E2,4.339784E0,1.0062438E0,1.0179205E1,2.829762E0,3.805585E2,1.1259397E1,1.6832867E0,1.0000048E0],"tree_param":{"num_deleted":"0","num_feature":"42","num_nodes":"25","size_leaf_vector":"1"}},{"base_weights":[7.772624E-3,1.2403295E0,-1.2881675E-1,-1.2570432E-1,1.3245744E0,-1.033977E-1,1.3325357E0,1.5050538E-1,3.341161E-1],"categories":[],"categories_nodes":[],"categories_segments":[],"categories_sizes":[],"default_left":[0,0,0,0,0,0,0,0,0],"id":24,"left_children":[1,3,-1,-1,5,-1,7,-1,-1],"loss_changes":[1.3542361E3,9.2570984E1,0E0,0E0,8.81604E0,0E0,9.0234375E-1,0E0,0E0],"parents":[2147483647,0,0,1,1,4,4,6,6],"right_children":[2,4,-1,-1,6,-1,8,-1,-1],"split_conditions":[7.462476E-1,-2.8200462E-1,-1.2881675E-1,-1.2570432E-1,7.193845E-1,-1.033977E-1,4.6552277E-1,1.5050538E-1,3.341161E-1],"split_indices":[17,3,0,0,33,0,19,0,0],"split_type":[0,0,0,0,0,0,0,0,0],"sum_hessian":[2.0986545E3,6.248373E2,1.4738173E3,2.8576653E1,5.962606E2,2.4863098E0,5.937743E2,4.001259E0,5.897731E2],"tree_param":{"num_deleted":"0","num_feature":"42","num_nodes":"9","size_leaf_vector":"1"}},{"base_weights":[-3.5551365E-2,-5.0730664E-1,9.12981E-1,-5.152817E-1,-3.2776035E-2,1.2959675E0,-4.7821158E-1,-1.2899129E-1,-2.155782E-1,-3.6015913E-1,4.8827052E-1,-4.8972285E-1,1.6277578E0,3.0316103E-1,-1.3028374E-1,-9.381584E-2,4.453549E-2,-1.24192886E-1,2.6466823E-1,-1.3070312E-1,-4.0163677E-2,5.3286594E-1,1.0127505E-1,-1.105313E-1,4.8812553E-1],"categories":[],"categories_nodes":[],"categories_segments":[],"categories_sizes":[],"default_left":[0,0,0,0,0,0,0,0,0,0,0,0,0,0,0,0,0,0,0,0,0,0,0,0,0],"id":25,"left_children":[1,3,5,7,9,11,13,-1,15,17,-1,19,21,23,-1,-1,-1,-1,-1,-1,-1,-1,-1,-1,-1],"loss_changes":[8.603286E2,4.842163E0,3.4088354E2,1.473999E-1,1.5194838E1,2.9764813E2,4.80612E0,0E0,3.554688E-1,4.398553E0,0E0,7.792301E-1,2.5949695E2,1.0511355E1,0E0,0E0,0E0,0E0,0E0,0E0,0E0,0E0,0E0,0E0,0E0],"parents":[2147483647,0,0,1,1,2,2,3,3,4,4,5,5,6,6,8,8,9,9,11,11,12,12,13,13],"right_children":[2,4,6,8,10,12,14,-1,16,18,-1,20,22,24,-1,-1,-1,-1,-1,-1,-1,-1,-1,-1,-1],"split_conditions":[6.0802317E-1,5.328796E-1,1.2404653E0,7.376106E-1,1.3451045E0,1.7524978E0,1.5662024E0,-1.2899129E-1,2.6873868E-2,3.6573422E0,4.8827052E-1,1.4983616E0,3.742956E-1,2.1567097E0,-1.3028374E-1,-9.381584E-2,4.453549E-2,-1.24192886E-1,2.6466823E-1,-1.3070312E-1,-4.0163677E-2,5.3286594E-1,1.0127505E-1,-1.105313E-1,4.8812553E-1],"split_indices":[35,35,41,37,22,17,41,0,3,12,0,15,36,17,0,0,0,0,0,0,0,0,0,0,0],"split_type":[0,0,0,0,0,0,0,0,0,0,0,0,0,0,0,0,0,0,0,0,0,0,0,0,0],"sum_hessian":[1.9205938E3,1.2829701E3,6.376237E2,1.2616803E3,2.128981E1,5.0003552E2,1.3758817E2,1.2580897E3,3.5906284E0,1.8979534E1,2.3102756E0,7.827652E1,4.21759E2,6.8488936E0,1.3073927E2,2.5879033E0,1.0027249E0,1.7905384E1,1.0741489E0,7.058957E1,7.686944E0,2.9817474E2,1.2358425E2,5.2214293E0,1.6274642E0],"tree_param":{"num_deleted":"0","num_feature":"42","num_nodes":"25","size_leaf_vector":"1"}},{"base_weights":[9.664657E-2,-5.1483464E-1,5.605806E-1,-1.301243E-1,-3.1318867E-1,9.259128E-1,-2.2994867E-1,3.9373922E-1,-1.2534092E-1,-1.3101487E-1,1.2044818E0,1.7688864E0,-4.0650612E-1,-1.24174975E-1,3.4753448E-1,8.791105E-1,6.6339694E-2,2.511103E-2,-1.1134505E-1],"categories":[],"categories_nodes":[],"categories_segments":[],"categories_sizes":[],"default_left":[0,0,0,0,0,0,0,0,0,0,0,0,0,0,0,0,0,0,0],"id":26,"left_children":[1,3,5,-1,7,9,11,-1,-1,-1,13,15,17,-1,-1,-1,-1,-1,-1],"loss_changes":[5.742113E2,8.341217E-1,3.3257202E2,0E0,1.0156893E1,3.1862317E2,1.2936684E2,0E0,0E0,0E0,2.0936188E2,7.729529E1,6.6616745E0,0E0,0E0,0E0,0E0,0E0,0E0],"parents":[2147483647,0,0,1,1,2,2,4,4,5,5,6,6,10,10,11,11,12,12],"right_children":[2,4,6,-1,8,10,12,-1,-1,-1,14,16,18,-1,-1,-1,-1,-1,-1],"split_conditions":[8.557365E-1,8.296494E-1,5.091579E-1,-1.301243E-1,-7.8809184E-1,6.0615313E-1,7.172124E-1,3.9373922E-1,-1.2534092E-1,-1.3101487E-1,4.9450874E-1,-1.8786793E0,7.459532E-1,-1.24174975E-1,3.4753448E-1,8.791105E-1,6.6339694E-2,2.511103E-2,-1.1134505E-1],"split_indices":[33,33,9,0,6,17,41,0,0,0,41,8,41,0,0,0,0,0,0],"split_type":[0,0,0,0,0,0,0,0,0,0,0,0,0,0,0,0,0,0,0],"sum_hessian":[2.0220847E3,8.7227985E2,1.1498049E3,8.469156E2,2.536425E1,7.862699E2,3.63535E2,1.6308347E0,2.3733416E1,1.2657202E2,6.596979E2,2.8772963E1,3.3476205E2,6.474636E1,5.949515E2,1.2687472E1,1.6085491E1,2.3729235E1,3.110328E2],"tree_param":{"num_deleted":"0","num_feature":"42","num_nodes":"19","size_leaf_vector":"1"}},{"base_weights":[4.6635203E-2,5.395453E-1,-5.077453E-1,1.1380204E0,-3.4558907E-1,-2.9751745E-1,-5.1187897E-1,2.3672018E0,8.923243E-1,5.728066E-1,-4.5185825E-1,-1.2183753E-1,2.9000816E-1,-3.9374328E-1,-1.2902093E-1,8.682883E-2,7.995792E-1,-9.4877034E-2,2.6586688E-1,5.5196905E-1,-2.6365336E-2,1.3456152E-1,-1.2101199E-1,3.85442E-1,-1.01339705E-1,2.4921604E-1,-1.1937476E-1],"categories":[],"categories_nodes":[],"categories_segments":[],"categories_sizes":[],"default_left":[0,0,0,0,0,0,0,0,0,0,0,0,0,0,0,0,0,0,0,0,0,0,0,0,0,0,0],"id":27,"left_children":[1,3,5,7,9,11,13,15,17,19,21,-1,23,25,-1,-1,-1,-1,-1,-1,-1,-1,-1,-1,-1,-1,-1],"loss_changes":[5.335556E2,5.4788916E2,6.4634705E-1,1.8417926E2,4.1023834E1,2.384234E0,2.4378967E-1,1.7038165E2,1.1265259E2,4.8763046E1,1.2209877E1,0E0,5.4452825E0,4.569709E0,0E0,0E0,0E0,0E0,0E0,0E0,0E0,0E0,0E0,0E0,0E0,0E0,0E0],"parents":[2147483647,0,0,1,1,2,2,3,3,4,4,5,5,6,6,7,7,8,8,9,9,10,10,12,12,13,13],"right_children":[2,4,6,8,10,12,14,16,18,20,22,-1,24,26,-1,-1,-1,-1,-1,-1,-1,-1,-1,-1,-1,-1,-1],"split_conditions":[6.4899945E-1,1.5291077E-1,7.283185E-1,9.104344E-1,4.9599105E-1,5.6964654E-1,-7.864185E0,3.5674116E-1,4.5812607E-1,-5.825174E-1,-3.3905847E0,-1.2183753E-1,5.351679E-1,5.7612505E0,-1.2902093E-1,8.682883E-2,7.995792E-1,-9.4877034E-2,2.6586688E-1,5.5196905E-1,-2.6365336E-2,1.3456152E-1,-1.2101199E-1,3.85442E-1,-1.01339705E-1,2.4921604E-1,-1.1937476E-1],"split_indices":[31,3,31,17,32,41,16,9,19,16,16,0,7,32,0,0,0,0,0,0,0,0,0,0,0,0,0],"split_type":[0,0,0,0,0,0,0,0,0,0,0,0,0,0,0,0,0,0,0,0,0,0,0,0,0,0,0],"sum_hessian":[1.950556E3,1.0325359E3,9.1802014E2,6.158494E2,4.166864E2,1.9109991E1,8.9891016E2,1.0115436E2,5.1469507E2,4.2759724E1,3.7392667E2,1.4572154E1,4.537837E0,3.4147747E1,8.6476245E2,2.9901545E1,7.1252815E1,6.090068E1,4.537944E2,1.1875891E1,3.0883833E1,1.1279076E1,3.626476E2,1.1858811E0,3.3519561E0,1.3205446E0,3.28272E1],"tree_param":{"num_deleted":"0","num_feature":"42","num_nodes":"27","size_leaf_vector":"1"}},{"base_weights":[3.7256267E-2,6.5751547E-1,-5.089016E-1,-3.5344735E-1,1.2888235E0,-7.124999E-2,-5.115488E-1,5.854825E-1,-4.356574E-1,1.5708606E0,-6.8406835E-2,2.9554233E-1,-1.103614E-1,-5.178136E-1,-4.1862068E-1,6.202811E-1,-8.471335E-3,-1.2638529E-1,-2.2907019E-2,-9.1655396E-2,4.2460552E-1,1.1703521E-1,-1.2375036E-1,-5.3904463E-2,-1.2969875E-1,8.9930974E-2,-1.2119651E-1],"categories":[],"categories_nodes":[],"categories_segments":[],"categories_sizes":[],"default_left":[0,0,0,0,0,0,0,0,0,0,0,0,0,0,0,0,0,0,0,0,0,0,0,0,0,0,0],"id":28,"left_children":[1,3,5,7,9,11,13,15,17,19,21,-1,-1,23,25,-1,-1,-1,-1,-1,-1,-1,-1,-1,-1,-1,-1],"loss_changes":[6.806332E2,6.00869E2,1.2013855E0,2.8230057E1,2.2186853E2,4.0416813E0,4.0145874E-1,3.4842552E1,7.979286E0,1.1917908E2,2.32653E1,0E0,0E0,1.8191528E-1,3.8970766E0,0E0,0E0,0E0,0E0,0E0,0E0,0E0,0E0,0E0,0E0,0E0,0E0],"parents":[2147483647,0,0,1,1,2,2,3,3,4,4,5,5,6,6,7,7,8,8,9,9,10,10,13,13,14,14],"right_children":[2,4,6,8,10,12,14,16,18,20,22,-1,-1,24,26,-1,-1,-1,-1,-1,-1,-1,-1,-1,-1,-1,-1],"split_conditions":[2.6952837E-2,1.5124875E-1,5.021913E-2,4.3348333E-1,1.952814E0,6.568739E-1,8.220761E0,1.1777965E0,1.3611813E-1,-1.10107176E-1,-5.4469365E-1,2.9554233E-1,-1.103614E-1,-1.1620303E-1,4.2869854E-1,6.202811E-1,-8.471335E-3,-1.2638529E-1,-2.2907019E-2,-9.1655396E-2,4.2460552E-1,1.1703521E-1,-1.2375036E-1,-5.3904463E-2,-1.2969875E-1,8.9930974E-2,-1.2119651E-1],"split_indices":[2,3,2,11,40,14,16,30,3,8,16,0,0,14,11,0,0,0,0,0,0,0,0,0,0,0,0],"split_type":[0,0,0,0,0,0,0,0,0,0,0,0,0,0,0,0,0,0,0,0,0,0,0,0,0,0,0],"sum_hessian":[2.0072054E3,9.397494E2,1.067456E3,3.6141977E2,5.783296E2,6.585645E0,1.0608705E3,2.8604368E1,3.328154E2,4.7869727E2,9.963235E1,1.0014708E0,5.584174E0,9.8958453E2,7.128592E1,6.304098E0,2.230027E1,2.762337E2,5.6581688E1,2.9454245E1,4.49243E2,4.4085983E1,5.554636E1,3.9176607E0,9.856669E2,5.2374763E0,6.604844E1],"tree_param":{"num_deleted":"0","num_feature":"42","num_nodes":"27","size_leaf_vector":"1"}},{"base_weights":[-2.7634848E-2,-5.14604E-1,1.2235118E0,-5.172475E-1,-3.400336E-1,-1.2601185E-1,1.3230561E0,-1.291575E-1,-1.2948124E-1,7.110221E-1,-1.24186724E-1,1.3269176E0,-6.982115E-2,-8.493309E-2,5.876861E-2,4.1662195E-1,-8.078878E-2,4.6462527E-1,3.2927996E-1],"categories":[],"categories_nodes":[],"categories_segments":[],"categories_sizes":[],"default_left":[0,0,0,0,0,0,0,0,0,0,0,0,0,0,0,0,0,0,0],"id":29,"left_children":[1,3,5,7,9,-1,11,13,-1,15,-1,17,-1,-1,-1,-1,-1,-1,-1],"loss_changes":[1.2526698E3,5.071106E-1,9.972815E1,3.1588745E-1,4.4703064E0,0E0,3.7423706E0,3.7662804E-1,0E0,4.1496816E0,0E0,3.8433838E-1,0E0,0E0,0E0,0E0,0E0,0E0,0E0],"parents":[2147483647,0,0,1,1,2,2,3,3,4,4,6,6,7,7,9,9,11,11],"right_children":[2,4,6,8,10,-1,12,14,-1,16,-1,18,-1,-1,-1,-1,-1,-1,-1],"split_conditions":[1.2404653E0,1.0356041E0,1.3646127E0,3.0573076E-1,8.06517E-1,-1.2601185E-1,5.594297E-1,3.7451458E-1,-1.2948124E-1,1.9777668E0,-1.24186724E-1,1.4014066E0,-6.982115E-2,-8.493309E-2,5.876861E-2,4.1662195E-1,-8.078878E-2,4.6462527E-1,3.2927996E-1],"split_indices":[41,41,17,11,33,0,3,39,0,9,0,39,0,0,0,0,0,0,0],"split_type":[0,0,0,0,0,0,0,0,0,0,0,0,0,0,0,0,0,0,0],"sum_hessian":[2.0539849E3,1.4789423E3,5.750426E2,1.4549468E3,2.3995438E1,3.1108088E1,5.439345E2,2.8692703E0,1.4520775E3,2.6545606E0,2.1340878E1,5.427983E2,1.1362125E0,1.8607635E0,1.0085068E0,1.0619872E0,1.5925733E0,6.408601E0,5.363897E2],"tree_param":{"num_deleted":"0","num_feature":"42","num_nodes":"19","size_leaf_vector":"1"}},{"base_weights":[5.692729E-2,-4.872891E-1,6.440293E-1,-5.140445E-1,-1.07511856E-1,1.1803987E0,-4.8635092E-1,-1.3028142E-1,-4.1748115E-1,8.674966E-1,-3.2082933E-1,-2.3458877E-1,1.5242089E0,-8.237967E-2,-1.2871613E-1,-2.6875377E-2,-1.2418633E-1,-2.956796E-2,6.0423946E-1,3.6980943E-3,-1.15067735E-1,3.9794958E-1,-9.637958E-2,-7.235191E-2,4.7534603E-1,-1.0921849E-1,2.7627566E-1],"categories":[],"categories_nodes":[],"categories_segments":[],"categories_sizes":[],"default_left":[0,0,0,0,0,0,0,0,0,0,0,0,0,0,0,0,0,0,0,0,0,0,0,0,0,0,0],"id":30,"left_children":[1,3,5,7,9,11,13,-1,15,17,19,21,23,25,-1,-1,-1,-1,-1,-1,-1,-1,-1,-1,-1,-1,-1],"loss_changes":[6.293207E2,1.0331528E1,5.750118E2,4.3521118E-1,1.4533709E1,3.1309296E2,3.477707E0,0E0,1.6727209E0,1.9491005E1,2.672813E0,3.549238E1,3.544198E2,9.465435E0,0E0,0E0,0E0,0E0,0E0,0E0,0E0,0E0,0E0,0E0,0E0,0E0,0E0],"parents":[2147483647,0,0,1,1,2,2,3,3,4,4,5,5,6,6,8,8,9,9,10,10,11,11,12,12,13,13],"right_children":[2,4,6,8,10,12,14,-1,16,18,20,22,24,26,-1,-1,-1,-1,-1,-1,-1,-1,-1,-1,-1,-1,-1],"split_conditions":[7.4360836E-1,7.1991813E-1,8.817926E-1,6.845457E-1,-3.3120346E0,4.5450965E-1,8.990501E-1,-1.3028142E-1,4.6610162E-1,5.654491E-1,8.1844395E-1,6.662787E-2,8.932441E-1,8.861761E-1,-1.2871613E-1,-2.6875377E-2,-1.2418633E-1,-2.956796E-2,6.0423946E-1,3.6980943E-3,-1.15067735E-1,3.9794958E-1,-9.637958E-2,-7.235191E-2,4.7534603E-1,-1.0921849E-1,2.7627566E-1],"split_indices":[41,41,31,41,8,27,31,0,27,9,31,3,17,17,0,0,0,0,0,0,0,0,0,0,0,0,0],"split_type":[0,0,0,0,0,0,0,0,0,0,0,0,0,0,0,0,0,0,0,0,0,0,0,0,0,0,0],"sum_hessian":[1.9676576E3,1.0212117E3,9.464459E2,9.5367163E2,6.754003E1,6.418443E2,3.0460162E2,8.844192E2,6.925247E1,1.15736685E1,5.5966362E1,1.2552995E2,5.1631433E2,2.0338692E1,2.8426294E2,1.4582129E1,5.467034E1,7.638022E0,3.9356463E0,1.6689753E1,3.927661E1,8.853065E0,1.1667689E2,8.893075E1,4.2738358E2,1.614969E1,4.189001E0],"tree_param":{"num_deleted":"0","num_feature":"42","num_nodes":"27","size_leaf_vector":"1"}},{"base_weights":[3.5780802E-2,7.6465666E-1,-3.6111435E-1,-1.3027507E-1,1.4510623E0,-4.780922E-1,2.4511534E-1,-4.8324126E-1,1.6105894E0,-5.0381064E-1,-6.730517E-2,-3.4369192E-1,1.1233841E0,-1.271604E-1,5.1248677E-2,5.6626344E-1,3.5685173E-1,-1.2755501E-1,-4.9442615E-2,-1.1623656E-1,1.5389498E-1,-1.19366E-1,4.758378E-2,-2.1429097E-2,3.699643E-1],"categories":[],"categories_nodes":[],"categories_segments":[],"categories_sizes":[],"default_left":[0,0,0,0,0,0,0,0,0,0,0,0,0,0,0,0,0,0,0,0,0,0,0,0,0],"id":31,"left_children":[1,3,5,-1,7,9,11,13,15,17,19,21,23,-1,-1,-1,-1,-1,-1,-1,-1,-1,-1,-1,-1],"loss_changes":[5.911673E2,6.365803E2,9.394798E1,0E0,1.457945E2,1.1687286E1,1.1140201E2,7.436476E-1,4.8843384E1,1.9468079E0,1.8349922E1,9.326543E0,3.7363754E1,0E0,0E0,0E0,0E0,0E0,0E0,0E0,0E0,0E0,0E0,0E0,0E0],"parents":[2147483647,0,0,1,1,2,2,4,4,5,5,6,6,7,7,8,8,9,9,10,10,11,11,12,12],"right_children":[2,4,6,-1,8,10,12,14,16,18,20,22,24,-1,-1,-1,-1,-1,-1,-1,-1,-1,-1,-1,-1],"split_conditions":[4.796805E-1,6.481945E-1,1.294593E0,-1.3027507E-1,2.0446092E-1,6.7236795E0,7.495332E-1,5.7291203E0,1.7075505E0,1.1249746E0,4.190836E-1,-1.282405E-1,1.0900128E-1,-1.271604E-1,5.1248677E-2,5.6626344E-1,3.5685173E-1,-1.2755501E-1,-4.9442615E-2,-1.1623656E-1,1.5389498E-1,-1.19366E-1,4.758378E-2,-2.1429097E-2,3.699643E-1],"split_indices":[19,41,32,0,5,6,41,14,40,32,7,16,3,0,0,0,0,0,0,0,0,0,0,0,0],"split_type":[0,0,0,0,0,0,0,0,0,0,0,0,0,0,0,0,0,0,0,0,0,0,0,0,0],"sum_hessian":[2.0415756E3,7.194391E2,1.3221365E3,2.5048259E2,4.689565E2,1.1084598E3,2.1367656E2,3.5574776E1,4.3338174E2,1.0429374E3,6.552244E1,1.282824E2,8.5394165E1,3.456023E1,1.0145458E0,9.228957E1,3.4109216E2,1.02088983E3,2.204761E1,4.1611427E1,2.3911015E1,1.0266984E2,2.561255E1,1.9616762E1,6.5777405E1],"tree_param":{"num_deleted":"0","num_feature":"42","num_nodes":"25","size_leaf_vector":"1"}},{"base_weights":[-1.6981496E-2,-5.022414E-1,2.8912878E-1,-1.824012E-1,-5.1013416E-1,1.3610264E0,-4.5758194E-1,7.820316E-1,-1.24077916E-1,-5.168454E-1,-3.9105746E-1,1.3926136E0,9.4453406E-1,1.4094195E-1,-4.751506E-1,2.8690356E-1,-7.06976E-2,-1.2989435E-1,-9.4512016E-2,2.590293E-1,-1.2211632E-1,3.3966088E-1,4.216632E-1,-1.1255224E-1,3.395145E-1,-1.0365285E-1,5.4154384E-1,-1.02350466E-1,-1.2612627E-1],"categories":[],"categories_nodes":[],"categories_segments":[],"categories_sizes":[],"default_left":[0,0,0,0,0,0,0,0,0,0,0,0,0,0,0,0,0,0,0,0,0,0,0,0,0,0,0,0,0],"id":32,"left_children":[1,3,5,7,9,11,13,15,-1,17,19,21,23,25,27,-1,-1,-1,-1,-1,-1,-1,-1,-1,-1,-1,-1,-1,-1],"loss_changes":[3.0341788E2,1.9014893E0,1.00316223E3,6.619985E0,4.136505E-1,5.4538574E0,7.837845E0,2.4433775E0,0E0,7.896423E-2,6.7922835E0,2.4646606E0,2.3324482E1,2.5476492E1,1.1795197E0,0E0,0E0,0E0,0E0,0E0,0E0,0E0,0E0,0E0,0E0,0E0,0E0,0E0,0E0],"parents":[2147483647,0,0,1,1,2,2,3,3,4,4,5,5,6,6,7,7,9,9,10,10,11,11,12,12,13,13,14,14],"right_children":[2,4,6,8,10,12,14,16,-1,18,20,22,24,26,28,-1,-1,-1,-1,-1,-1,-1,-1,-1,-1,-1,-1,-1,-1],"split_conditions":[7.8981674E-1,6.324797E-1,5.6964654E-1,-5.327226E-2,7.193845E-1,4.7848263E-1,6.406072E-1,1.8554695E0,-1.24077916E-1,6.5563315E-1,5.99959E-1,4.2141804E-1,4.5940703E-1,9.2863363E-1,4.4743046E-1,2.8690356E-1,-7.06976E-2,-1.2989435E-1,-9.4512016E-2,2.590293E-1,-1.2211632E-1,3.3966088E-1,4.216632E-1,-1.1255224E-1,3.395145E-1,-1.0365285E-1,5.4154384E-1,-1.02350466E-1,-1.2612627E-1],"split_indices":[33,13,41,32,33,41,41,6,0,41,29,7,37,33,8,0,0,0,0,0,0,0,0,0,0,0,0,0,0],"split_type":[0,0,0,0,0,0,0,0,0,0,0,0,0,0,0,0,0,0,0,0,0,0,0,0,0,0,0,0,0],"sum_hessian":[2.0406486E3,7.8909644E2,1.2515521E3,1.9584461E1,7.6951196E2,5.135427E2,7.380094E2,4.442974E0,1.5141486E1,7.252935E2,4.4218437E1,4.7516223E2,3.8380474E1,2.084501E1,7.1716437E2,3.249559E0,1.1934152E0,7.0860254E2,1.6690962E1,2.209466E0,4.2008972E1,4.3099084E2,4.417137E1,8.756762E0,2.9623713E1,1.6981888E1,3.8631213E0,2.259731E2,4.9119128E2],"tree_param":{"num_deleted":"0","num_feature":"42","num_nodes":"29","size_leaf_vector":"1"}},{"base_weights":[5.295504E-2,7.0785314E-1,-4.144156E-1,1.0268054E0,-1.295324E-1,-1.0041911E-1,-5.1747036E-1,1.3165253E0,5.5506665E-1,9.0911406E-1,-3.6516625E-1,-2.9204518E-1,-1.2963575E-1,3.5528505E-1,-1.2734914E-1,-7.974827E-2,3.6407757E-1,-1.2440079E-1,3.454997E-1,-1.15529194E-1,5.211401E-1,-1.0726719E-1,5.9287168E-2],"categories":[],"categories_nodes":[],"categories_segments":[],"categories_sizes":[],"default_left":[0,0,0,0,0,0,0,0,0,0,0,0,0,0,0,0,0,0,0,0,0,0,0],"id":33,"left_children":[1,3,5,7,-1,9,11,13,15,17,19,21,-1,-1,-1,-1,-1,-1,-1,-1,-1,-1,-1],"loss_changes":[6.371512E2,3.3950656E2,3.9257996E1,9.333307E1,0E0,8.089424E1,6.965637E-2,8.203143E1,2.0810696E2,4.2537254E1,5.7848442E1,5.8175665E-1,0E0,0E0,0E0,0E0,0E0,0E0,0E0,0E0,0E0,0E0,0E0],"parents":[2147483647,0,0,1,1,2,2,3,3,5,5,6,6,7,7,8,8,9,9,10,10,11,11],"right_children":[2,4,6,8,-1,10,12,14,16,18,20,22,-1,-1,-1,-1,-1,-1,-1,-1,-1,-1,-1],"split_conditions":[3.6660782E-1,1.0909678E0,6.4899945E-1,-3.4449035E-1,-1.295324E-1,-5.6680155E-1,6.7708784E-1,4.5808706E-1,1.7595556E0,-3.1721535E-1,4.4870424E0,9.672567E-1,-1.2963575E-1,3.5528505E-1,-1.2734914E-1,-7.974827E-2,3.6407757E-1,-1.2440079E-1,3.454997E-1,-1.15529194E-1,5.211401E-1,-1.0726719E-1,5.9287168E-2],"split_indices":[33,5,31,8,0,8,31,16,8,40,6,6,0,0,0,0,0,0,0,0,0,0,0],"split_type":[0,0,0,0,0,0,0,0,0,0,0,0,0,0,0,0,0,0,0,0,0,0,0],"sum_hessian":[2.0796897E3,8.658759E2,1.2138138E3,6.872445E2,1.7863142E2,3.0042538E2,9.133885E2,4.246522E2,2.6259232E2,6.1911335E1,2.3851405E2,5.61964E0,9.0776886E2,4.0185016E2,2.2802023E1,1.3363457E2,1.2895773E2,1.556298E1,4.6348354E1,2.3021443E2,8.29962E0,4.614115E0,1.0055248E0],"tree_param":{"num_deleted":"0","num_feature":"42","num_nodes":"23","size_leaf_vector":"1"}},{"base_weights":[-1.6085018E-3,4.5220056E-1,-5.1317763E-1,1.0433258E0,-3.7573838E-1,-3.2101458E-1,-1.2990274E-1,2.2120085E-1,1.3733478E0,7.048086E-1,-4.6046016E-1,3.941002E-1,-1.2537678E-1,-3.4309186E-2,2.5286672E-1,3.0198205E-1,1.1671165E0,-9.429222E-2,3.2007843E-1,9.352012E-2,-1.2464661E-1,-1.06655955E-1,4.8066348E-1],"categories":[],"categories_nodes":[],"categories_segments":[],"categories_sizes":[],"default_left":[0,0,0,0,0,0,0,0,0,0,0,0,0,0,0,0,0,0,0,0,0,0,0],"id":34,"left_children":[1,3,5,7,9,11,-1,13,15,17,19,21,-1,-1,-1,-1,-1,-1,-1,-1,-1,-1,-1],"loss_changes":[4.533967E2,5.0689987E2,9.681549E-1,1.6359503E2,3.9857983E1,4.373951E0,0E0,4.94901E1,2.2921027E2,2.0279652E1,1.2947105E1,9.703178E0,0E0,0E0,0E0,0E0,0E0,0E0,0E0,0E0,0E0,0E0,0E0],"parents":[2147483647,0,0,1,1,2,2,3,3,4,4,5,5,7,7,8,8,9,9,10,10,11,11],"right_children":[2,4,6,8,10,12,-1,14,16,18,20,22,-1,-1,-1,-1,-1,-1,-1,-1,-1,-1,-1],"split_conditions":[6.4899945E-1,1.5472454E-1,7.529997E-1,2.909201E-1,1.6694553E-1,4.895405E-2,-1.2990274E-1,1.3576912E0,1.7453392E0,4.9140522E-1,-2.3187988E0,5.023832E-1,-1.2537678E-1,-3.4309186E-2,2.5286672E-1,3.0198205E-1,1.1671165E0,-9.429222E-2,3.2007843E-1,9.352012E-2,-1.2464661E-1,-1.06655955E-1,4.8066348E-1],"split_indices":[31,3,31,18,40,32,0,26,34,19,4,11,0,0,0,0,0,0,0,0,0,0,0],"split_type":[0,0,0,0,0,0,0,0,0,0,0,0,0,0,0,0,0,0,0,0,0,0,0],"sum_hessian":[1.9509939E3,1.033924E3,9.1706995E2,6.0308093E2,4.3084302E2,3.1356188E1,8.8571375E2,1.7322546E2,4.2985547E2,3.079264E1,4.0005038E2,6.080735E0,2.5275454E1,1.1974127E2,5.34842E1,4.1060892E2,1.9246561E1,1.0811371E1,1.998127E1,1.7092981E1,3.829574E2,4.425471E0,1.6552643E0],"tree_param":{"num_deleted":"0","num_feature":"42","num_nodes":"23","size_leaf_vector":"1"}},{"base_weights":[1.6418358E-2,5.1374966E-1,-5.1006395E-1,1.1875189E-2,1.5891732E0,-1.2828279E-1,-5.152429E-1,2.3877227E0,-9.303812E-2,1.7443982E0,-3.120922E-1,2.8682044E-1,-3.978048E-1,-3.3368835E-1,-1.2932989E-1,3.5833314E-2,1.0641735E0,-1.052658E-1,7.739462E-2,3.0726135E-1,5.561758E-1,1.2547387E-1,-1.1401722E-1,-1.1882327E-1,5.939218E-2,-1.1943816E-1,1.3681844E-1],"categories":[],"categories_nodes":[],"categories_segments":[],"categories_sizes":[],"default_left":[0,0,0,0,0,0,0,0,0,0,0,0,0,0,0,0,0,0,0,0,0,0,0,0,0,0,0],"id":35,"left_children":[1,3,5,7,9,11,13,15,17,19,21,-1,23,25,-1,-1,-1,-1,-1,-1,-1,-1,-1,-1,-1,-1,-1],"loss_changes":[5.0903537E2,5.3955237E2,1.8011322E0,1.7037158E2,9.441931E1,5.259446E0,1.7855835E-1,1.20642654E2,8.659781E1,7.009515E1,3.1420894E0,0E0,7.17325E-1,1.9558477E0,0E0,0E0,0E0,0E0,0E0,0E0,0E0,0E0,0E0,0E0,0E0,0E0,0E0],"parents":[2147483647,0,0,1,1,2,2,3,3,4,4,5,5,6,6,7,7,8,8,9,9,10,10,12,12,13,13],"right_children":[2,4,6,8,10,12,14,16,18,20,22,-1,24,26,-1,-1,-1,-1,-1,-1,-1,-1,-1,-1,-1,-1,-1],"split_conditions":[6.4899945E-1,1.1074626E0,7.0879215E-1,-3.2191513E0,-1.8042366E-1,7.8155294E-2,7.413243E-1,3.008791E-1,3.4925708E-1,-5.4469365E-1,-1.13385156E-1,2.8682044E-1,2.7006192E0,6.406072E-1,-1.2932989E-1,3.5833314E-2,1.0641735E0,-1.052658E-1,7.739462E-2,3.0726135E-1,5.561758E-1,1.2547387E-1,-1.1401722E-1,-1.1882327E-1,5.939218E-2,-1.1943816E-1,1.3681844E-1],"split_indices":[31,32,31,40,2,18,31,5,33,16,2,0,12,41,0,0,0,0,0,0,0,0,0,0,0,0,0],"split_type":[0,0,0,0,0,0,0,0,0,0,0,0,0,0,0,0,0,0,0,0,0,0,0,0,0,0,0],"sum_hessian":[1.9420981E3,9.987102E2,9.4338794E2,6.816237E2,3.1708646E2,1.29707775E1,9.304172E2,2.790619E1,6.537175E2,2.9322888E2,2.3857588E1,1.6945006E0,1.1276277E1,1.2350543E1,9.1806665E2,1.3168835E1,1.4737355E1,3.6020267E2,2.9351486E2,1.431703E2,1.5005858E2,3.2120368E0,2.0645552E1,1.0275103E1,1.001174E0,1.1008078E1,1.3424655E0],"tree_param":{"num_deleted":"0","num_feature":"42","num_nodes":"27","size_leaf_vector":"1"}},{"base_weights":[-9.992631E-3,-4.8401374E-1,5.5295426E-1,3.036781E-1,-4.9984673E-1,-5.0801635E-1,1.0301082E0,-3.7703362E-1,8.849203E-1,-5.065223E-1,-8.7004974E-2,-1.2943809E-1,1.209151E-1,1.0525732E0,-4.1923526E-1,-1.1691716E-1,5.3762715E-2,3.4183413E-1,-5.9590153E-2,-1.2913813E-1,-9.619147E-2,-7.470297E-2,3.0085686E-1,2.6368782E-1,1.6287545E-2,5.3284273E-2,-1.2916364E-1],"categories":[],"categories_nodes":[],"categories_segments":[],"categories_sizes":[],"default_left":[0,0,0,0,0,0,0,0,0,0,0,0,0,0,0,0,0,0,0,0,0,0,0,0,0,0,0],"id":36,"left_children":[1,3,5,7,9,11,13,15,17,19,21,-1,-1,23,25,-1,-1,-1,-1,-1,-1,-1,-1,-1,-1,-1,-1],"loss_changes":[4.9995E2,1.2836426E1,4.3409393E2,8.509218E0,2.704773E0,2.822052E0,1.9686829E1,6.4893293E-1,6.527693E0,9.9972534E-1,5.0276656E0,0E0,0E0,1.1837769E0,7.099836E-1,0E0,0E0,0E0,0E0,0E0,0E0,0E0,0E0,0E0,0E0,0E0,0E0],"parents":[2147483647,0,0,1,1,2,2,3,3,4,4,5,5,6,6,7,7,8,8,9,9,10,10,13,13,14,14],"right_children":[2,4,6,8,10,12,14,16,18,20,22,-1,-1,24,26,-1,-1,-1,-1,-1,-1,-1,-1,-1,-1,-1,-1],"split_conditions":[1.2445538E0,3.0573076E-1,8.25119E-1,8.8310724E-1,2.3872788E0,5.594297E-1,1.8434956E0,7.117699E-1,7.9038817E-1,9.759697E-1,9.788003E-1,-1.2943809E-1,1.209151E-1,6.275469E-1,-2.0083477E0,-1.1691716E-1,5.3762715E-2,3.4183413E-1,-5.9590153E-2,-1.2913813E-1,-9.619147E-2,-7.470297E-2,3.0085686E-1,2.6368782E-1,1.6287545E-2,5.3284273E-2,-1.2916364E-1],"split_indices":[40,11,12,40,19,3,20,15,34,32,32,0,0,2,26,0,0,0,0,0,0,0,0,0,0,0,0],"split_type":[0,0,0,0,0,0,0,0,0,0,0,0,0,0,0,0,0,0,0,0,0,0,0,0,0,0,0],"sum_hessian":[1.8715306E3,1.0160885E3,8.554421E2,1.9663212E1,9.964253E2,2.653535E2,5.900886E2,9.21848E0,1.0444732E1,9.803464E2,1.6078972E1,2.632469E2,2.1065745E0,5.813514E2,8.737247E0,8.1769085E0,1.0415719E0,7.1547194E0,3.2900128E0,9.0273706E2,7.760929E1,1.4472026E1,1.6069455E0,5.800038E2,1.3475649E0,1.007765E0,7.7294827E0],"tree_param":{"num_deleted":"0","num_feature":"42","num_nodes":"27","size_leaf_vector":"1"}},{"base_weights":[-4.8762005E-2,8.342852E-1,-4.5998016E-1,1.0037746E0,-1.8907218E-1,-5.0826085E-1,7.508207E-1,3.6715895E-1,1.0597773E0,-4.2984706E-1,1.0426244E0,-1.3089438E-1,-5.137724E-1,-2.8348884E-1,1.018683E0,-7.9539225E-2,2.798106E-1,1.9398089E-1,2.7809843E-1,1.827375E-1,-1.1440274E-1,2.4762403E-2,2.8080827E-1,-9.3057126E-2,3.693688E-1,-1.2907945E-1,-1.2728022E-3,-1.1605226E-1,1.7645332E-1,3.1127965E-2,2.9648682E-1],"categories":[],"categories_nodes":[],"categories_segments":[],"categories_sizes":[],"default_left":[0,0,0,0,0,0,0,0,0,0,0,0,0,0,0,0,0,0,0,0,0,0,0,0,0,0,0,0,0,0,0],"id":37,"left_children":[1,3,5,7,9,11,13,15,17,19,21,23,25,27,29,-1,-1,-1,-1,-1,-1,-1,-1,-1,-1,-1,-1,-1,-1,-1,-1],"loss_changes":[6.5547876E2,9.966989E1,7.237332E1,1.715915E1,2.4865631E1,2.3971558E0,1.348394E1,2.1657297E1,5.8858337E0,2.5769348E0,9.3496895E-1,7.691296E0,1.5089722E0,2.219095E0,5.5428467E0,0E0,0E0,0E0,0E0,0E0,0E0,0E0,0E0,0E0,0E0,0E0,0E0,0E0,0E0,0E0,0E0],"parents":[2147483647,0,0,1,1,2,2,3,3,4,4,5,5,6,6,7,7,8,8,9,9,10,10,11,11,12,12,13,13,14,14],"right_children":[2,4,6,8,10,12,14,16,18,20,22,24,26,28,30,-1,-1,-1,-1,-1,-1,-1,-1,-1,-1,-1,-1,-1,-1,-1,-1],"split_conditions":[-6.722349E-2,1.1925222E0,2.9969409E0,9.479355E-1,1.6341666E0,1.9261456E-1,3.5027838E-1,1.5277721E0,1.3538188E0,5.414567E-1,1.1384916E0,1.6213712E0,2.2362523E0,1.4569254E0,8.8161415E-1,-7.9539225E-2,2.798106E-1,1.9398089E-1,2.7809843E-1,1.827375E-1,-1.1440274E-1,2.4762403E-2,2.8080827E-1,-9.3057126E-2,3.693688E-1,-1.2907945E-1,-1.2728022E-3,-1.1605226E-1,1.7645332E-1,3.1127965E-2,2.9648682E-1],"split_indices":[35,19,35,16,20,35,19,28,28,18,10,12,35,20,26,0,0,0,0,0,0,0,0,0,0,0,0,0,0,0,0],"split_type":[0,0,0,0,0,0,0,0,0,0,0,0,0,0,0,0,0,0,0,0,0,0,0,0,0,0,0,0,0,0,0],"sum_hessian":[1.803048E3,5.7254333E2,1.2305046E3,4.912081E2,8.133522E1,1.1838777E3,4.6626923E1,4.0328278E1,4.5087982E2,6.858005E1,1.2755174E1,1.7398186E1,1.1664795E3,9.579353E0,3.704757E1,2.1402653E1,1.8925623E1,7.296997E1,3.7790985E2,1.0103514E0,6.7569695E1,1.1793178E0,1.1575856E1,1.5796504E1,1.6016809E0,1.1606567E3,5.8227806E0,8.548527E0,1.0308263E0,6.1129627E0,3.0934605E1],"tree_param":{"num_deleted":"0","num_feature":"42","num_nodes":"31","size_leaf_vector":"1"}},{"base_weights":[-1.6375183E-1,-5.0293684E-1,5.6366235E-1,-5.143942E-1,-8.660317E-2,9.3975925E-1,-4.855398E-1,-1.290431E-1,-3.1061712E-1,1.0787379E0,-1.24065444E-1,1.0393457E0,-4.738197E-1,3.9496314E-2,-4.9236712E-1,-1.1733161E-1,1.299951E-1,4.2150137E-1,-9.457236E-2,-7.522914E-2,2.610765E-1,-1.2657614E-1,4.410627E-2,-1.24818884E-1,1.5066215E-2],"categories":[],"categories_nodes":[],"categories_segments":[],"categories_sizes":[],"default_left":[0,0,0,0,0,0,0,0,0,0,0,0,0,0,0,0,0,0,0,0,0,0,0,0,0],"id":38,"left_children":[1,3,5,7,9,11,13,-1,15,17,-1,19,21,-1,23,-1,-1,-1,-1,-1,-1,-1,-1,-1,-1],"loss_changes":[4.1298947E2,5.399597E0,2.105444E2,2.4209595E-1,1.5702005E1,5.5712128E1,6.9791794E-1,0E0,1.8414634E0,8.228052E0,0E0,2.752472E0,6.491456E-1,0E0,5.642319E-1,0E0,0E0,0E0,0E0,0E0,0E0,0E0,0E0,0E0,0E0],"parents":[2147483647,0,0,1,1,2,2,3,3,4,4,5,5,6,6,8,8,9,9,11,11,12,12,14,14],"right_children":[2,4,6,8,10,12,14,-1,16,18,-1,20,22,-1,24,-1,-1,-1,-1,-1,-1,-1,-1,-1,-1],"split_conditions":[1.0950572E0,9.639148E-1,1.693955E0,8.9456797E-1,1.782425E0,1.5662024E0,1.1420437E0,-1.290431E-1,9.048473E-1,9.37531E-1,-1.24065444E-1,9.1874075E-1,1.6541146E0,3.9496314E-2,2.0320292E0,-1.1733161E-1,1.299951E-1,4.2150137E-1,-9.457236E-2,-7.522914E-2,2.610765E-1,-1.2657614E-1,4.410627E-2,-1.24818884E-1,1.5066215E-2],"split_indices":[37,37,17,39,17,41,23,0,10,39,0,27,6,0,7,0,0,0,0,0,0,0,0,0,0],"split_type":[0,0,0,0,0,0,0,0,0,0,0,0,0,0,0,0,0,0,0,0,0,0,0,0,0],"sum_hessian":[1.6717166E3,1.1403109E3,5.314055E2,1.1095411E3,3.0769842E1,3.9125912E2,1.401464E2,1.0984232E3,1.1117886E1,7.578447E0,2.3191395E1,3.6575638E2,2.5502766E1,1.238813E0,1.3890758E2,9.699477E0,1.4184086E0,5.238121E0,2.3403258E0,1.128664E0,3.6462772E2,2.4500153E1,1.0026124E0,1.372879E2,1.6196803E0],"tree_param":{"num_deleted":"0","num_feature":"42","num_nodes":"25","size_leaf_vector":"1"}},{"base_weights":[7.0870884E-2,-5.0514215E-1,4.258793E-1,-1.2961002E-1,-2.383462E-1,7.5659966E-1,-4.0787742E-1,1.8472074E0,-4.782024E-1,-1.2760994E-1,9.1267514E-1,4.4242072E-1,-4.519583E-1,2.6277695E-2,6.818885E-1,-6.37336E-3,-1.2672761E-1,2.905981E-1,8.844631E-3,-1.0901395E-1,1.8527025E-1,-8.131737E-2,-1.2879834E-1],"categories":[],"categories_nodes":[],"categories_segments":[],"categories_sizes":[],"default_left":[0,0,0,0,0,0,0,0,0,0,0,0,0,0,0,0,0,0,0,0,0,0,0],"id":39,"left_children":[1,3,5,-1,7,9,11,13,15,-1,17,19,21,-1,-1,-1,-1,-1,-1,-1,-1,-1,-1],"loss_changes":[3.923994E2,2.4725952E0,3.276422E2,0E0,1.9188091E1,1.6861804E2,1.2861244E1,5.8172283E0,4.2391777E-1,0E0,1.6589026E2,4.8238373E0,2.4091644E0,0E0,0E0,0E0,0E0,0E0,0E0,0E0,0E0,0E0,0E0],"parents":[2147483647,0,0,1,1,2,2,4,4,5,5,6,6,7,7,8,8,10,10,11,11,12,12],"right_children":[2,4,6,-1,8,10,12,14,16,-1,18,20,22,-1,-1,-1,-1,-1,-1,-1,-1,-1,-1],"split_conditions":[5.813965E-1,4.7848263E-1,5.426542E-1,-1.2961002E-1,4.0133893E-1,6.0615313E-1,9.150402E-1,8.7925166E-2,3.2998607E-1,-1.2760994E-1,1.9537417E0,9.0840524E-1,7.659843E-1,2.6277695E-2,6.818885E-1,-6.37336E-3,-1.2672761E-1,2.905981E-1,8.844631E-3,-1.0901395E-1,1.8527025E-1,-8.131737E-2,-1.2879834E-1],"split_indices":[41,41,9,0,9,17,17,3,35,0,8,22,11,0,0,0,0,0,0,0,0,0,0],"split_type":[0,0,0,0,0,0,0,0,0,0,0,0,0,0,0,0,0,0,0,0,0,0,0],"sum_hessian":[1.9168701E3,7.307618E2,1.1861083E3,6.951693E2,3.559246E1,8.493108E2,3.3679755E2,2.9799995E0,3.261246E1,9.289636E1,7.564144E2,1.6154219E1,3.206433E2,1.3761556E0,1.6038439E0,2.0573452E0,3.0555115E1,5.885595E2,1.678549E2,3.9818892E0,1.217233E1,1.0880362E2,2.118397E2],"tree_param":{"num_deleted":"0","num_feature":"42","num_nodes":"23","size_leaf_vector":"1"}},{"base_weights":[-1.3901901E-2,-4.6391547E-1,7.990513E-1,5.967141E-1,-5.14805E-1,9.41609E-1,-3.4835532E-1,1.0735279E0,-1.21940605E-1,-1.2954897E-1,7.015475E-2,-9.024873E-2,1.0104618E0,2.9412356E-1,-3.870124E-1,2.4500104E-2,3.193901E-1,2.6913723E-1,-1.0752817E-1,3.119604E-1,-1.00157425E-1,2.6259077E-1,-5.818442E-2,-8.74089E-3,-1.2677173E-1],"categories":[],"categories_nodes":[],"categories_segments":[],"categories_sizes":[],"default_left":[0,0,0,0,0,0,0,0,0,0,0,0,0,0,0,0,0,0,0,0,0,0,0,0,0],"id":40,"left_children":[1,3,5,7,9,11,13,15,-1,-1,17,19,21,-1,23,-1,-1,-1,-1,-1,-1,-1,-1,-1,-1],"loss_changes":[6.7861957E2,6.475287E1,1.084418E2,2.9030285E1,2.2973328E0,4.1879333E1,4.8040257E0,7.5586967E0,0E0,0E0,4.213944E0,1.616181E1,2.7600464E1,0E0,3.0555649E0,0E0,0E0,0E0,0E0,0E0,0E0,0E0,0E0,0E0,0E0],"parents":[2147483647,0,0,1,1,2,2,3,3,4,4,5,5,6,6,7,7,10,10,11,11,12,12,14,14],"right_children":[2,4,6,8,10,12,14,16,-1,-1,18,20,22,-1,24,-1,-1,-1,-1,-1,-1,-1,-1,-1,-1],"split_conditions":[7.117628E-1,3.0573076E-1,1.3058524E0,1.0707132E0,5.594297E-1,1.1257508E0,1.6311821E0,1.1026235E0,-1.21940605E-1,-1.2954897E-1,8.459967E-1,6.278106E-1,1.6457437E0,2.9412356E-1,1.9698076E-1,2.4500104E-2,3.193901E-1,2.6913723E-1,-1.0752817E-1,3.119604E-1,-1.00157425E-1,2.6259077E-1,-5.818442E-2,-8.74089E-3,-1.2677173E-1],"split_indices":[3,11,38,38,3,22,13,22,0,0,29,34,12,0,27,0,0,0,0,0,0,0,0,0,0],"split_type":[0,0,0,0,0,0,0,0,0,0,0,0,0,0,0,0,0,0,0,0,0,0,0,0,0],"sum_hessian":[1.8529495E3,1.1929928E3,6.599567E2,5.4128643E1,1.1388641E3,5.871825E2,7.2774216E1,3.7604916E1,1.6523727E1,1.132414E3,6.450166E0,3.671061E1,5.504719E2,1.071565E0,7.170265E1,6.760706E0,3.084421E1,1.759205E0,4.6909614E0,6.3433404E0,3.0367268E1,5.3350385E2,1.6968052E1,1.8564432E1,5.3138218E1],"tree_param":{"num_deleted":"0","num_feature":"42","num_nodes":"25","size_leaf_vector":"1"}},{"base_weights":[-1.1230155E-1,-4.949859E-1,5.516012E-1,-4.9923348E-1,4.6593614E-2,1.009837E0,-5.046552E-1,-5.0087523E-1,-1.14249274E-1,1.8263468E-1,-1.1066488E-1,1.0451776E0,-3.961411E-1,-1.2874512E-1,1.8177968E-1,-1.283611E-1,-1.1355286E-1,-1.0333675E-1,1.6696215E-1,-6.428008E-2,2.7100408E-1,1.5500734E-2,-1.1910978E-1,1.8298465E-1,-7.933217E-2],"categories":[],"categories_nodes":[],"categories_segments":[],"categories_sizes":[],"default_left":[0,0,0,0,0,0,0,0,0,0,0,0,0,0,0,0,0,0,0,0,0,0,0,0,0],"id":41,"left_children":[1,3,5,7,9,11,13,15,17,-1,-1,19,21,-1,23,-1,-1,-1,-1,-1,-1,-1,-1,-1,-1],"loss_changes":[4.3946793E2,2.5470276E0,3.0667828E2,6.308594E-1,3.4863002E0,2.235141E1,1.4548607E0,4.024353E-1,1.6605086E0,0E0,0E0,2.207608E1,4.5446467E-1,0E0,1.2167292E0,0E0,0E0,0E0,0E0,0E0,0E0,0E0,0E0,0E0,0E0],"parents":[2147483647,0,0,1,1,2,2,3,3,4,4,5,5,6,6,7,7,8,8,11,11,12,12,14,14],"right_children":[2,4,6,8,10,12,14,16,18,-1,-1,20,22,-1,24,-1,-1,-1,-1,-1,-1,-1,-1,-1,-1],"split_conditions":[6.0802317E-1,9.6723914E-1,9.612014E-1,5.692092E-1,6.568739E-1,1.7705828E0,4.374477E0,5.392186E-1,1.4983616E0,1.8263468E-1,-1.1066488E-1,6.075862E-1,9.602571E-2,-1.2874512E-1,1.2830771E0,-1.283611E-1,-1.1355286E-1,-1.0333675E-1,1.6696215E-1,-6.428008E-2,2.7100408E-1,1.5500734E-2,-1.1910978E-1,1.8298465E-1,-7.933217E-2],"split_indices":[35,29,12,35,14,40,15,11,15,0,0,30,8,0,14,0,0,0,0,0,0,0,0,0,0],"split_type":[0,0,0,0,0,0,0,0,0,0,0,0,0,0,0,0,0,0,0,0,0,0,0,0,0],"sum_hessian":[1.7276702E3,1.0961093E3,6.3156085E2,1.0876571E3,8.45221E0,4.405018E2,1.9105905E2,1.0827386E3,4.918407E0,3.3191195E0,5.1330914E0,4.299512E2,1.0550598E1,1.8847383E2,2.5852282E0,8.4510266E2,2.3763599E2,3.8988564E0,1.0195506E0,1.22884445E1,4.1766278E2,1.6073915E0,8.943207E0,1.0078259E0,1.5774022E0],"tree_param":{"num_deleted":"0","num_feature":"42","num_nodes":"25","size_leaf_vector":"1"}},{"base_weights":[1.1806376E-3,9.637454E-1,-1.2769544E-1,-1.2407193E-1,1.0192888E0,-1.01226486E-1,1.0251049E0,2.5833705E-1,1.8084489E-1],"categories":[],"categories_nodes":[],"categories_segments":[],"categories_sizes":[],"default_left":[0,0,0,0,0,0,0,0,0],"id":42,"left_children":[1,3,-1,-1,5,-1,7,-1,-1],"loss_changes":[9.397134E2,5.419751E1,0E0,0E0,5.70105E0,0E0,8.339844E-1,0E0,0E0],"parents":[2147483647,0,0,1,1,4,4,6,6],"right_children":[2,4,-1,-1,6,-1,8,-1,-1],"split_conditions":[7.462476E-1,-2.8200462E-1,-1.2769544E-1,-1.2407193E-1,7.193845E-1,-1.01226486E-1,6.0615313E-1,2.5833705E-1,1.8084489E-1],"split_indices":[17,3,0,0,33,0,17,0,0],"split_type":[0,0,0,0,0,0,0,0,0],"sum_hessian":[1.9048987E3,6.610829E2,1.2438158E3,2.39368E1,6.371461E2,2.3123047E0,6.348338E2,6.1559064E2,1.9243135E1],"tree_param":{"num_deleted":"0","num_feature":"42","num_nodes":"9","size_leaf_vector":"1"}},{"base_weights":[-3.2643173E-2,-5.0189817E-1,7.3525363E-1,-5.108015E-1,-1.0981324E-2,9.794533E-1,-1.2892804E-1,-1.2811697E-1,-3.2548475E-1,-3.416298E-1,3.668061E-1,-4.8034757E-1,1.1894798E0,-1.1815265E-1,1.6621375E-1,-1.22293524E-1,2.2763367E-1,-1.2915201E-1,-4.42115E-2,1.9631922E-1,4.9145988E-1],"categories":[],"categories_nodes":[],"categories_segments":[],"categories_sizes":[],"default_left":[0,0,0,0,0,0,0,0,0,0,0,0,0,0,0,0,0,0,0,0,0],"id":43,"left_children":[1,3,5,7,9,11,-1,-1,13,15,-1,17,19,-1,-1,-1,-1,-1,-1,-1,-1],"loss_changes":[6.313206E2,4.7473145E0,2.035191E2,1.6299438E-1,1.0468383E1,1.7115161E2,0E0,0E0,2.1003942E0,3.6740851E0,0E0,6.8660164E-1,1.511784E2,0E0,0E0,0E0,0E0,0E0,0E0,0E0,0E0],"parents":[2147483647,0,0,1,1,2,2,3,3,4,4,5,5,8,8,9,9,11,11,12,12],"right_children":[2,4,6,8,10,12,-1,-1,14,16,-1,18,20,-1,-1,-1,-1,-1,-1,-1,-1],"split_conditions":[6.0802317E-1,5.328796E-1,1.5662024E0,5.128418E-1,1.3451045E0,1.7524978E0,-1.2892804E-1,-1.2811697E-1,1.4207321E0,3.6573422E0,3.668061E-1,1.4983616E0,4.9635482E-1,-1.1815265E-1,1.6621375E-1,-1.22293524E-1,2.2763367E-1,-1.2915201E-1,-4.42115E-2,1.9631922E-1,4.9145988E-1],"split_indices":[35,35,41,35,22,17,0,0,2,12,0,15,18,0,0,0,0,0,0,0,0],"split_type":[0,0,0,0,0,0,0,0,0,0,0,0,0,0,0,0,0,0,0,0,0],"sum_hessian":[1.7499926E3,1.0864307E3,6.635618E2,1.0670383E3,1.939243E1,5.553664E2,1.0819544E2,1.0557794E3,1.1258891E1,1.647594E1,2.9164882E0,6.969066E1,4.8567575E2,1.0257767E1,1.0011244E0,1.52843075E1,1.191634E0,6.1625824E1,8.064831E0,3.207121E2,1.6496367E2],"tree_param":{"num_deleted":"0","num_feature":"42","num_nodes":"21","size_leaf_vector":"1"}},{"base_weights":[8.656964E-2,-5.096195E-1,4.4467196E-1,-5.162519E-1,-2.8626385E-1,6.6322476E-1,-3.158037E-1,-1.2976359E-1,-4.0299267E-1,1.1615281E0,-1.2395108E-1,-1.296369E-1,8.1443965E-1,7.211488E-1,-4.5641693E-1,1.146459E-1,-1.23260416E-1,5.482428E-1,-7.18613E-2,3.2763445E-1,1.3101238E-1,-8.7833576E-2,3.44631E-1,-5.3818505E-2,-1.2125664E-1],"categories":[],"categories_nodes":[],"categories_segments":[],"categories_sizes":[],"default_left":[0,0,0,0,0,0,0,0,0,0,0,0,0,0,0,0,0,0,0,0,0,0,0,0,0],"id":44,"left_children":[1,3,5,7,9,11,13,-1,15,17,-1,-1,19,21,23,-1,-1,-1,-1,-1,-1,-1,-1,-1,-1],"loss_changes":[4.1894415E2,9.431305E-1,2.0394366E2,1.7456055E-2,7.6997E0,1.7063342E2,4.0327503E1,0E0,1.9105349E0,5.514591E0,0E0,0E0,1.2102057E2,2.385173E1,1.5663567E0,0E0,0E0,0E0,0E0,0E0,0E0,0E0,0E0,0E0,0E0],"parents":[2147483647,0,0,1,1,2,2,3,3,4,4,5,5,6,6,8,8,9,9,12,12,13,13,14,14],"right_children":[2,4,6,8,10,12,14,-1,16,18,-1,-1,20,22,24,-1,-1,-1,-1,-1,-1,-1,-1,-1,-1],"split_conditions":[8.557365E-1,8.296494E-1,5.3756493E-1,7.9863364E-1,-9.5602745E-1,6.0615313E-1,7.3022723E-1,-1.2976359E-1,-5.532789E-1,-3.8727635E-1,-1.2395108E-1,-1.296369E-1,3.126246E-1,4.9254474E-1,7.570943E-1,1.146459E-1,-1.23260416E-1,5.482428E-1,-7.18613E-2,3.2763445E-1,1.3101238E-1,-8.7833576E-2,3.44631E-1,-5.3818505E-2,-1.2125664E-1],"split_indices":[33,33,9,33,8,17,41,0,6,2,0,0,7,11,41,0,0,0,0,0,0,0,0,0,0],"split_type":[0,0,0,0,0,0,0,0,0,0,0,0,0,0,0,0,0,0,0,0,0,0,0,0,0],"sum_hessian":[1.9602366E3,7.3542914E2,1.2248074E3,7.12947E2,2.248217E1,9.514876E2,2.733198E2,6.922359E2,2.0711075E1,2.2680643E0,2.0214106E1,1.0766176E2,8.438258E2,3.2144142E1,2.4117566E2,1.5725485E0,1.9138525E1,1.0249757E0,1.2430886E0,3.1026343E2,5.335624E2,1.239223E1,1.9751913E1,2.6482914E1,2.1469275E2],"tree_param":{"num_deleted":"0","num_feature":"42","num_nodes":"25","size_leaf_vector":"1"}},{"base_weights":[4.3876275E-2,4.20597E-1,-5.02017E-1,7.8319097E-1,-3.218462E-1,-2.7018356E-1,-5.068547E-1,-5.8277257E-2,8.857353E-1,3.98552E-1,-4.4780353E-1,-1.1971375E-1,2.7238932E-1,-3.7462303E-1,-1.2795204E-1,2.165962E-1,-8.560556E-2,2.3146082E-2,2.5533995E-1,-6.0922545E-3,4.4480428E-1,9.846516E-2,-1.205947E-1,2.9457277E-1,-9.837758E-2,2.2107682E-1,-1.2553832E-1],"categories":[],"categories_nodes":[],"categories_segments":[],"categories_sizes":[],"default_left":[0,0,0,0,0,0,0,0,0,0,0,0,0,0,0,0,0,0,0,0,0,0,0,0,0,0,0],"id":45,"left_children":[1,3,5,7,9,11,13,15,17,19,21,-1,23,25,-1,-1,-1,-1,-1,-1,-1,-1,-1,-1,-1,-1,-1],"loss_changes":[3.9004175E2,3.0233826E2,7.316742E-1,6.513202E1,3.365358E1,2.1652527E0,3.0444336E-1,2.2068914E1,7.223157E1,3.2410873E1,9.341682E0,0E0,3.8596368E0,5.4343705E0,0E0,0E0,0E0,0E0,0E0,0E0,0E0,0E0,0E0,0E0,0E0,0E0,0E0],"parents":[2147483647,0,0,1,1,2,2,3,3,4,4,5,5,6,6,7,7,8,8,9,9,10,10,12,12,13,13],"right_children":[2,4,6,8,10,12,14,16,18,20,22,-1,24,26,-1,-1,-1,-1,-1,-1,-1,-1,-1,-1,-1,-1,-1],"split_conditions":[6.4899945E-1,1.5291077E-1,7.283185E-1,4.5812607E-1,5.468696E-1,5.6964654E-1,-7.8197436E0,6.2984943E-1,-1.780803E0,5.8765423E-1,-3.3905847E0,-1.1971375E-1,9.861239E-1,8.786949E0,-1.2795204E-1,2.165962E-1,-8.560556E-2,2.3146082E-2,2.5533995E-1,-6.0922545E-3,4.4480428E-1,9.846516E-2,-1.205947E-1,2.9457277E-1,-9.837758E-2,2.2107682E-1,-1.2553832E-1],"split_indices":[31,3,31,19,32,41,14,13,8,8,16,0,17,38,0,0,0,0,0,0,0,0,0,0,0,0,0],"split_type":[0,0,0,0,0,0,0,0,0,0,0,0,0,0,0,0,0,0,0,0,0,0,0,0,0,0,0],"sum_hessian":[1.8946088E3,1.12114E3,7.7346875E2,7.5322534E2,3.6791467E2,1.6972332E1,7.564964E2,8.1866714E1,6.7135864E2,5.443216E1,3.134825E2,1.2342782E1,4.6295495E0,3.008228E1,7.264141E2,1.8762115E1,6.31046E1,9.828097E1,5.730777E2,4.2420418E1,1.201174E1,1.1959594E1,3.0152292E2,1.6353364E0,2.9942133E0,2.2212124E0,2.7861065E1],"tree_param":{"num_deleted":"0","num_feature":"42","num_nodes":"27","size_leaf_vector":"1"}},{"base_weights":[3.2603696E-2,5.487658E-1,-4.7847012E-1,-4.3078247E-1,9.406911E-1,-1.14869304E-1,-5.0842035E-1,7.8731574E-2,-5.047566E-1,1.0956829E0,-4.359497E-1,7.653362E-1,-4.7032154E-1,-1.2902614E-1,-3.9867032E-1,4.451519E-1,-8.2969114E-2,-1.3036875E-1,-3.0136967E-2,2.992062E-1,-5.656268E-2,1.52436E-1,-1.2146476E-1,-1.20631725E-1,3.3363646E-1,2.9929116E-2,-1.2629998E-1,9.155471E-2,-1.1871254E-1],"categories":[],"categories_nodes":[],"categories_segments":[],"categories_sizes":[],"default_left":[0,0,0,0,0,0,0,0,0,0,0,0,0,0,0,0,0,0,0,0,0,0,0,0,0,0,0,0,0],"id":46,"left_children":[1,3,5,7,9,11,13,15,17,19,21,23,25,-1,27,-1,-1,-1,-1,-1,-1,-1,-1,-1,-1,-1,-1,-1,-1],"loss_changes":[5.013355E2,3.6338953E2,1.0341156E1,1.0249413E1,1.446322E2,2.3502268E1,5.381012E-1,2.5193678E1,1.4573708E0,8.149945E1,3.9017038E0,1.6027763E1,1.1575623E0,0E0,3.7928953E0,0E0,0E0,0E0,0E0,0E0,0E0,0E0,0E0,0E0,0E0,0E0,0E0,0E0,0E0],"parents":[2147483647,0,0,1,1,2,2,3,3,4,4,5,5,6,6,7,7,8,8,9,9,10,10,11,11,12,12,14,14],"right_children":[2,4,6,8,10,12,14,16,18,20,22,24,26,-1,28,-1,-1,-1,-1,-1,-1,-1,-1,-1,-1,-1,-1,-1,-1],"split_conditions":[3.35946E-1,1.406315E-1,2.7221188E-1,4.501332E-1,5.997945E-1,7.901469E-1,8.220761E0,1.3864193E0,8.963355E-1,1.3789153E0,3.2002303E-1,1.3030544E-1,2.5657955E-1,-1.2902614E-1,4.2869854E-1,4.451519E-1,-8.2969114E-2,-1.3036875E-1,-3.0136967E-2,2.992062E-1,-5.656268E-2,1.52436E-1,-1.2146476E-1,-1.20631725E-1,3.3363646E-1,2.9929116E-2,-1.2629998E-1,9.155471E-2,-1.1871254E-1],"split_indices":[16,3,10,19,31,30,16,32,23,26,35,6,35,0,11,0,0,0,0,0,0,0,0,0,0,0,0,0,0],"split_type":[0,0,0,0,0,0,0,0,0,0,0,0,0,0,0,0,0,0,0,0,0,0,0,0,0,0,0,0,0],"sum_hessian":[1.8984647E3,9.444938E2,9.5397095E2,2.6987918E2,6.7461456E2,7.29676E1,8.8100336E2,3.420692E1,2.3567227E2,6.065312E2,6.8083405E1,2.0658318E1,5.230928E1,8.19895E2,6.1108295E1,6.0003467E0,2.8206573E1,2.2550252E2,1.0169742E1,5.635112E2,4.301995E1,2.590501E0,6.54929E1,6.5190544E0,1.4139263E1,2.783771E0,4.952551E1,5.190039E0,5.591826E1],"tree_param":{"num_deleted":"0","num_feature":"42","num_nodes":"29","size_leaf_vector":"1"}},{"base_weights":[-3.127829E-2,-5.100213E-1,9.538295E-1,-5.131188E-1,-3.117467E-1,-1.2444254E-1,1.019761E0,-1.0697218E-1,-1.2847911E-1,2.3811094E-1,-4.438649E-1,1.0216843E0,1.7994618E-2,-8.135231E-2,5.9547067E-2,-1.2275095E-1,5.8193658E-2,1.8656895E-1,2.5668105E-1],"categories":[],"categories_nodes":[],"categories_segments":[],"categories_sizes":[],"default_left":[0,0,0,0,0,0,0,0,0,0,0,0,0,0,0,0,0,0,0],"id":47,"left_children":[1,3,5,7,9,-1,11,13,-1,-1,15,17,-1,-1,-1,-1,-1,-1,-1],"loss_changes":[8.7551056E2,6.072693E-1,5.8614563E1,3.4298706E-1,4.057804E0,0E0,9.857788E-1,3.5426524E-1,0E0,0E0,7.645464E-1,3.857422E-2,0E0,0E0,0E0,0E0,0E0,0E0,0E0],"parents":[2147483647,0,0,1,1,2,2,3,3,4,4,6,6,7,7,10,10,11,11],"right_children":[2,4,6,8,10,-1,12,14,-1,-1,16,18,-1,-1,-1,-1,-1,-1,-1],"split_conditions":[1.2404653E0,1.0356041E0,1.3646127E0,3.0573076E-1,8.4136605E-1,-1.2444254E-1,1.6823766E0,5.337237E-1,-1.2847911E-1,2.3811094E-1,2.9457836E0,1.1785681E0,1.7994618E-2,-8.135231E-2,5.9547067E-2,-1.2275095E-1,5.8193658E-2,1.8656895E-1,2.5668105E-1],"split_indices":[41,41,17,11,31,0,5,29,0,0,10,14,0,0,0,0,0,0,0],"split_type":[0,0,0,0,0,0,0,0,0,0,0,0,0,0,0,0,0,0,0],"sum_hessian":[1.8543838E3,1.248244E3,6.0613983E2,1.2274802E3,2.076381E1,2.6050102E1,5.800897E2,2.6707146E0,1.2248094E3,1.3771682E0,1.9386642E1,5.788371E2,1.2526083E0,1.6706537E0,1.000061E0,1.8380491E1,1.0061498E0,1.3081078E1,5.6575604E2],"tree_param":{"num_deleted":"0","num_feature":"42","num_nodes":"19","size_leaf_vector":"1"}},{"base_weights":[5.0048843E-2,-4.825286E-1,4.9528044E-1,-5.092953E-1,-1.05033524E-1,8.1801414E-1,-4.7614592E-1,-1.2940803E-1,-4.011427E-1,3.7450534E-1,-4.4840637E-1,-3.9663514E-1,9.7538567E-1,-6.2328015E-2,-1.2732224E-1,-1.2767051E-1,-2.99969E-2,-7.776628E-2,3.8468367E-1,-1.1901897E-1,5.8922444E-2,2.3554523E-1,-1.1690986E-1,-1.0968014E-1,2.824697E-1,-1.0530627E-1,1.9526684E-1],"categories":[],"categories_nodes":[],"categories_segments":[],"categories_sizes":[],"default_left":[0,0,0,0,0,0,0,0,0,0,0,0,0,0,0,0,0,0,0,0,0,0,0,0,0,0,0],"id":48,"left_children":[1,3,5,7,9,11,13,-1,15,17,19,21,23,25,-1,-1,-1,-1,-1,-1,-1,-1,-1,-1,-1,-1,-1],"loss_changes":[4.49947E2,8.677322E0,3.243949E2,5.1960754E-1,9.795794E0,1.4874207E2,3.5116577E0,0E0,1.8533993E0,2.0387041E1,7.657757E-1,8.970644E0,1.5066791E2,6.472766E0,0E0,0E0,0E0,0E0,0E0,0E0,0E0,0E0,0E0,0E0,0E0,0E0,0E0],"parents":[2147483647,0,0,1,1,2,2,3,3,4,4,5,5,6,6,8,8,9,9,10,10,11,11,12,12,13,13],"right_children":[2,4,6,8,10,12,14,-1,16,18,20,22,24,26,-1,-1,-1,-1,-1,-1,-1,-1,-1,-1,-1,-1,-1],"split_conditions":[7.416924E-1,7.1991813E-1,8.817926E-1,6.845457E-1,8.191618E-1,4.429283E-1,8.990501E-1,-1.2940803E-1,5.6344813E-1,4.868517E-1,1.7025816E1,5.8162443E-2,8.8391286E-1,5.0566345E-1,-1.2732224E-1,-1.2767051E-1,-2.99969E-2,-7.776628E-2,3.8468367E-1,-1.1901897E-1,5.8922444E-2,2.3554523E-1,-1.1690986E-1,-1.0968014E-1,2.824697E-1,-1.0530627E-1,1.9526684E-1],"split_indices":[41,41,31,41,31,27,31,0,9,11,6,3,17,35,0,0,0,0,0,0,0,0,0,0,0,0,0],"split_type":[0,0,0,0,0,0,0,0,0,0,0,0,0,0,0,0,0,0,0,0,0,0,0,0,0,0,0],"sum_hessian":[1.8955394E3,8.630691E2,1.0324703E3,8.0559814E2,5.747095E1,7.7511456E2,2.5735577E2,7.444284E2,6.1169754E1,2.3942825E1,3.3528126E1,8.873165E1,6.863829E2,1.9297062E1,2.3805872E2,4.343205E1,1.7737705E1,1.5530385E1,8.41244E0,3.2517E1,1.0111297E0,3.8509536E0,8.48807E1,6.7421394E1,6.189615E2,1.3887821E1,5.40924E0],"tree_param":{"num_deleted":"0","num_feature":"42","num_nodes":"27","size_leaf_vector":"1"}},{"base_weights":[3.2323148E-2,6.259032E-1,-3.4307003E-1,-1.2925361E-1,1.0884527E0,-4.67284E-1,1.9549464E-1,-3.1068203E-1,1.1994332E0,-4.9724212E-1,-3.9124094E-2,-3.770529E-1,7.7697974E-1,-1.2603734E-1,8.614406E-2,3.848731E-1,2.731807E-1,-1.2619877E-1,-4.1213576E-2,2.8555533E-1,-6.402619E-2,-1.2075064E-1,7.6757155E-2,2.4271557E-1,-1.2698734E-1],"categories":[],"categories_nodes":[],"categories_segments":[],"categories_sizes":[],"default_left":[0,0,0,0,0,0,0,0,0,0,0,0,0,0,0,0,0,0,0,0,0,0,0,0,0],"id":49,"left_children":[1,3,5,-1,7,9,11,13,15,17,19,21,23,-1,-1,-1,-1,-1,-1,-1,-1,-1,-1,-1,-1],"loss_changes":[4.2161264E2,3.880739E2,7.763469E1,0E0,8.144995E1,1.2065994E1,7.285268E1,5.139036E0,1.5880371E1,2.1272736E0,1.6364197E1,8.156365E0,2.7512009E1,0E0,0E0,0E0,0E0,0E0,0E0,0E0,0E0,0E0,0E0,0E0,0E0],"parents":[2147483647,0,0,1,1,2,2,4,4,5,5,6,6,7,7,8,8,9,9,10,10,11,11,12,12],"right_children":[2,4,6,-1,8,10,12,14,16,18,20,22,24,-1,-1,-1,-1,-1,-1,-1,-1,-1,-1,-1,-1],"split_conditions":[4.796805E-1,6.481945E-1,1.294593E0,-1.2925361E-1,7.085749E-2,6.7236795E0,6.57289E-1,9.2003125E-1,1.7075505E0,1.1249746E0,4.9403194E-1,5.823184E-1,5.937079E-1,-1.2603734E-1,8.614406E-2,3.848731E-1,2.731807E-1,-1.2619877E-1,-4.1213576E-2,2.8555533E-1,-6.402619E-2,-1.2075064E-1,7.6757155E-2,2.4271557E-1,-1.2698734E-1],"split_indices":[19,41,32,0,3,6,39,17,40,32,19,9,11,0,0,0,0,0,0,0,0,0,0,0,0],"split_type":[0,0,0,0,0,0,0,0,0,0,0,0,0,0,0,0,0,0,0,0,0,0,0,0,0],"sum_hessian":[1.8901533E3,7.3201215E2,1.1581411E3,2.1086534E2,5.211468E2,9.411969E2,2.1694426E2,3.816759E1,4.829792E2,8.7949756E2,6.169935E1,1.0948936E2,1.0745491E2,2.9645315E1,8.522277E0,1.1215207E2,3.7082712E2,8.594494E2,2.0048172E1,8.912317E0,5.278703E1,9.5060455E1,1.4428902E1,9.35792E1,1.38757105E1],"tree_param":{"num_deleted":"0","num_feature":"42","num_nodes":"25","size_leaf_vector":"1"}},{"base_weights":[-1.597967E-2,-4.9625328E-1,2.5389627E-1,-1.6415504E-1,-5.0512373E-1,1.0370849E0,-4.5747715E-1,6.379189E-1,-1.2208955E-1,-1.2893589E-1,-4.0832302E-1,1.0655487E0,5.316347E-1,-9.347141E-2,-4.654479E-1,2.3079427E-1,-7.04425E-2,2.6011914E-1,-1.2408179E-1,2.672286E-1,-1.292194E-2,-1.2870815E-1,2.821113E-1,-1.2064268E-1,3.0849785E-1,-9.830791E-2,-1.2453501E-1],"categories":[],"categories_nodes":[],"categories_segments":[],"categories_sizes":[],"default_left":[0,0,0,0,0,0,0,0,0,0,0,0,0,0,0,0,0,0,0,0,0,0,0,0,0,0,0],"id":50,"left_children":[1,3,5,7,9,11,13,15,-1,-1,17,19,21,23,25,-1,-1,-1,-1,-1,-1,-1,-1,-1,-1,-1,-1],"loss_changes":[2.4062036E2,1.8845215E0,6.626889E2,5.214811E0,4.5761108E-1,7.5772705E0,1.7656555E0,1.7978656E0,0E0,0E0,9.321876E0,2.0665283E0,2.0674107E1,8.143174E0,1.2441101E0,0E0,0E0,0E0,0E0,0E0,0E0,0E0,0E0,0E0,0E0,0E0,0E0],"parents":[2147483647,0,0,1,1,2,2,3,3,4,4,5,5,6,6,7,7,10,10,11,11,12,12,13,13,14,14],"right_children":[2,4,6,8,10,12,14,16,-1,-1,18,20,22,24,26,-1,-1,-1,-1,-1,-1,-1,-1,-1,-1,-1,-1],"split_conditions":[7.8981674E-1,6.324797E-1,6.093821E-1,-5.327226E-2,6.209968E-1,5.0928235E-1,6.481945E-1,4.160862E-1,-1.2208955E-1,-1.2893589E-1,6.4495075E-1,8.983094E-1,3.9806288E-1,9.221192E-1,4.4743046E-1,2.3079427E-1,-7.04425E-2,2.6011914E-1,-1.2408179E-1,2.672286E-1,-1.292194E-2,-1.2870815E-1,2.821113E-1,